{"epoch": 490, "train_acc": 98.59274880363371, "test_acc": 98.11695685087055, "loss": 0.0120996730402112, "_timestamp": 1681408234.743938, "_runtime": 8057.675654888153, "_step": 50, "parameters/conv_layers.0.nn.0.weight": {"_type": "histogram", "values": [1.0, 1.0, 0.0, 1.0, 0.0, 0.0, 0.0, 0.0, 0.0, 0.0, 0.0, 1.0, 0.0, 0.0, 1.0, 0.0, 0.0, 2.0, 0.0, 0.0, 2.0, 3.0, 2.0, 2.0, 1.0, 2.0, 2.0, 3.0, 4.0, 1.0, 0.0, 0.0, 0.0, 0.0, 0.0, 0.0, 0.0, 0.0, 1.0, 0.0, 0.0, 0.0, 0.0, 0.0, 0.0, 0.0, 0.0, 0.0, 0.0, 0.0, 0.0, 0.0, 1.0, 0.0, 0.0, 0.0, 0.0, 0.0, 0.0, 0.0, 0.0, 0.0, 0.0, 1.0], "bins": [-1.8634068965911865, -1.7910561561584473, -1.7187052965164185, -1.6463545560836792, -1.5740036964416504, -1.5016529560089111, -1.4293022155761719, -1.356951355934143, -1.2846006155014038, -1.2122498750686646, -1.1398990154266357, -1.0675482749938965, -0.9951974749565125, -0.9228466749191284, -0.8504959344863892, -0.7781451344490051, -0.7057943344116211, -0.6334435343742371, -0.561092734336853, -0.48874199390411377, -0.41639119386672974, -0.3440403938293457, -0.27168962359428406, -0.19933883845806122, -0.12698805332183838, -0.05463726818561554, 0.0177135169506073, 0.09006430208683014, 0.16241508722305298, 0.23476587235927582, 0.30711665749549866, 0.3794674277305603, 0.45181846618652344, 0.5241692662239075, 0.5965200662612915, 0.6688708066940308, 0.7412216067314148, 0.8135724067687988, 0.8859231472015381, 0.9582739472389221, 1.0306247472763062, 1.1029754877090454, 1.1753263473510742, 1.2476770877838135, 1.3200278282165527, 1.3923786878585815, 1.4647294282913208, 1.5370802879333496, 1.6094310283660889, 1.6817817687988281, 1.754132628440857, 1.8264833688735962, 1.898834228515625, 1.9711849689483643, 2.0435357093811035, 2.1158864498138428, 2.188237190246582, 2.2605879306793213, 2.3329386711120605, 2.405289649963379, 2.477640390396118, 2.5499911308288574, 2.6223418712615967, 2.694692611694336, 2.7670435905456543]}, "parameters/conv_layers.0.nn.0.bias": {"_type": "histogram", "values": [1.0, 0.0, 0.0, 0.0, 0.0, 0.0, 0.0, 0.0, 0.0, 0.0, 0.0, 0.0, 1.0, 0.0, 0.0, 0.0, 0.0, 0.0, 0.0, 0.0, 0.0, 0.0, 0.0, 0.0, 0.0, 0.0, 0.0, 0.0, 0.0, 0.0, 0.0, 1.0, 0.0, 0.0, 0.0, 1.0, 0.0, 0.0, 0.0, 0.0, 0.0, 1.0, 0.0, 0.0, 0.0, 0.0, 0.0, 0.0, 0.0, 0.0, 0.0, 0.0, 0.0, 0.0, 0.0, 0.0, 1.0, 0.0, 1.0, 0.0, 0.0, 0.0, 0.0, 1.0], "bins": [-0.5398925542831421, -0.5223677158355713, -0.5048428177833557, -0.4873179793357849, -0.4697931408882141, -0.4522682726383209, -0.4347434341907501, -0.41721856594085693, -0.39969372749328613, -0.38216885924339294, -0.36464402079582214, -0.34711915254592896, -0.32959431409835815, -0.31206944584846497, -0.29454460740089417, -0.277019739151001, -0.2594948709011078, -0.2419700175523758, -0.2244451642036438, -0.2069203108549118, -0.1893954575061798, -0.17187058925628662, -0.15434573590755463, -0.13682088255882263, -0.11929602921009064, -0.10177117586135864, -0.08424632251262665, -0.06672146171331406, -0.04919660836458206, -0.03167175501585007, -0.014146897941827774, 0.00337795726954937, 0.020902812480926514, 0.03842766582965851, 0.0559525229036808, 0.0734773799777031, 0.09100223332643509, 0.10852708667516708, 0.12605194747447968, 0.14357680082321167, 0.16110165417194366, 0.17862650752067566, 0.19615136086940765, 0.21367621421813965, 0.23120108246803284, 0.24872593581676483, 0.2662507891654968, 0.2837756276130676, 0.3013004958629608, 0.318825364112854, 0.3363502025604248, 0.353875070810318, 0.3713999092578888, 0.388924777507782, 0.4064496159553528, 0.42397448420524597, 0.44149935245513916, 0.45902422070503235, 0.47654905915260315, 0.49407392740249634, 0.5115987658500671, 0.5291236042976379, 0.5466485023498535, 0.5641733407974243, 0.5816981792449951]}, "parameters/conv_layers.0.nn.1.weight": {"_type": "histogram", "values": [1.0, 1.0, 0.0, 0.0, 0.0, 0.0, 0.0, 0.0, 1.0, 1.0, 0.0, 0.0, 0.0, 0.0, 1.0, 0.0, 0.0, 0.0, 0.0, 0.0, 0.0, 0.0, 0.0, 1.0, 0.0, 0.0, 0.0, 0.0, 0.0, 0.0, 0.0, 0.0, 0.0, 0.0, 0.0, 0.0, 0.0, 0.0, 0.0, 1.0, 0.0, 0.0, 0.0, 0.0, 0.0, 0.0, 0.0, 0.0, 0.0, 0.0, 0.0, 0.0, 0.0, 0.0, 0.0, 0.0, 0.0, 0.0, 0.0, 0.0, 0.0, 0.0, 0.0, 1.0], "bins": [0.1260349154472351, 0.14261071383953094, 0.15918651223182678, 0.1757623255252838, 0.19233812391757965, 0.2089139223098755, 0.22548973560333252, 0.24206553399562836, 0.2586413323879242, 0.2752171456813812, 0.29179292917251587, 0.3083687424659729, 0.32494455575942993, 0.3415203392505646, 0.3580961525440216, 0.37467193603515625, 0.3912477493286133, 0.4078235626220703, 0.42439934611320496, 0.440975159406662, 0.45755094289779663, 0.47412675619125366, 0.4907025694847107, 0.5072783827781677, 0.52385413646698, 0.540429949760437, 0.557005763053894, 0.5735815167427063, 0.5901573300361633, 0.6067331433296204, 0.6233089566230774, 0.6398847699165344, 0.6564605236053467, 0.6730363368988037, 0.6896121501922607, 0.706187903881073, 0.72276371717453, 0.7393395304679871, 0.7559153437614441, 0.7724911570549011, 0.7890669107437134, 0.8056427240371704, 0.8222185373306274, 0.8387942910194397, 0.8553701043128967, 0.8719459176063538, 0.8885217308998108, 0.9050975441932678, 0.9216733574867249, 0.9382491707801819, 0.9548249840736389, 0.9714007377624512, 0.9879765510559082, 1.0045523643493652, 1.0211281776428223, 1.0377039909362793, 1.0542798042297363, 1.0708556175231934, 1.0874314308166504, 1.1040072441101074, 1.1205830574035645, 1.1371588706970215, 1.153734564781189, 1.170310378074646, 1.186886191368103]}, "parameters/conv_layers.0.nn.1.bias": {"_type": "histogram", "values": [1.0, 0.0, 0.0, 0.0, 0.0, 0.0, 0.0, 0.0, 0.0, 0.0, 1.0, 0.0, 1.0, 0.0, 0.0, 0.0, 0.0, 0.0, 0.0, 0.0, 0.0, 0.0, 0.0, 0.0, 0.0, 0.0, 0.0, 0.0, 0.0, 0.0, 1.0, 0.0, 0.0, 0.0, 0.0, 0.0, 0.0, 0.0, 0.0, 1.0, 0.0, 0.0, 0.0, 0.0, 0.0, 0.0, 0.0, 0.0, 0.0, 0.0, 0.0, 0.0, 2.0, 0.0, 0.0, 0.0, 0.0, 0.0, 0.0, 0.0, 0.0, 0.0, 0.0, 1.0], "bins": [-0.27804654836654663, -0.2677270770072937, -0.2574075758457184, -0.24708808958530426, -0.23676860332489014, -0.2264491319656372, -0.21612964570522308, -0.20581015944480896, -0.19549067318439484, -0.1851711869239807, -0.1748517006635666, -0.16453221440315247, -0.15421274304389954, -0.1438932567834854, -0.1335737705230713, -0.12325428426265717, -0.11293479800224304, -0.10261531174182892, -0.0922958254814148, -0.08197634667158127, -0.07165686041116714, -0.06133737415075302, -0.051017891615629196, -0.04069840908050537, -0.030378922820091248, -0.020059438422322273, -0.009739954024553299, 0.0005795303732156754, 0.01089901477098465, 0.021218499168753624, 0.0315379835665226, 0.04185746610164642, 0.05217692255973816, 0.06249640882015228, 0.0728158950805664, 0.08313537389039993, 0.09345486015081406, 0.10377434641122818, 0.1140938252210617, 0.12441331148147583, 0.13473279774188995, 0.14505228400230408, 0.1553717702627182, 0.16569125652313232, 0.17601072788238525, 0.18633021414279938, 0.1966497004032135, 0.20696918666362762, 0.21728867292404175, 0.22760815918445587, 0.23792764544487, 0.24824713170528412, 0.25856661796569824, 0.26888608932495117, 0.2792055904865265, 0.2895250618457794, 0.29984456300735474, 0.31016403436660767, 0.320483535528183, 0.3308030068874359, 0.34112250804901123, 0.35144197940826416, 0.3617614805698395, 0.3720809519290924, 0.38240042328834534]}, "parameters/conv_layers.0.nn.3.weight": {"_type": "histogram", "values": [1.0, 0.0, 0.0, 0.0, 0.0, 0.0, 0.0, 0.0, 1.0, 0.0, 0.0, 0.0, 0.0, 0.0, 0.0, 1.0, 0.0, 0.0, 0.0, 0.0, 0.0, 0.0, 0.0, 1.0, 1.0, 0.0, 0.0, 2.0, 1.0, 0.0, 1.0, 3.0, 1.0, 0.0, 1.0, 3.0, 4.0, 0.0, 0.0, 2.0, 1.0, 5.0, 8.0, 2.0, 4.0, 6.0, 2.0, 2.0, 3.0, 1.0, 2.0, 0.0, 0.0, 0.0, 2.0, 1.0, 1.0, 0.0, 0.0, 0.0, 0.0, 0.0, 0.0, 1.0], "bins": [-1.844101905822754, -1.8013988733291626, -1.7586957216262817, -1.7159926891326904, -1.6732896566390991, -1.6305865049362183, -1.587883472442627, -1.5451804399490356, -1.5024774074554443, -1.459774374961853, -1.4170712232589722, -1.3743681907653809, -1.3316651582717896, -1.2889620065689087, -1.2462589740753174, -1.203555941581726, -1.1608527898788452, -1.118149757385254, -1.075446605682373, -1.0327435731887817, -0.9900405406951904, -0.9473374485969543, -0.9046343564987183, -0.861931324005127, -0.8192282319068909, -0.7765251398086548, -0.7338221073150635, -0.6911190152168274, -0.6484159231185913, -0.605712890625, -0.5630097985267639, -0.5203067660331726, -0.4776037931442261, -0.4349007308483124, -0.3921976685523987, -0.3494945764541626, -0.3067915141582489, -0.2640884518623352, -0.22138537466526031, -0.17868229746818542, -0.13597923517227173, -0.09327616542577744, -0.05057309567928314, -0.007870025932788849, 0.034833043813705444, 0.07753611356019974, 0.12023918330669403, 0.16294226050376892, 0.20564532279968262, 0.2483483850955963, 0.29105144739151, 0.3337545394897461, 0.3764576017856598, 0.4191606640815735, 0.46186375617980957, 0.5045667886734009, 0.547269880771637, 0.589972972869873, 0.6326760053634644, 0.6753790974617004, 0.7180821895599365, 0.7607852220535278, 0.8034883141517639, 0.8461913466453552, 0.8888944387435913]}, "parameters/conv_layers.0.nn.3.bias": {"_type": "histogram", "values": [1.0, 0.0, 0.0, 0.0, 0.0, 1.0, 0.0, 0.0, 0.0, 0.0, 0.0, 0.0, 0.0, 0.0, 0.0, 0.0, 0.0, 0.0, 0.0, 0.0, 0.0, 0.0, 0.0, 0.0, 0.0, 1.0, 0.0, 0.0, 1.0, 0.0, 0.0, 0.0, 0.0, 0.0, 1.0, 1.0, 0.0, 0.0, 0.0, 0.0, 0.0, 0.0, 0.0, 0.0, 0.0, 0.0, 0.0, 0.0, 0.0, 0.0, 0.0, 1.0, 0.0, 0.0, 0.0, 0.0, 0.0, 0.0, 0.0, 0.0, 0.0, 0.0, 0.0, 1.0], "bins": [-0.2162339985370636, -0.20082023739814758, -0.18540647625923157, -0.16999271512031555, -0.15457895398139954, -0.13916519284248352, -0.1237514317035675, -0.10833767056465149, -0.09292390942573547, -0.07751014828681946, -0.06209638714790344, -0.04668262600898743, -0.03126886487007141, -0.015855103731155396, -0.0004413425922393799, 0.014972418546676636, 0.03038617968559265, 0.04579994082450867, 0.06121370196342468, 0.0766274631023407, 0.09204122424125671, 0.10745498538017273, 0.12286874651908875, 0.13828250765800476, 0.15369626879692078, 0.1691100299358368, 0.1845237910747528, 0.19993755221366882, 0.21535131335258484, 0.23076507449150085, 0.24617883563041687, 0.2615925967693329, 0.2770063877105713, 0.2924201488494873, 0.3078339099884033, 0.32324767112731934, 0.33866143226623535, 0.35407519340515137, 0.3694889545440674, 0.3849027156829834, 0.4003164768218994, 0.41573023796081543, 0.43114399909973145, 0.44655776023864746, 0.4619715213775635, 0.4773852825164795, 0.4927990436553955, 0.5082128047943115, 0.5236265659332275, 0.5390403270721436, 0.5544540882110596, 0.5698678493499756, 0.5852816104888916, 0.6006953716278076, 0.6161091327667236, 0.6315228939056396, 0.6469366550445557, 0.6623504161834717, 0.6777641773223877, 0.6931779384613037, 0.7085916996002197, 0.7240054607391357, 0.7394192218780518, 0.7548329830169678, 0.7702467441558838]}, "parameters/conv_layers.1.nn.0.weight": {"_type": "histogram", "values": [1.0, 0.0, 0.0, 0.0, 0.0, 0.0, 0.0, 0.0, 0.0, 0.0, 0.0, 0.0, 0.0, 0.0, 0.0, 0.0, 0.0, 0.0, 0.0, 0.0, 0.0, 0.0, 0.0, 0.0, 0.0, 0.0, 0.0, 0.0, 0.0, 0.0, 0.0, 0.0, 0.0, 0.0, 1.0, 0.0, 0.0, 0.0, 0.0, 0.0, 1.0, 0.0, 1.0, 0.0, 0.0, 3.0, 1.0, 4.0, 4.0, 2.0, 5.0, 3.0, 1.0, 4.0, 9.0, 2.0, 4.0, 7.0, 4.0, 4.0, 0.0, 0.0, 1.0, 2.0], "bins": [-3.0513525009155273, -2.994748830795288, -2.938145160675049, -2.8815414905548096, -2.8249378204345703, -2.768334150314331, -2.711730480194092, -2.6551268100738525, -2.5985231399536133, -2.541919469833374, -2.4853157997131348, -2.4287121295928955, -2.3721084594726562, -2.315504789352417, -2.2589011192321777, -2.2022974491119385, -2.14569354057312, -2.089089870452881, -2.0324862003326416, -1.9758825302124023, -1.919278860092163, -1.8626750707626343, -1.806071400642395, -1.7494677305221558, -1.6928640604019165, -1.6362603902816772, -1.579656720161438, -1.5230530500411987, -1.46644926071167, -1.4098455905914307, -1.3532419204711914, -1.2966382503509521, -1.240034580230713, -1.1834309101104736, -1.1268272399902344, -1.0702235698699951, -1.0136198997497559, -0.9570161700248718, -0.9004124402999878, -0.8438087701797485, -0.7872051000595093, -0.73060142993927, -0.6739977598190308, -0.6173940300941467, -0.5607903599739075, -0.5041866898536682, -0.44758298993110657, -0.3909792900085449, -0.33437561988830566, -0.2777719497680664, -0.22116824984550476, -0.1645645648241043, -0.10796087980270386, -0.051357194781303406, 0.005246490240097046, 0.0618501752614975, 0.11845386028289795, 0.1750575453042984, 0.23166123032569885, 0.2882649302482605, 0.34486860036849976, 0.401472270488739, 0.45807597041130066, 0.5146796703338623, 0.5712833404541016]}, "parameters/conv_layers.1.nn.0.bias": {"_type": "histogram", "values": [1.0, 0.0, 0.0, 0.0, 0.0, 0.0, 0.0, 0.0, 0.0, 0.0, 0.0, 0.0, 0.0, 0.0, 0.0, 0.0, 0.0, 0.0, 0.0, 0.0, 0.0, 0.0, 0.0, 0.0, 0.0, 0.0, 0.0, 0.0, 0.0, 0.0, 0.0, 1.0, 0.0, 1.0, 1.0, 0.0, 0.0, 0.0, 1.0, 0.0, 1.0, 0.0, 0.0, 0.0, 0.0, 0.0, 0.0, 0.0, 0.0, 0.0, 0.0, 0.0, 0.0, 0.0, 0.0, 0.0, 0.0, 0.0, 0.0, 0.0, 1.0, 0.0, 0.0, 1.0], "bins": [-0.6048821210861206, -0.5842062830924988, -0.563530445098877, -0.5428546071052551, -0.5221787691116333, -0.5015029907226562, -0.4808271527290344, -0.4601513147354126, -0.43947547674179077, -0.41879963874816895, -0.3981238007545471, -0.3774479925632477, -0.35677215456962585, -0.33609631657600403, -0.3154205083847046, -0.29474467039108276, -0.27406883239746094, -0.2533929944038391, -0.23271717131137848, -0.21204134821891785, -0.19136551022529602, -0.1706896722316742, -0.15001384913921356, -0.12933802604675293, -0.1086621880531311, -0.08798635751008987, -0.06731052696704865, -0.046634696424007416, -0.025958865880966187, -0.005283035337924957, 0.015392795205116272, 0.0360686257481575, 0.056744515895843506, 0.07742034643888474, 0.09809617698192596, 0.1187720075249672, 0.13944783806800842, 0.16012367606163025, 0.18079949915409088, 0.2014753222465515, 0.22215116024017334, 0.24282699823379517, 0.263502836227417, 0.28417864441871643, 0.30485448241233826, 0.3255303204059601, 0.3462061285972595, 0.36688196659088135, 0.3875578045845032, 0.408233642578125, 0.4289094805717468, 0.44958528876304626, 0.4702611267566681, 0.4909369647502899, 0.5116127729415894, 0.5322886109352112, 0.552964448928833, 0.5736402869224548, 0.5943161249160767, 0.6149919629096985, 0.6356678009033203, 0.6563435792922974, 0.6770194172859192, 0.697695255279541, 0.7183710932731628]}, "parameters/conv_layers.1.nn.1.weight": {"_type": "histogram", "values": [1.0, 0.0, 0.0, 0.0, 0.0, 0.0, 0.0, 1.0, 0.0, 1.0, 1.0, 0.0, 0.0, 0.0, 0.0, 0.0, 0.0, 0.0, 0.0, 0.0, 0.0, 0.0, 0.0, 1.0, 0.0, 1.0, 0.0, 0.0, 0.0, 0.0, 0.0, 0.0, 1.0, 0.0, 0.0, 0.0, 0.0, 0.0, 0.0, 0.0, 0.0, 0.0, 0.0, 0.0, 0.0, 0.0, 0.0, 0.0, 0.0, 0.0, 0.0, 0.0, 0.0, 0.0, 0.0, 0.0, 0.0, 0.0, 0.0, 0.0, 0.0, 0.0, 0.0, 1.0], "bins": [0.5025078654289246, 0.5204487442970276, 0.5383895635604858, 0.5563304424285889, 0.5742713212966919, 0.5922121405601501, 0.6101530194282532, 0.6280938982963562, 0.6460347175598145, 0.6639755964279175, 0.6819164156913757, 0.6998572945594788, 0.7177981734275818, 0.73573899269104, 0.7536798715591431, 0.7716207504272461, 0.7895616292953491, 0.8075025081634521, 0.8254433274269104, 0.8433842062950134, 0.8613250851631165, 0.8792659044265747, 0.8972067832946777, 0.9151476621627808, 0.9330885410308838, 0.9510294198989868, 0.9689702391624451, 0.9869111180305481, 1.0048519372940063, 1.0227928161621094, 1.0407336950302124, 1.0586745738983154, 1.0766154527664185, 1.0945563316345215, 1.1124972105026245, 1.1304380893707275, 1.148378849029541, 1.166319727897644, 1.184260606765747, 1.20220148563385, 1.2201423645019531, 1.2380832433700562, 1.2560241222381592, 1.2739650011062622, 1.2919057607650757, 1.3098466396331787, 1.3277875185012817, 1.3457283973693848, 1.3636691570281982, 1.3816100358963013, 1.3995509147644043, 1.4174917936325073, 1.4354325532913208, 1.4533734321594238, 1.4713143110275269, 1.4892551898956299, 1.507196068763733, 1.525136947631836, 1.543077826499939, 1.561018705368042, 1.5789594650268555, 1.5969003438949585, 1.6148412227630615, 1.6327821016311646, 1.6507229804992676]}, "parameters/conv_layers.1.nn.1.bias": {"_type": "histogram", "values": [1.0, 0.0, 0.0, 0.0, 0.0, 0.0, 0.0, 0.0, 0.0, 0.0, 0.0, 0.0, 0.0, 0.0, 0.0, 0.0, 0.0, 0.0, 0.0, 0.0, 0.0, 0.0, 0.0, 0.0, 0.0, 0.0, 0.0, 1.0, 0.0, 0.0, 1.0, 0.0, 0.0, 0.0, 0.0, 0.0, 0.0, 0.0, 0.0, 0.0, 1.0, 0.0, 0.0, 0.0, 0.0, 0.0, 0.0, 0.0, 0.0, 1.0, 0.0, 0.0, 0.0, 1.0, 0.0, 1.0, 0.0, 0.0, 0.0, 0.0, 0.0, 0.0, 0.0, 1.0], "bins": [-0.3161618113517761, -0.3044096827507019, -0.2926575541496277, -0.28090545535087585, -0.26915332674980164, -0.2574011981487274, -0.2456490695476532, -0.23389695584774017, -0.22214482724666595, -0.21039269864559174, -0.1986405849456787, -0.1868884563446045, -0.17513632774353027, -0.16338421404361725, -0.15163208544254303, -0.13987997174263, -0.1281278431415558, -0.11637572199106216, -0.10462360084056854, -0.09287147223949432, -0.0811193510890007, -0.06936722993850708, -0.05761510506272316, -0.04586298018693924, -0.03411085903644562, -0.022358736023306847, -0.010606613010168076, 0.0011455100029706955, 0.012897633016109467, 0.024649756029248238, 0.03640187904238701, 0.04815400391817093, 0.05990612506866455, 0.07165824621915817, 0.0834103673696518, 0.09516249597072601, 0.10691461712121964, 0.11866673827171326, 0.13041886687278748, 0.1421709805727005, 0.15392310917377472, 0.16567523777484894, 0.17742735147476196, 0.18917948007583618, 0.2009316086769104, 0.21268372237682343, 0.22443585097789764, 0.23618796467781067, 0.2479400932788849, 0.2596922218799591, 0.2714443504810333, 0.28319644927978516, 0.2949485778808594, 0.3067007064819336, 0.3184528350830078, 0.33020496368408203, 0.34195709228515625, 0.35370922088623047, 0.3654613494873047, 0.3772134482860565, 0.38896557688713074, 0.40071770548820496, 0.4124698340892792, 0.4242219626903534, 0.4359740614891052]}, "parameters/conv_layers.1.nn.3.weight": {"_type": "histogram", "values": [1.0, 0.0, 0.0, 0.0, 1.0, 0.0, 0.0, 0.0, 0.0, 0.0, 0.0, 0.0, 1.0, 1.0, 0.0, 0.0, 0.0, 0.0, 1.0, 1.0, 0.0, 0.0, 0.0, 0.0, 0.0, 2.0, 1.0, 0.0, 1.0, 2.0, 2.0, 2.0, 1.0, 4.0, 1.0, 3.0, 3.0, 2.0, 1.0, 2.0, 4.0, 3.0, 2.0, 0.0, 3.0, 0.0, 7.0, 4.0, 4.0, 0.0, 1.0, 1.0, 0.0, 0.0, 0.0, 0.0, 0.0, 1.0, 0.0, 0.0, 0.0, 0.0, 0.0, 1.0], "bins": [-2.1936497688293457, -2.1396710872650146, -2.0856921672821045, -2.0317134857177734, -1.9777345657348633, -1.9237557649612427, -1.8697770833969116, -1.815798282623291, -1.7618194818496704, -1.7078406810760498, -1.6538618803024292, -1.5998830795288086, -1.545904278755188, -1.4919254779815674, -1.4379467964172363, -1.3839679956436157, -1.3299891948699951, -1.2760103940963745, -1.222031593322754, -1.1680527925491333, -1.1140739917755127, -1.060095191001892, -1.006116509437561, -0.9521376490592957, -0.8981587886810303, -0.8441799879074097, -0.7902011871337891, -0.7362224459648132, -0.6822436451911926, -0.628264844417572, -0.5742860436439514, -0.5203072428703308, -0.466328501701355, -0.4123497009277344, -0.35837092995643616, -0.30439212918281555, -0.25041335821151733, -0.19643455743789673, -0.14245575666427612, -0.08847697079181671, -0.0344981849193573, 0.01948060467839241, 0.07345939427614212, 0.12743818759918213, 0.18141697347164154, 0.23539575934410095, 0.28937456011772156, 0.3433533310890198, 0.3973321318626404, 0.451310932636261, 0.5052897334098816, 0.5592684745788574, 0.613247275352478, 0.6672260761260986, 0.7212048768997192, 0.7751836776733398, 0.8291624784469604, 0.883141279220581, 0.9371200799942017, 0.9910988211631775, 1.0450776815414429, 1.0990564823150635, 1.1530351638793945, 1.2070139646530151, 1.2609927654266357]}, "parameters/conv_layers.1.nn.3.bias": {"_type": "histogram", "values": [2.0, 0.0, 0.0, 0.0, 0.0, 0.0, 0.0, 0.0, 0.0, 0.0, 0.0, 0.0, 0.0, 0.0, 0.0, 0.0, 0.0, 0.0, 0.0, 0.0, 0.0, 0.0, 0.0, 0.0, 0.0, 0.0, 0.0, 0.0, 0.0, 1.0, 0.0, 0.0, 1.0, 0.0, 0.0, 0.0, 1.0, 0.0, 0.0, 0.0, 0.0, 0.0, 0.0, 0.0, 0.0, 0.0, 0.0, 0.0, 0.0, 0.0, 0.0, 0.0, 1.0, 0.0, 0.0, 0.0, 0.0, 0.0, 0.0, 0.0, 0.0, 0.0, 0.0, 2.0], "bins": [-0.5103141665458679, -0.49258583784103394, -0.47485753893852234, -0.45712921023368835, -0.43940088152885437, -0.4216725826263428, -0.4039442539215088, -0.3862159252166748, -0.3684875965118408, -0.35075926780700684, -0.33303096890449524, -0.31530264019966125, -0.29757431149482727, -0.2798460125923157, -0.2621176838874817, -0.2443893551826477, -0.2266610562801361, -0.20893274247646332, -0.19120441377162933, -0.17347609996795654, -0.15574777126312256, -0.13801945745944977, -0.12029114365577698, -0.10256282240152359, -0.0848345011472702, -0.06710617989301682, -0.049377862364053726, -0.03164954483509064, -0.01392122358083725, 0.0038070958107709885, 0.021535415202379227, 0.039263732731342316, 0.0569920539855957, 0.07472037523984909, 0.09244869649410248, 0.11017701029777527, 0.12790533900260925, 0.14563365280628204, 0.16336196660995483, 0.18109029531478882, 0.1988186091184616, 0.2165469229221344, 0.23427525162696838, 0.25200358033180237, 0.26973187923431396, 0.28746020793914795, 0.30518853664398193, 0.32291683554649353, 0.3406451642513275, 0.3583734929561615, 0.3761017918586731, 0.3938301205635071, 0.41155844926834106, 0.42928674817085266, 0.44701507687568665, 0.46474340558052063, 0.4824717044830322, 0.5002000331878662, 0.5179283618927002, 0.5356566905975342, 0.5533849596977234, 0.5711132884025574, 0.5888416171073914, 0.6065699458122253, 0.6242982745170593]}, "parameters/conv_layers.2.nn.0.weight": {"_type": "histogram", "values": [1.0, 0.0, 0.0, 0.0, 0.0, 0.0, 0.0, 0.0, 0.0, 0.0, 0.0, 0.0, 0.0, 0.0, 0.0, 0.0, 0.0, 0.0, 0.0, 0.0, 0.0, 0.0, 0.0, 0.0, 0.0, 0.0, 0.0, 1.0, 0.0, 0.0, 0.0, 0.0, 0.0, 0.0, 0.0, 0.0, 0.0, 1.0, 0.0, 1.0, 0.0, 1.0, 1.0, 3.0, 1.0, 1.0, 5.0, 2.0, 2.0, 8.0, 2.0, 4.0, 3.0, 4.0, 5.0, 4.0, 5.0, 4.0, 2.0, 1.0, 0.0, 1.0, 0.0, 1.0], "bins": [-4.128961563110352, -4.04899787902832, -3.96903395652771, -3.8890700340270996, -3.8091061115264893, -3.729142189025879, -3.6491785049438477, -3.5692145824432373, -3.489250659942627, -3.4092867374420166, -3.3293230533599854, -3.249359130859375, -3.1693952083587646, -3.0894312858581543, -3.009467601776123, -2.9295036792755127, -2.8495397567749023, -2.769575834274292, -2.6896121501922607, -2.6096482276916504, -2.52968430519104, -2.4497203826904297, -2.3697566986083984, -2.289792776107788, -2.209829092025757, -2.1298651695251465, -2.0499014854431152, -1.9699375629425049, -1.8899736404418945, -1.8100098371505737, -1.7300459146499634, -1.6500821113586426, -1.5701181888580322, -1.4901543855667114, -1.410190463066101, -1.3302266597747803, -1.25026273727417, -1.1702989339828491, -1.0903350114822388, -1.010371208190918, -0.9304072856903076, -0.850443422794342, -0.7704795598983765, -0.6905156970024109, -0.6105518341064453, -0.5305880308151245, -0.45062416791915894, -0.37066030502319336, -0.2906964421272278, -0.2107325792312622, -0.13076873123645782, -0.050804875791072845, 0.029158979654312134, 0.10912283509969711, 0.1890866905450821, 0.2690505385398865, 0.34901440143585205, 0.4289782643318176, 0.5089421272277832, 0.5889059901237488, 0.6688698530197144, 0.7488336563110352, 0.8287975192070007, 0.9087613821029663, 0.9887252449989319]}, "parameters/conv_layers.2.nn.0.bias": {"_type": "histogram", "values": [1.0, 0.0, 0.0, 0.0, 1.0, 0.0, 0.0, 0.0, 0.0, 1.0, 0.0, 0.0, 0.0, 0.0, 0.0, 0.0, 0.0, 0.0, 0.0, 0.0, 0.0, 0.0, 1.0, 1.0, 0.0, 0.0, 0.0, 0.0, 2.0, 0.0, 0.0, 0.0, 0.0, 0.0, 0.0, 0.0, 0.0, 0.0, 0.0, 0.0, 0.0, 0.0, 0.0, 0.0, 0.0, 0.0, 0.0, 0.0, 0.0, 0.0, 0.0, 0.0, 0.0, 0.0, 0.0, 0.0, 0.0, 0.0, 0.0, 0.0, 0.0, 0.0, 0.0, 1.0], "bins": [-0.5973964929580688, -0.5757215023040771, -0.5540465116500854, -0.5323715209960938, -0.510696530342102, -0.48902150988578796, -0.46734651923179626, -0.44567152857780457, -0.42399653792381287, -0.40232154726982117, -0.38064655661582947, -0.35897156596183777, -0.3372965455055237, -0.315621554851532, -0.2939465641975403, -0.2722715735435486, -0.2505965828895569, -0.22892159223556519, -0.2072466015815735, -0.1855715960264206, -0.1638966053724289, -0.1422216147184372, -0.1205466166138649, -0.0988716185092926, -0.0771966278553009, -0.055521633476018906, -0.03384663909673691, -0.01217164471745491, 0.009503349661827087, 0.031178344041109085, 0.05285333842039108, 0.07452833652496338, 0.09620332717895508, 0.11787831783294678, 0.13955330848693848, 0.16122831404209137, 0.18290330469608307, 0.20457829535007477, 0.22625330090522766, 0.24792829155921936, 0.26960328221321106, 0.29127827286720276, 0.31295326352119446, 0.33462825417518616, 0.35630327463150024, 0.37797826528549194, 0.39965325593948364, 0.42132824659347534, 0.44300323724746704, 0.46467822790145874, 0.48635321855545044, 0.5080282092094421, 0.5297031998634338, 0.5513781905174255, 0.5730531811714172, 0.5947281718254089, 0.6164032220840454, 0.6380782127380371, 0.6597532033920288, 0.6814281940460205, 0.7031031847000122, 0.7247781753540039, 0.7464531660079956, 0.7681281566619873, 0.789803147315979]}, "parameters/conv_layers.2.nn.1.weight": {"_type": "histogram", "values": [1.0, 0.0, 0.0, 0.0, 0.0, 0.0, 0.0, 0.0, 0.0, 0.0, 0.0, 0.0, 0.0, 0.0, 1.0, 0.0, 0.0, 0.0, 0.0, 0.0, 0.0, 0.0, 0.0, 0.0, 0.0, 1.0, 0.0, 0.0, 1.0, 0.0, 0.0, 0.0, 0.0, 0.0, 0.0, 0.0, 0.0, 0.0, 0.0, 0.0, 0.0, 0.0, 0.0, 0.0, 1.0, 0.0, 1.0, 0.0, 0.0, 0.0, 0.0, 0.0, 0.0, 0.0, 0.0, 0.0, 0.0, 0.0, 0.0, 0.0, 0.0, 0.0, 1.0, 1.0], "bins": [0.32002484798431396, 0.3354474902153015, 0.3508701026439667, 0.36629271507263184, 0.3817153573036194, 0.39713799953460693, 0.4125606119632721, 0.42798322439193726, 0.4434058666229248, 0.45882850885391235, 0.4742511212825775, 0.4896737337112427, 0.5050963759422302, 0.5205190181732178, 0.5359416007995605, 0.5513642430305481, 0.5667868852615356, 0.5822095274925232, 0.5976321697235107, 0.6130547523498535, 0.6284773945808411, 0.6439000368118286, 0.6593226194381714, 0.6747452616691589, 0.6901679039001465, 0.705590546131134, 0.7210131883621216, 0.7364357709884644, 0.7518584132194519, 0.7672810554504395, 0.7827036380767822, 0.7981262803077698, 0.8135489225387573, 0.8289715647697449, 0.8443942070007324, 0.8598167896270752, 0.8752394318580627, 0.8906620740890503, 0.9060846567153931, 0.9215072989463806, 0.9369299411773682, 0.9523525834083557, 0.9677752256393433, 0.983197808265686, 0.9986204504966736, 1.0140430927276611, 1.029465675354004, 1.0448883771896362, 1.060310959815979, 1.0757335424423218, 1.091156244277954, 1.1065788269042969, 1.1220014095306396, 1.137424111366272, 1.1528466939926147, 1.168269395828247, 1.1836919784545898, 1.1991145610809326, 1.214537262916565, 1.2299598455429077, 1.24538254737854, 1.2608051300048828, 1.2762277126312256, 1.291650414466858, 1.3070729970932007]}, "parameters/conv_layers.2.nn.1.bias": {"_type": "histogram", "values": [1.0, 0.0, 0.0, 0.0, 0.0, 0.0, 0.0, 0.0, 0.0, 0.0, 0.0, 0.0, 0.0, 0.0, 0.0, 0.0, 0.0, 0.0, 0.0, 1.0, 0.0, 0.0, 0.0, 0.0, 0.0, 0.0, 0.0, 0.0, 0.0, 0.0, 0.0, 0.0, 0.0, 0.0, 1.0, 0.0, 0.0, 1.0, 0.0, 1.0, 0.0, 0.0, 0.0, 0.0, 0.0, 0.0, 0.0, 0.0, 0.0, 0.0, 0.0, 0.0, 0.0, 0.0, 1.0, 0.0, 0.0, 0.0, 0.0, 1.0, 0.0, 0.0, 0.0, 1.0], "bins": [-0.9298086166381836, -0.9076413512229919, -0.8854740858078003, -0.8633068203926086, -0.841139554977417, -0.8189722895622253, -0.7968050241470337, -0.774637758731842, -0.7524704933166504, -0.7303032279014587, -0.7081359624862671, -0.6859686970710754, -0.6638014316558838, -0.6416341662406921, -0.6194669008255005, -0.5972996354103088, -0.5751323103904724, -0.5529650449752808, -0.5307977795600891, -0.5086305141448975, -0.4864632487297058, -0.4642959535121918, -0.4421286880970001, -0.41996142268180847, -0.3977941572666168, -0.37562689185142517, -0.3534596264362335, -0.33129236102104187, -0.30912506580352783, -0.2869578003883362, -0.26479053497314453, -0.24262326955795288, -0.22045600414276123, -0.19828873872756958, -0.17612147331237793, -0.15395419299602509, -0.13178692758083344, -0.10961966216564178, -0.08745238929986954, -0.06528511643409729, -0.04311785101890564, -0.02095058187842369, 0.001216687262058258, 0.023383956402540207, 0.045551225543022156, 0.0677184909582138, 0.08988576382398605, 0.1120530366897583, 0.13422030210494995, 0.1563875675201416, 0.17855483293533325, 0.2007221132516861, 0.22288937866687775, 0.2450566440820694, 0.26722392439842224, 0.2893911898136139, 0.31155845522880554, 0.3337257206439972, 0.35589298605918884, 0.3780602514743805, 0.40022754669189453, 0.4223948121070862, 0.44456207752227783, 0.4667293429374695, 0.48889660835266113]}, "parameters/conv_layers.2.nn.3.weight": {"_type": "histogram", "values": [1.0, 0.0, 0.0, 0.0, 0.0, 0.0, 0.0, 0.0, 0.0, 0.0, 0.0, 0.0, 0.0, 0.0, 0.0, 0.0, 0.0, 0.0, 1.0, 0.0, 0.0, 1.0, 0.0, 0.0, 0.0, 2.0, 0.0, 0.0, 0.0, 0.0, 2.0, 0.0, 0.0, 1.0, 1.0, 1.0, 0.0, 0.0, 2.0, 2.0, 1.0, 3.0, 5.0, 0.0, 0.0, 4.0, 2.0, 3.0, 5.0, 1.0, 4.0, 1.0, 4.0, 0.0, 1.0, 2.0, 0.0, 5.0, 2.0, 3.0, 1.0, 0.0, 1.0, 2.0], "bins": [-2.3436455726623535, -2.2962474822998047, -2.248849391937256, -2.201451539993286, -2.1540534496307373, -2.1066553592681885, -2.0592572689056396, -2.01185941696167, -1.964461326599121, -1.9170632362365723, -1.869665265083313, -1.8222671747207642, -1.7748692035675049, -1.727471113204956, -1.6800731420516968, -1.632675051689148, -1.5852769613265991, -1.5378788709640503, -1.490480899810791, -1.4430828094482422, -1.395684838294983, -1.348286747932434, -1.3008887767791748, -1.253490686416626, -1.2060925960540771, -1.1586945056915283, -1.111296534538269, -1.0638984441757202, -1.016500473022461, -0.9691023826599121, -0.9217043519020081, -0.874306321144104, -0.8269084095954895, -0.7795103788375854, -0.7321123480796814, -0.6847143173217773, -0.6373162269592285, -0.5899181962013245, -0.5425201654434204, -0.49512213468551636, -0.4477241039276123, -0.40032607316970825, -0.3529280424118042, -0.30552998185157776, -0.2581319510936737, -0.21073392033576965, -0.1633358746767044, -0.11593783646821976, -0.06853979825973511, -0.021141760051250458, 0.026256278157234192, 0.07365431636571884, 0.12105235457420349, 0.16845038533210754, 0.2158484309911728, 0.26324647665023804, 0.3106445074081421, 0.35804253816604614, 0.4054405689239502, 0.45283862948417664, 0.5002366304397583, 0.5476347208023071, 0.5950327515602112, 0.6424307823181152, 0.6898288130760193]}, "parameters/conv_layers.2.nn.3.bias": {"_type": "histogram", "values": [1.0, 0.0, 0.0, 0.0, 1.0, 0.0, 0.0, 0.0, 0.0, 0.0, 0.0, 0.0, 0.0, 0.0, 1.0, 0.0, 0.0, 0.0, 0.0, 1.0, 0.0, 0.0, 0.0, 0.0, 0.0, 0.0, 0.0, 0.0, 0.0, 0.0, 0.0, 0.0, 0.0, 0.0, 0.0, 0.0, 0.0, 0.0, 0.0, 1.0, 0.0, 0.0, 0.0, 0.0, 0.0, 0.0, 0.0, 0.0, 0.0, 0.0, 0.0, 1.0, 0.0, 0.0, 0.0, 1.0, 0.0, 0.0, 0.0, 0.0, 0.0, 0.0, 0.0, 1.0], "bins": [-1.6173675060272217, -1.5804706811904907, -1.5435739755630493, -1.5066771507263184, -1.469780445098877, -1.432883620262146, -1.395986795425415, -1.3590900897979736, -1.3221932649612427, -1.2852964401245117, -1.2483997344970703, -1.2115029096603394, -1.174606204032898, -1.137709379196167, -1.100812554359436, -1.0639158487319946, -1.0270190238952637, -0.9901222586631775, -0.9532254934310913, -0.9163286685943604, -0.8794319033622742, -0.842535138130188, -0.8056383728981018, -0.7687416076660156, -0.7318449020385742, -0.694948136806488, -0.6580513715744019, -0.6211545467376709, -0.5842577815055847, -0.5473610162734985, -0.5104642510414124, -0.4735674560070038, -0.43667072057724, -0.3997739553451538, -0.36287716031074524, -0.32598039507865906, -0.2890836000442505, -0.2521868348121643, -0.21529006958007812, -0.17839328944683075, -0.14149650931358337, -0.104599729180336, -0.06770295649766922, -0.030806180089712143, 0.006090596318244934, 0.04298737272620201, 0.07988414913415909, 0.11678092181682587, 0.15367770195007324, 0.19057448208332062, 0.227471262216568, 0.2643680274486542, 0.30126482248306274, 0.3381615877151489, 0.3750583529472351, 0.4119551479816437, 0.44885191321372986, 0.48574867844581604, 0.5226454734802246, 0.5595422387123108, 0.596439003944397, 0.6333357691764832, 0.6702325940132141, 0.7071293592453003, 0.7440261244773865]}, "parameters/lin1.weight": {"_type": "histogram", "values": [2.0, 0.0, 0.0, 0.0, 0.0, 0.0, 0.0, 0.0, 0.0, 0.0, 0.0, 2.0, 3.0, 1.0, 4.0, 3.0, 1.0, 4.0, 4.0, 5.0, 6.0, 12.0, 13.0, 27.0, 25.0, 32.0, 54.0, 83.0, 110.0, 135.0, 166.0, 300.0, 538.0, 979.0, 967.0, 730.0, 279.0, 152.0, 107.0, 106.0, 85.0, 51.0, 47.0, 52.0, 18.0, 21.0, 14.0, 9.0, 10.0, 12.0, 5.0, 0.0, 5.0, 2.0, 0.0, 0.0, 0.0, 1.0, 0.0, 0.0, 1.0, 0.0, 0.0, 1.0], "bins": [-2.7863850593566895, -2.705829620361328, -2.625274419784546, -2.5447189807891846, -2.4641635417938232, -2.383608341217041, -2.3030529022216797, -2.2224974632263184, -2.141942024230957, -2.0613865852355957, -1.980831265449524, -1.9002759456634521, -1.8197205066680908, -1.739165186882019, -1.6586098670959473, -1.578054428100586, -1.4974992275238037, -1.416943907737732, -1.3363884687423706, -1.2558331489562988, -1.1752777099609375, -1.0947223901748657, -1.014167070388794, -0.9336116909980774, -0.8530563116073608, -0.7725009322166443, -0.6919455528259277, -0.611390233039856, -0.5308348536491394, -0.45027947425842285, -0.3697241246700287, -0.2891687750816345, -0.20861339569091797, -0.1280580312013626, -0.04750266671180725, 0.03305269777774811, 0.11360806226730347, 0.19416342675685883, 0.2747187912464142, 0.35527414083480835, 0.4358295202255249, 0.5163848996162415, 0.596940279006958, 0.6774955987930298, 0.7580509781837463, 0.8386063575744629, 0.9191616773605347, 0.9997170567512512, 1.0802724361419678, 1.1608277559280396, 1.2413831949234009, 1.3219385147094727, 1.402493953704834, 1.4830492734909058, 1.5636045932769775, 1.6441600322723389, 1.7247153520584106, 1.8052706718444824, 1.8858261108398438, 1.9663814306259155, 2.0469367504119873, 2.1274921894073486, 2.20804762840271, 2.288602828979492, 2.3691582679748535]}, "parameters/lin1.bias": {"_type": "histogram", "values": [1.0, 0.0, 0.0, 0.0, 0.0, 0.0, 1.0, 0.0, 1.0, 0.0, 1.0, 1.0, 1.0, 2.0, 0.0, 2.0, 1.0, 2.0, 2.0, 1.0, 1.0, 1.0, 2.0, 3.0, 2.0, 0.0, 4.0, 4.0, 1.0, 2.0, 1.0, 3.0, 3.0, 2.0, 2.0, 3.0, 4.0, 2.0, 1.0, 1.0, 1.0, 1.0, 0.0, 0.0, 1.0, 0.0, 1.0, 1.0, 0.0, 1.0, 0.0, 0.0, 1.0, 0.0, 0.0, 2.0, 1.0, 0.0, 1.0, 1.0, 0.0, 1.0, 0.0, 1.0], "bins": [-0.5371144413948059, -0.5212334394454956, -0.5053524971008301, -0.4894714951515198, -0.47359052300453186, -0.45770952105522156, -0.44182854890823364, -0.4259475767612457, -0.4100666046142578, -0.3941856324672699, -0.3783046305179596, -0.3624236583709717, -0.34654268622398376, -0.33066168427467346, -0.31478071212768555, -0.29889973998069763, -0.28301873803138733, -0.2671377658843994, -0.2512567639350891, -0.2353757917881012, -0.21949481964111328, -0.20361383259296417, -0.18773284554481506, -0.17185187339782715, -0.15597088634967804, -0.14008989930152893, -0.12420892715454102, -0.1083279401063919, -0.0924469605088234, -0.07656598091125488, -0.06068499758839607, -0.04480401426553726, -0.028923004865646362, -0.013042023405432701, 0.00283895805478096, 0.01871993951499462, 0.03460092097520828, 0.050481900572776794, 0.0663628876209259, 0.08224386721849442, 0.09812484681606293, 0.11400582641363144, 0.12988680601119995, 0.14576779305934906, 0.16164878010749817, 0.17752975225448608, 0.1934107393026352, 0.2092917114496231, 0.22517269849777222, 0.24105368554592133, 0.25693467259407043, 0.27281564474105835, 0.28869661688804626, 0.30457761883735657, 0.3204585909843445, 0.3363395631313324, 0.3522205352783203, 0.3681015074253082, 0.38398250937461853, 0.39986348152160645, 0.41574445366859436, 0.43162545561790466, 0.4475064277648926, 0.4633873999118805, 0.4792684018611908]}, "parameters/lin2.weight": {"_type": "histogram", "values": [1.0, 0.0, 0.0, 0.0, 0.0, 0.0, 0.0, 0.0, 0.0, 0.0, 0.0, 0.0, 2.0, 0.0, 1.0, 5.0, 0.0, 2.0, 1.0, 4.0, 0.0, 2.0, 10.0, 20.0, 8.0, 2.0, 0.0, 0.0, 0.0, 0.0, 1.0, 1.0, 0.0, 3.0, 1.0, 0.0, 1.0, 0.0, 0.0, 0.0, 0.0, 0.0, 2.0, 0.0, 0.0, 0.0, 1.0, 0.0, 1.0, 1.0, 1.0, 0.0, 0.0, 0.0, 0.0, 0.0, 0.0, 0.0, 0.0, 0.0, 0.0, 0.0, 0.0, 1.0], "bins": [-0.9378094673156738, -0.8980541229248047, -0.8582988381385803, -0.8185434937477112, -0.7787882089614868, -0.7390328645706177, -0.6992775201797485, -0.6595222353935242, -0.619766891002655, -0.5800115466117859, -0.5402562618255615, -0.5005009174346924, -0.46074560284614563, -0.4209902882575989, -0.38123494386672974, -0.341479629278183, -0.30172431468963623, -0.2619690001010895, -0.22221367061138153, -0.18245834112167358, -0.14270302653312683, -0.10294770449399948, -0.06319238245487213, -0.02343706041574478, 0.01631826162338257, 0.05607358366250992, 0.09582890570163727, 0.13558423519134521, 0.17533954977989197, 0.21509486436843872, 0.25485020875930786, 0.2946055233478546, 0.3343607187271118, 0.37411603331565857, 0.4138713479042053, 0.45362669229507446, 0.4933820068836212, 0.533137321472168, 0.5728926658630371, 0.6126479506492615, 0.6524032950401306, 0.6921586394309998, 0.7319139242172241, 0.7716692686080933, 0.8114246129989624, 0.8511798977851868, 0.8909352421760559, 0.9306905269622803, 0.9704458713531494, 1.0102012157440186, 1.0499565601348877, 1.0897117853164673, 1.1294671297073364, 1.1692224740982056, 1.2089778184890747, 1.2487331628799438, 1.2884883880615234, 1.3282437324523926, 1.3679990768432617, 1.4077543020248413, 1.4475096464157104, 1.4872649908065796, 1.5270203351974487, 1.5667756795883179, 1.606531023979187]}, "parameters/lin2.bias": {"_type": "histogram", "values": [0.0, 0.0, 0.0, 0.0, 0.0, 0.0, 0.0, 0.0, 0.0, 0.0, 0.0, 0.0, 0.0, 0.0, 0.0, 0.0, 0.0, 0.0, 0.0, 0.0, 0.0, 0.0, 0.0, 0.0, 0.0, 0.0, 0.0, 0.0, 0.0, 0.0, 0.0, 1.0, 0.0, 0.0, 0.0, 0.0, 0.0, 0.0, 0.0, 0.0, 0.0, 0.0, 0.0, 0.0, 0.0, 0.0, 0.0, 0.0, 0.0, 0.0, 0.0, 0.0, 0.0, 0.0, 0.0, 0.0, 0.0, 0.0, 0.0, 0.0, 0.0, 0.0, 0.0, 0.0], "bins": [-0.6618812680244446, -0.6618812680244446, -0.6618812680244446, -0.6618812680244446, -0.6618812680244446, -0.6618812680244446, -0.6618812680244446, -0.6618812680244446, -0.6618812680244446, -0.6618812680244446, -0.6618812680244446, -0.6618812680244446, -0.6618812680244446, -0.6618812680244446, -0.6618812680244446, -0.6618812680244446, -0.6618812680244446, -0.6618812680244446, -0.6618812680244446, -0.6618812680244446, -0.6618812680244446, -0.6618812680244446, -0.6618812680244446, -0.6618812680244446, -0.6618812680244446, -0.6618812680244446, -0.6618812680244446, -0.6618812680244446, -0.6618812680244446, -0.6618812680244446, -0.6618812680244446, -0.6618812680244446, -0.6618812680244446, -0.6618812680244446, -0.6618812680244446, -0.6618812680244446, -0.6618812680244446, -0.6618812680244446, -0.6618812680244446, -0.6618812680244446, -0.6618812680244446, -0.6618812680244446, -0.6618812680244446, -0.6618812680244446, -0.6618812680244446, -0.6618812680244446, -0.6618812680244446, -0.6618812680244446, -0.6618812680244446, -0.6618812680244446, -0.6618812680244446, -0.6618812680244446, -0.6618812680244446, -0.6618812680244446, -0.6618812680244446, -0.6618812680244446, -0.6618812680244446, -0.6618812680244446, -0.6618812680244446, -0.6618812680244446, -0.6618812680244446, -0.6618812680244446, -0.6618812680244446, -0.6618812680244446, -0.6618812680244446]}, "gradients/lin2.bias": {"_type": "histogram", "values": [0.0, 0.0, 0.0, 0.0, 0.0, 0.0, 0.0, 0.0, 0.0, 0.0, 0.0, 0.0, 0.0, 0.0, 0.0, 0.0, 0.0, 0.0, 0.0, 0.0, 0.0, 0.0, 0.0, 0.0, 0.0, 0.0, 0.0, 0.0, 0.0, 0.0, 0.0, 0.0, 1.0, 0.0, 0.0, 0.0, 0.0, 0.0, 0.0, 0.0, 0.0, 0.0, 0.0, 0.0, 0.0, 0.0, 0.0, 0.0, 0.0, 0.0, 0.0, 0.0, 0.0, 0.0, 0.0, 0.0, 0.0, 0.0, 0.0, 0.0, 0.0, 0.0, 0.0, 0.0], "bins": [0.01032518595457077, 0.01032518595457077, 0.01032518595457077, 0.01032518595457077, 0.01032518595457077, 0.01032518595457077, 0.01032518595457077, 0.01032518595457077, 0.01032518595457077, 0.01032518595457077, 0.01032518595457077, 0.01032518595457077, 0.01032518595457077, 0.01032518595457077, 0.01032518595457077, 0.01032518595457077, 0.01032518595457077, 0.01032518595457077, 0.01032518595457077, 0.01032518595457077, 0.01032518595457077, 0.01032518595457077, 0.01032518595457077, 0.01032518595457077, 0.01032518595457077, 0.01032518595457077, 0.01032518595457077, 0.01032518595457077, 0.01032518595457077, 0.01032518595457077, 0.01032518595457077, 0.01032518595457077, 0.01032518595457077, 0.01032518595457077, 0.01032518595457077, 0.01032518595457077, 0.01032518595457077, 0.01032518595457077, 0.01032518595457077, 0.01032518595457077, 0.01032518595457077, 0.01032518595457077, 0.01032518595457077, 0.01032518595457077, 0.01032518595457077, 0.01032518595457077, 0.01032518595457077, 0.01032518595457077, 0.01032518595457077, 0.01032518595457077, 0.01032518595457077, 0.01032518595457077, 0.01032518595457077, 0.01032518595457077, 0.01032518595457077, 0.01032518595457077, 0.01032518595457077, 0.01032518595457077, 0.01032518595457077, 0.01032518595457077, 0.01032518595457077, 0.01032518595457077, 0.01032518595457077, 0.01032518595457077, 0.01032518595457077]}, "gradients/lin2.weight": {"_type": "histogram", "values": [60.0, 1.0, 2.0, 0.0, 2.0, 0.0, 0.0, 1.0, 0.0, 1.0, 0.0, 0.0, 0.0, 1.0, 2.0, 0.0, 0.0, 0.0, 0.0, 0.0, 0.0, 0.0, 0.0, 0.0, 0.0, 0.0, 0.0, 0.0, 0.0, 0.0, 1.0, 0.0, 0.0, 0.0, 0.0, 0.0, 0.0, 0.0, 0.0, 0.0, 0.0, 0.0, 0.0, 0.0, 0.0, 0.0, 0.0, 0.0, 0.0, 0.0, 0.0, 0.0, 0.0, 0.0, 0.0, 0.0, 0.0, 0.0, 0.0, 0.0, 0.0, 0.0, 0.0, 1.0], "bins": [-3.227753950341139e-06, 0.0008125865133479238, 0.001628400757908821, 0.0024442148860543966, 0.003260029247030616, 0.004075843375176191, 0.0048916577361524105, 0.00570747209712863, 0.0065232859924435616, 0.007339100353419781, 0.008154914714396, 0.008970729075372219, 0.009786542505025864, 0.010602356866002083, 0.011418171226978302, 0.012233985587954521, 0.01304979994893074, 0.01386561430990696, 0.014681428670883179, 0.015497243031859398, 0.016313057392835617, 0.017128871753811836, 0.017944686114788055, 0.018760500475764275, 0.019576314836740494, 0.020392129197716713, 0.021207943558692932, 0.02202375791966915, 0.02283957228064537, 0.02365538664162159, 0.02447120100259781, 0.025287015363574028, 0.026102829724550247, 0.026918644085526466, 0.027734458446502686, 0.028550272807478905, 0.029366087168455124, 0.030181901529431343, 0.030997715890407562, 0.03181352838873863, 0.03262934461236, 0.03344515711069107, 0.03426097333431244, 0.03507678583264351, 0.03589260205626488, 0.03670841455459595, 0.037524230778217316, 0.038340043276548386, 0.039155855774879456, 0.039971668273210526, 0.040787484496831894, 0.041603296995162964, 0.04241911321878433, 0.0432349257171154, 0.04405074194073677, 0.04486655443906784, 0.04568237066268921, 0.04649818316102028, 0.04731399938464165, 0.04812981188297272, 0.048945628106594086, 0.049761440604925156, 0.050577256828546524, 0.051393069326877594, 0.05220888555049896]}, "gradients/lin1.bias": {"_type": "histogram", "values": [1.0, 1.0, 0.0, 0.0, 0.0, 0.0, 0.0, 0.0, 0.0, 0.0, 0.0, 1.0, 2.0, 0.0, 0.0, 0.0, 0.0, 0.0, 1.0, 0.0, 0.0, 0.0, 0.0, 0.0, 0.0, 0.0, 0.0, 0.0, 0.0, 2.0, 0.0, 0.0, 1.0, 1.0, 59.0, 0.0, 0.0, 0.0, 0.0, 0.0, 0.0, 0.0, 0.0, 0.0, 0.0, 1.0, 0.0, 0.0, 0.0, 0.0, 0.0, 0.0, 0.0, 0.0, 0.0, 0.0, 1.0, 0.0, 0.0, 0.0, 0.0, 0.0, 0.0, 1.0], "bins": [-0.001731384894810617, -0.0016811161767691374, -0.0016308474587276578, -0.0015805787406861782, -0.0015303100226446986, -0.001480041304603219, -0.0014297725865617394, -0.0013795038685202599, -0.0013292351504787803, -0.0012789664324373007, -0.001228697714395821, -0.0011784289963543415, -0.001128160278312862, -0.0010778915602713823, -0.0010276228422299027, -0.0009773541241884232, -0.0009270854643546045, -0.0008768167463131249, -0.0008265480282716453, -0.0007762793102301657, -0.0007260105921886861, -0.0006757418741472065, -0.000625473156105727, -0.0005752044380642474, -0.0005249357782304287, -0.0004746670601889491, -0.0004243983421474695, -0.00037412962410598993, -0.00032386090606451035, -0.0002735922171268612, -0.00022332349908538163, -0.00017305478104390204, -0.000122786033898592, -7.251731585711241e-05, -2.2248605091590434e-05, 2.8020109311910346e-05, 7.828882371541113e-05, 0.00012855754175689071, 0.00017882624524645507, 0.00022909496328793466, 0.00027936368132941425, 0.00032963239937089384, 0.0003799011174123734, 0.000430169835453853, 0.00048043852439150214, 0.0005307072424329817, 0.0005809759604744613, 0.0006312446785159409, 0.0006815133965574205, 0.0007317821145989001, 0.0007820508326403797, 0.0008323195506818593, 0.0008825882687233388, 0.0009328569867648184, 0.000983125646598637, 0.0010333943646401167, 0.0010836630826815963, 0.0011339318007230759, 0.0011842005187645555, 0.001234469236806035, 0.0012847379548475146, 0.0013350066728889942, 0.0013852753909304738, 0.0014355441089719534, 0.001485812827013433]}, "gradients/lin1.weight": {"_type": "histogram", "values": [3.0, 0.0, 0.0, 1.0, 0.0, 1.0, 1.0, 0.0, 0.0, 0.0, 4.0, 2.0, 5.0, 2.0, 0.0, 2.0, 3.0, 2.0, 4.0, 3.0, 4.0, 5.0, 5.0, 9.0, 10.0, 8.0, 10.0, 18.0, 16.0, 25.0, 47.0, 97.0, 4711.0, 89.0, 24.0, 15.0, 11.0, 9.0, 5.0, 5.0, 4.0, 2.0, 6.0, 3.0, 2.0, 2.0, 2.0, 0.0, 1.0, 2.0, 0.0, 0.0, 1.0, 0.0, 1.0, 0.0, 0.0, 0.0, 0.0, 1.0, 0.0, 0.0, 0.0, 1.0], "bins": [-0.029212208464741707, -0.028323115780949593, -0.027434024959802628, -0.026544932276010513, -0.0256558395922184, -0.024766748771071434, -0.02387765608727932, -0.022988565266132355, -0.02209947258234024, -0.021210379898548126, -0.02032128907740116, -0.019432196393609047, -0.018543105572462082, -0.017654012888669968, -0.016764920204877853, -0.01587582938373089, -0.014986736699938774, -0.014097644947469234, -0.013208553194999695, -0.01231946051120758, -0.011430368758738041, -0.010541277006268501, -0.009652184322476387, -0.008763092570006847, -0.007874000817537308, -0.006984909065067768, -0.006095816846936941, -0.005206724628806114, -0.0043176328763365746, -0.0034285408910363913, -0.002539448905736208, -0.0016503569204360247, -0.0007612649351358414, 0.00012782705016434193, 0.0010169190354645252, 0.0019060110207647085, 0.002795103006064892, 0.003684194991365075, 0.004573286976665258, 0.005462379194796085, 0.006351470947265625, 0.007240562699735165, 0.008129654452204704, 0.009018747135996819, 0.009907838888466358, 0.010796930640935898, 0.011686023324728012, 0.012575115077197552, 0.013464206829667091, 0.014353298582136631, 0.01524239033460617, 0.016131483018398285, 0.0170205757021904, 0.017909666523337364, 0.01879875920712948, 0.019687850028276443, 0.020576942712068558, 0.021466035395860672, 0.022355126217007637, 0.02324421890079975, 0.024133309721946716, 0.02502240240573883, 0.025911495089530945, 0.02680058591067791, 0.027689678594470024]}, "gradients/conv_layers.2.nn.3.bias": {"_type": "histogram", "values": [1.0, 1.0, 0.0, 1.0, 0.0, 0.0, 0.0, 0.0, 0.0, 0.0, 0.0, 0.0, 1.0, 0.0, 0.0, 0.0, 0.0, 0.0, 0.0, 0.0, 0.0, 1.0, 0.0, 0.0, 0.0, 0.0, 0.0, 0.0, 0.0, 0.0, 0.0, 0.0, 0.0, 0.0, 0.0, 0.0, 0.0, 1.0, 0.0, 0.0, 0.0, 0.0, 0.0, 0.0, 0.0, 0.0, 0.0, 0.0, 0.0, 0.0, 0.0, 0.0, 0.0, 0.0, 0.0, 0.0, 0.0, 0.0, 0.0, 1.0, 0.0, 0.0, 0.0, 1.0], "bins": [-0.0012027532793581486, -0.0007899489719420671, -0.00037714472273364663, 3.565955557860434e-05, 0.0004484638338908553, 0.0008612681413069367, 0.0012740723323076963, 0.0016868766397237778, 0.002099680947139859, 0.0025124852545559406, 0.002925289561972022, 0.0033380938693881035, 0.0037508979439735413, 0.004163702484220266, 0.004576506558805704, 0.004989311099052429, 0.005402115173637867, 0.005814919248223305, 0.00622772378847003, 0.006640527863055468, 0.007053332403302193, 0.0074661364778876305, 0.007878940552473068, 0.00829174555838108, 0.008704549632966518, 0.009117353707551956, 0.009530157782137394, 0.009942962788045406, 0.010355766862630844, 0.010768570937216282, 0.01118137501180172, 0.011594180017709732, 0.01200698409229517, 0.012419788166880608, 0.012832592241466045, 0.013245397247374058, 0.013658201321959496, 0.014071005396544933, 0.014483809471130371, 0.014896614477038383, 0.015309418551623821, 0.01572222262620926, 0.01613502763211727, 0.016547830775380135, 0.016960635781288147, 0.01737344078719616, 0.017786243930459023, 0.018199048936367035, 0.018611852079629898, 0.01902465708553791, 0.019437460228800774, 0.019850265234708786, 0.02026306837797165, 0.02067587338387966, 0.021088678389787674, 0.021501481533050537, 0.02191428653895855, 0.022327091544866562, 0.022739894688129425, 0.023152699694037437, 0.0235655028373003, 0.023978307843208313, 0.024391112849116325, 0.02480391599237919, 0.0252167209982872]}, "gradients/conv_layers.2.nn.3.weight": {"_type": "histogram", "values": [1.0, 3.0, 3.0, 7.0, 27.0, 1.0, 3.0, 2.0, 0.0, 0.0, 3.0, 0.0, 0.0, 0.0, 1.0, 0.0, 3.0, 1.0, 2.0, 0.0, 1.0, 1.0, 0.0, 1.0, 1.0, 0.0, 0.0, 0.0, 0.0, 0.0, 0.0, 0.0, 0.0, 0.0, 1.0, 0.0, 0.0, 0.0, 0.0, 0.0, 0.0, 0.0, 0.0, 0.0, 0.0, 1.0, 0.0, 0.0, 0.0, 0.0, 0.0, 0.0, 0.0, 0.0, 0.0, 0.0, 0.0, 0.0, 0.0, 0.0, 0.0, 0.0, 0.0, 1.0], "bins": [-0.009746333584189415, -0.0073699611239135265, -0.004993588663637638, -0.0026172162033617496, -0.0002408437430858612, 0.0021355287171900272, 0.004511901177465916, 0.006888273637741804, 0.009264646098017693, 0.011641018092632294, 0.01401739101856947, 0.016393763944506645, 0.018770135939121246, 0.021146507933735847, 0.02352287992835045, 0.0258992537856102, 0.0282756257802248, 0.0306519977748394, 0.03302837163209915, 0.035404741764068604, 0.037781115621328354, 0.040157489478588104, 0.042533859610557556, 0.044910233467817307, 0.04728660732507706, 0.04966298118233681, 0.05203935131430626, 0.05441572517156601, 0.05679209530353546, 0.05916846916079521, 0.06154484301805496, 0.06392121315002441, 0.06629759073257446, 0.06867396086454391, 0.07105033844709396, 0.07342670857906342, 0.07580307871103287, 0.07817945629358292, 0.08055582642555237, 0.08293219655752182, 0.08530856668949127, 0.08768493682146072, 0.09006131440401077, 0.09243768453598022, 0.09481405466794968, 0.09719043225049973, 0.09956680238246918, 0.10194317251443863, 0.10431955009698868, 0.10669592022895813, 0.10907229781150818, 0.11144866794347763, 0.11382503807544708, 0.11620141565799713, 0.11857778578996658, 0.12095415592193604, 0.12333053350448608, 0.12570691108703613, 0.128083273768425, 0.13045965135097504, 0.13283602893352509, 0.13521239161491394, 0.137588769197464, 0.13996514678001404, 0.1423415094614029]}, "gradients/conv_layers.2.nn.1.weight": {"_type": "histogram", "values": [1.0, 0.0, 0.0, 0.0, 0.0, 0.0, 0.0, 0.0, 0.0, 0.0, 0.0, 0.0, 0.0, 0.0, 0.0, 0.0, 0.0, 1.0, 0.0, 0.0, 0.0, 0.0, 0.0, 0.0, 0.0, 1.0, 0.0, 1.0, 0.0, 0.0, 0.0, 0.0, 0.0, 0.0, 0.0, 0.0, 0.0, 0.0, 0.0, 0.0, 0.0, 0.0, 0.0, 0.0, 0.0, 0.0, 0.0, 0.0, 1.0, 1.0, 0.0, 0.0, 0.0, 1.0, 0.0, 0.0, 0.0, 0.0, 0.0, 0.0, 0.0, 0.0, 0.0, 1.0], "bins": [-0.03505439683794975, -0.03370239958167076, -0.03235039860010147, -0.03099840134382248, -0.029646404087543488, -0.028294406831264496, -0.026942407712340355, -0.025590408593416214, -0.024238411337137222, -0.02288641408085823, -0.02153441496193409, -0.02018241584300995, -0.018830418586730957, -0.017478421330451965, -0.016126422211527824, -0.014774424023926258, -0.013422425836324692, -0.012070427648723125, -0.01071842946112156, -0.009366431273519993, -0.008014433085918427, -0.00666243489831686, -0.005310436710715294, -0.003958438523113728, -0.0026064403355121613, -0.001254442147910595, 9.755603969097137e-05, 0.0014495542272925377, 0.002801552414894104, 0.00415355060249567, 0.005505548790097237, 0.006857546977698803, 0.008209548890590668, 0.009561547078192234, 0.0109135452657938, 0.012265543453395367, 0.013617541640996933, 0.0149695398285985, 0.016321538016200066, 0.017673537135124207, 0.019025534391403198, 0.02037753164768219, 0.02172953076660633, 0.023081529885530472, 0.024433527141809464, 0.025785524398088455, 0.027137523517012596, 0.028489522635936737, 0.02984151989221573, 0.03119351714849472, 0.03254551440477371, 0.033897515386343, 0.035249512642621994, 0.036601509898900986, 0.037953510880470276, 0.03930550813674927, 0.04065750539302826, 0.04200950264930725, 0.04336149990558624, 0.04471350088715553, 0.046065498143434525, 0.047417495399713516, 0.048769496381282806, 0.0501214936375618, 0.05147349089384079]}, "gradients/conv_layers.2.nn.1.bias": {"_type": "histogram", "values": [1.0, 0.0, 0.0, 0.0, 0.0, 0.0, 0.0, 0.0, 0.0, 0.0, 0.0, 0.0, 0.0, 0.0, 0.0, 0.0, 0.0, 0.0, 0.0, 1.0, 0.0, 1.0, 0.0, 1.0, 0.0, 0.0, 0.0, 0.0, 0.0, 0.0, 0.0, 2.0, 0.0, 0.0, 0.0, 0.0, 0.0, 0.0, 0.0, 0.0, 0.0, 1.0, 0.0, 0.0, 0.0, 0.0, 0.0, 0.0, 0.0, 0.0, 0.0, 0.0, 0.0, 0.0, 0.0, 0.0, 0.0, 0.0, 0.0, 0.0, 0.0, 0.0, 0.0, 1.0], "bins": [-0.0068508354015648365, -0.006519580725580454, -0.006188326049596071, -0.005857071373611689, -0.005525817163288593, -0.005194562487304211, -0.004863307811319828, -0.004532053135335445, -0.004200798459351063, -0.00386954378336668, -0.0035382891073822975, -0.0032070346642285585, -0.002875779988244176, -0.0025445253122597933, -0.0022132708691060543, -0.0018820161931216717, -0.001550761517137289, -0.0012195068411529064, -0.0008882522815838456, -0.0005569976638071239, -0.00022574304603040218, 0.00010551157174631953, 0.00043676618952304125, 0.000768020807299763, 0.0010992754250764847, 0.0014305301010608673, 0.0017617846606299281, 0.002093039220198989, 0.0024242938961833715, 0.002755548572167754, 0.003086803015321493, 0.0034180576913058758, 0.003749311901628971, 0.004080566577613354, 0.004411821253597736, 0.004743075929582119, 0.005074330605566502, 0.005405584815889597, 0.00573683949187398, 0.006068094167858362, 0.006399348843842745, 0.0067306035198271275, 0.00706185819581151, 0.007393112871795893, 0.007724367082118988, 0.00805562175810337, 0.008386876434087753, 0.008718131110072136, 0.009049385786056519, 0.009380640462040901, 0.009711895138025284, 0.010043149814009666, 0.010374404489994049, 0.010705659165978432, 0.011036913841962814, 0.011368168517947197, 0.01169942319393158, 0.012030677869915962, 0.012361932545900345, 0.012693187221884727, 0.01302444189786911, 0.013355696573853493, 0.013686951249837875, 0.014018205925822258, 0.014349459670484066]}, "gradients/conv_layers.2.nn.0.bias": {"_type": "histogram", "values": [1.0, 0.0, 0.0, 0.0, 0.0, 0.0, 0.0, 0.0, 0.0, 0.0, 0.0, 0.0, 1.0, 0.0, 0.0, 0.0, 0.0, 1.0, 0.0, 0.0, 0.0, 1.0, 0.0, 0.0, 0.0, 0.0, 0.0, 0.0, 0.0, 0.0, 0.0, 0.0, 0.0, 2.0, 0.0, 0.0, 0.0, 0.0, 0.0, 0.0, 0.0, 0.0, 0.0, 0.0, 0.0, 0.0, 0.0, 0.0, 0.0, 0.0, 0.0, 0.0, 0.0, 1.0, 0.0, 0.0, 0.0, 0.0, 0.0, 0.0, 0.0, 0.0, 0.0, 1.0], "bins": [-0.010863067582249641, -0.010209783911705017, -0.009556500241160393, -0.008903215639293194, -0.00824993196874857, -0.007596648298203945, -0.0069433641619980335, -0.006290080025792122, -0.0056367963552474976, -0.004983512684702873, -0.004330228548496962, -0.0036769446451216936, -0.0030236607417464256, -0.0023703768383711576, -0.0017170929349958897, -0.0010638090316206217, -0.0004105251282453537, 0.00024275877512991428, 0.0008960426785051823, 0.0015493265818804502, 0.0022026104852557182, 0.002855894388630986, 0.003509178292006254, 0.004162462428212166, 0.00481574609875679, 0.0054690297693014145, 0.006122313905507326, 0.006775598041713238, 0.007428881712257862, 0.008082165382802486, 0.008735449984669685, 0.00938873365521431, 0.010042019188404083, 0.010695302858948708, 0.011348586529493332, 0.01200187113136053, 0.012655154801905155, 0.01330843847244978, 0.013961723074316978, 0.014615006744861603, 0.015268290415406227, 0.01592157408595085, 0.016574857756495476, 0.0172281414270401, 0.017881426960229874, 0.018534710630774498, 0.019187994301319122, 0.019841277971863747, 0.02049456164240837, 0.021147845312952995, 0.02180112898349762, 0.022454412654042244, 0.02310769632458687, 0.023760981857776642, 0.024414265528321266, 0.02506754919886589, 0.025720832869410515, 0.02637411653995514, 0.027027400210499763, 0.027680683881044388, 0.02833396941423416, 0.028987253084778786, 0.02964053675532341, 0.030293820425868034, 0.03094710409641266]}, "gradients/conv_layers.2.nn.0.weight": {"_type": "histogram", "values": [1.0, 0.0, 0.0, 0.0, 0.0, 1.0, 2.0, 3.0, 4.0, 7.0, 21.0, 8.0, 1.0, 4.0, 2.0, 2.0, 1.0, 2.0, 0.0, 0.0, 1.0, 0.0, 0.0, 0.0, 0.0, 0.0, 0.0, 1.0, 0.0, 0.0, 0.0, 0.0, 0.0, 0.0, 0.0, 0.0, 0.0, 0.0, 0.0, 1.0, 0.0, 0.0, 0.0, 0.0, 0.0, 0.0, 0.0, 0.0, 1.0, 0.0, 0.0, 0.0, 0.0, 0.0, 0.0, 0.0, 0.0, 0.0, 0.0, 0.0, 0.0, 0.0, 0.0, 1.0], "bins": [-0.04964537173509598, -0.044714584946632385, -0.03978379815816879, -0.0348530113697052, -0.029922226443886757, -0.024991439655423164, -0.02006065472960472, -0.015129867941141129, -0.010199081152677536, -0.005268294829875231, -0.00033750850707292557, 0.00459327781572938, 0.009524064138531685, 0.014454850926995277, 0.01938563585281372, 0.024316422641277313, 0.029247209429740906, 0.0341779962182045, 0.03910878300666809, 0.04403956979513168, 0.048970356583595276, 0.05390113964676857, 0.05883192643523216, 0.06376271694898605, 0.06869350373744965, 0.07362429052591324, 0.07855507731437683, 0.08348586410284042, 0.08841665089130402, 0.09334743767976761, 0.0982782244682312, 0.1032090112566948, 0.10813979804515839, 0.11307058483362198, 0.11800137162208557, 0.12293215841054916, 0.12786294519901276, 0.13279372453689575, 0.13772451877593994, 0.14265529811382294, 0.14758609235286713, 0.15251687169075012, 0.1574476659297943, 0.1623784452676773, 0.1673092395067215, 0.1722400188446045, 0.17717081308364868, 0.18210159242153168, 0.18703237175941467, 0.19196315109729767, 0.19689394533634186, 0.20182472467422485, 0.20675551891326904, 0.21168629825115204, 0.21661709249019623, 0.22154787182807922, 0.2264786660671234, 0.2314094454050064, 0.2363402396440506, 0.2412710189819336, 0.24620181322097778, 0.251132607460022, 0.2560633718967438, 0.26099416613578796, 0.26592496037483215]}, "gradients/conv_layers.1.nn.3.bias": {"_type": "histogram", "values": [1.0, 0.0, 0.0, 1.0, 0.0, 0.0, 0.0, 0.0, 0.0, 0.0, 0.0, 0.0, 0.0, 0.0, 0.0, 0.0, 1.0, 0.0, 0.0, 0.0, 0.0, 0.0, 0.0, 1.0, 0.0, 1.0, 0.0, 0.0, 0.0, 0.0, 0.0, 1.0, 0.0, 0.0, 0.0, 0.0, 0.0, 0.0, 0.0, 0.0, 0.0, 0.0, 0.0, 0.0, 0.0, 0.0, 1.0, 0.0, 0.0, 0.0, 0.0, 0.0, 0.0, 0.0, 0.0, 0.0, 0.0, 0.0, 0.0, 0.0, 0.0, 0.0, 0.0, 1.0], "bins": [-0.04771236330270767, -0.04605603590607643, -0.04439971223473549, -0.04274338483810425, -0.04108705744147301, -0.039430733770132065, -0.037774406373500824, -0.03611807897686958, -0.03446175158023834, -0.0328054241836071, -0.03114909864962101, -0.029492773115634918, -0.027836445719003677, -0.026180120185017586, -0.024523794651031494, -0.022867467254400253, -0.02121114358305931, -0.01955481804907322, -0.01789849065244198, -0.016242165118455887, -0.01458583865314722, -0.012929512187838554, -0.011273186653852463, -0.009616860188543797, -0.00796053372323513, -0.006304207257926464, -0.004647881258279085, -0.0029915550258010626, -0.00133522879332304, 0.00032109743915498257, 0.001977423671633005, 0.0036337499041110277, 0.00529007613658905, 0.0069464026018977165, 0.008602729067206383, 0.010259054601192474, 0.01191538106650114, 0.013571707531809807, 0.015228033065795898, 0.01688436046242714, 0.01854068599641323, 0.020197011530399323, 0.021853338927030563, 0.023509664461016655, 0.025165989995002747, 0.026822317391633987, 0.02847864292562008, 0.03013497032225132, 0.03179129585623741, 0.03344762325286865, 0.035103946924209595, 0.036760274320840836, 0.038416601717472076, 0.04007292538881302, 0.04172925278544426, 0.0433855801820755, 0.04504190385341644, 0.046698231250047684, 0.048354554921388626, 0.05001088231801987, 0.05166720971465111, 0.05332353338599205, 0.05497986078262329, 0.05663618817925453, 0.05829251557588577]}, "gradients/conv_layers.1.nn.3.weight": {"_type": "histogram", "values": [1.0, 1.0, 1.0, 0.0, 3.0, 0.0, 3.0, 0.0, 1.0, 1.0, 1.0, 3.0, 1.0, 4.0, 7.0, 5.0, 15.0, 6.0, 1.0, 1.0, 2.0, 2.0, 0.0, 0.0, 0.0, 0.0, 0.0, 2.0, 0.0, 1.0, 0.0, 0.0, 0.0, 0.0, 0.0, 0.0, 0.0, 0.0, 0.0, 0.0, 0.0, 0.0, 0.0, 0.0, 0.0, 0.0, 0.0, 0.0, 0.0, 0.0, 0.0, 0.0, 0.0, 0.0, 0.0, 0.0, 1.0, 0.0, 0.0, 0.0, 0.0, 0.0, 0.0, 1.0], "bins": [-0.04586460813879967, -0.04310235008597374, -0.04034008830785751, -0.037577830255031586, -0.03481557220220566, -0.03205331042408943, -0.029291052371263504, -0.026528792455792427, -0.02376653254032135, -0.021004272624850273, -0.018242012709379196, -0.015479754656553268, -0.012717494741082191, -0.009955234825611115, -0.007192975841462612, -0.0044307163916528225, -0.0016684569418430328, 0.0010938025079667568, 0.0038560619577765465, 0.006618321407586336, 0.009380580857396126, 0.012142840772867203, 0.014905099757015705, 0.017667358741164207, 0.020429618656635284, 0.02319187857210636, 0.02595413848757744, 0.028716396540403366, 0.03147865831851959, 0.03424091637134552, 0.03700317442417145, 0.039765436202287674, 0.0425276905298233, 0.04528994858264923, 0.04805221036076546, 0.050814468413591385, 0.05357673019170761, 0.05633898824453354, 0.05910124629735947, 0.06186350807547569, 0.06462576985359192, 0.06738802790641785, 0.07015028595924377, 0.0729125514626503, 0.07567480951547623, 0.07843706756830215, 0.08119932562112808, 0.08396158367395401, 0.08672384172677994, 0.08948609977960587, 0.0922483578324318, 0.09501062333583832, 0.09777288138866425, 0.10053513944149017, 0.1032973974943161, 0.10605965554714203, 0.10882191359996796, 0.11158417165279388, 0.11434642970561981, 0.11710869520902634, 0.11987095326185226, 0.12263321131467819, 0.12539547681808472, 0.12815773487091064, 0.13091999292373657]}, "gradients/conv_layers.1.nn.1.weight": {"_type": "histogram", "values": [1.0, 0.0, 1.0, 0.0, 0.0, 0.0, 0.0, 1.0, 0.0, 0.0, 1.0, 1.0, 0.0, 0.0, 0.0, 0.0, 0.0, 0.0, 0.0, 0.0, 0.0, 0.0, 0.0, 0.0, 1.0, 0.0, 0.0, 0.0, 0.0, 0.0, 0.0, 0.0, 0.0, 0.0, 1.0, 0.0, 0.0, 0.0, 0.0, 0.0, 0.0, 0.0, 0.0, 0.0, 0.0, 0.0, 0.0, 0.0, 0.0, 0.0, 0.0, 0.0, 0.0, 0.0, 0.0, 0.0, 0.0, 0.0, 0.0, 0.0, 0.0, 0.0, 0.0, 1.0], "bins": [-0.007807607762515545, -0.00670762499794364, -0.005607642233371735, -0.004507659934461117, -0.0034076771698892117, -0.0023076944053173065, -0.001207711873576045, -0.00010772922541946173, 0.0009922534227371216, 0.0020922361873090267, 0.003192218719050288, 0.00429220125079155, 0.005392184015363455, 0.00649216677993536, 0.007592149078845978, 0.00869213230907917, 0.009792114607989788, 0.010892096906900406, 0.011992080137133598, 0.013092062436044216, 0.014192044734954834, 0.015292027965188026, 0.01639201119542122, 0.017491992563009262, 0.018591975793242455, 0.019691959023475647, 0.02079194039106369, 0.021891923621296883, 0.022991906851530075, 0.02409188821911812, 0.02519187144935131, 0.026291854679584503, 0.027391839772462845, 0.028491823002696037, 0.02959180437028408, 0.030691787600517273, 0.031791768968105316, 0.03289175406098366, 0.0339917354285717, 0.035091716796159744, 0.036191701889038086, 0.03729168325662613, 0.03839166834950447, 0.039491649717092514, 0.04059163108468056, 0.0416916161775589, 0.04279159754514694, 0.043891578912734985, 0.04499156028032303, 0.04609154164791107, 0.04719152674078941, 0.04829150810837746, 0.0493914894759655, 0.05049147456884384, 0.051591455936431885, 0.05269143730401993, 0.05379142239689827, 0.05489140376448631, 0.055991388857364655, 0.0570913702249527, 0.05819135159254074, 0.05929133668541908, 0.060391318053007126, 0.06149129942059517, 0.06259128451347351]}, "gradients/conv_layers.1.nn.1.bias": {"_type": "histogram", "values": [1.0, 0.0, 0.0, 1.0, 0.0, 1.0, 0.0, 0.0, 1.0, 0.0, 0.0, 0.0, 1.0, 0.0, 0.0, 0.0, 1.0, 0.0, 0.0, 0.0, 0.0, 0.0, 0.0, 0.0, 0.0, 0.0, 0.0, 0.0, 0.0, 0.0, 0.0, 1.0, 0.0, 0.0, 0.0, 0.0, 0.0, 0.0, 0.0, 0.0, 0.0, 0.0, 0.0, 0.0, 0.0, 0.0, 0.0, 0.0, 0.0, 0.0, 0.0, 0.0, 0.0, 0.0, 0.0, 0.0, 0.0, 0.0, 0.0, 0.0, 0.0, 0.0, 0.0, 1.0], "bins": [-0.0017319652251899242, -0.0009682399104349315, -0.0002045145956799388, 0.0005592107190750539, 0.0013229360338300467, 0.0020866612903773785, 0.002850386779755354, 0.0036141120363026857, 0.0043778372928500175, 0.005141562782227993, 0.005905287805944681, 0.006669013295322657, 0.007432738319039345, 0.00819646380841732, 0.008960189297795296, 0.009723914787173271, 0.010487640276551247, 0.011251365765929222, 0.012015091255307198, 0.012778815813362598, 0.013542541302740574, 0.01430626679211855, 0.015069992281496525, 0.015833716839551926, 0.0165974423289299, 0.017361167818307877, 0.018124893307685852, 0.018888618797063828, 0.019652344286441803, 0.02041606977581978, 0.021179793402552605, 0.02194351889193058, 0.022707244381308556, 0.02347096987068653, 0.024234695360064507, 0.024998420849442482, 0.025762146338820457, 0.026525871828198433, 0.02728959545493126, 0.028053320944309235, 0.02881704643368721, 0.029580771923065186, 0.03034449741244316, 0.031108222901821136, 0.03187194839119911, 0.03263567388057709, 0.03339939936995506, 0.03416312485933304, 0.034926850348711014, 0.03569057583808899, 0.036454301327466965, 0.03721802681684494, 0.037981752306222916, 0.03874547779560089, 0.03950920328497887, 0.04027292877435684, 0.04103665053844452, 0.041800376027822495, 0.04256410151720047, 0.043327827006578445, 0.04409155249595642, 0.044855277985334396, 0.04561900347471237, 0.04638272896409035, 0.04714645445346832]}, "gradients/conv_layers.1.nn.0.bias": {"_type": "histogram", "values": [1.0, 0.0, 0.0, 0.0, 0.0, 0.0, 0.0, 0.0, 1.0, 0.0, 0.0, 0.0, 0.0, 0.0, 2.0, 1.0, 0.0, 0.0, 0.0, 0.0, 0.0, 0.0, 0.0, 0.0, 0.0, 0.0, 1.0, 0.0, 0.0, 0.0, 0.0, 0.0, 0.0, 0.0, 0.0, 0.0, 0.0, 0.0, 0.0, 0.0, 0.0, 0.0, 0.0, 0.0, 0.0, 0.0, 0.0, 0.0, 0.0, 0.0, 0.0, 0.0, 0.0, 0.0, 0.0, 0.0, 0.0, 0.0, 0.0, 0.0, 0.0, 0.0, 0.0, 2.0], "bins": [-0.0033149411901831627, -0.0027093328535556793, -0.002103724516928196, -0.0014981164131313562, -0.0008925080765038729, -0.0002868997980840504, 0.00031870848033577204, 0.0009243167587555945, 0.001529925037175417, 0.0021355333738029003, 0.0027411417104303837, 0.0033467498142272234, 0.003952357918024063, 0.0045579662546515465, 0.00516357459127903, 0.005769182927906513, 0.006374791264533997, 0.00698039960116148, 0.007586007937788963, 0.008191616274416447, 0.00879722461104393, 0.009402832947671413, 0.010008441284298897, 0.01061404962092638, 0.011219657957553864, 0.011825266294181347, 0.01243087463080883, 0.013036482967436314, 0.013642091304063797, 0.01424769964069128, 0.014853307977318764, 0.015458916313946247, 0.01606452278792858, 0.01667013019323349, 0.017275739461183548, 0.017881346866488457, 0.018486956134438515, 0.019092563539743423, 0.01969817280769348, 0.02030378021299839, 0.020909389480948448, 0.021514996886253357, 0.022120606154203415, 0.022726213559508324, 0.02333182282745838, 0.02393743023276329, 0.02454303950071335, 0.025148646906018257, 0.025754254311323166, 0.026359861716628075, 0.026965470984578133, 0.02757107838988304, 0.0281766876578331, 0.028782295063138008, 0.029387904331088066, 0.029993511736392975, 0.030599121004343033, 0.03120472840964794, 0.03181033581495285, 0.03241594508290291, 0.033021554350852966, 0.033627163618803024, 0.034232769161462784, 0.03483837842941284, 0.0354439876973629]}, "gradients/conv_layers.1.nn.0.weight": {"_type": "histogram", "values": [1.0, 1.0, 0.0, 2.0, 0.0, 0.0, 0.0, 0.0, 2.0, 0.0, 6.0, 4.0, 9.0, 4.0, 6.0, 2.0, 5.0, 1.0, 4.0, 1.0, 4.0, 0.0, 1.0, 4.0, 0.0, 2.0, 0.0, 0.0, 0.0, 0.0, 0.0, 1.0, 0.0, 0.0, 0.0, 0.0, 0.0, 0.0, 0.0, 0.0, 0.0, 0.0, 0.0, 0.0, 0.0, 0.0, 0.0, 1.0, 1.0, 0.0, 0.0, 0.0, 0.0, 0.0, 0.0, 0.0, 0.0, 0.0, 1.0, 0.0, 0.0, 0.0, 0.0, 1.0], "bins": [-0.024084938690066338, -0.02189999260008335, -0.019715044647455215, -0.01753009855747223, -0.015345152467489243, -0.013160206377506256, -0.010975259356200695, -0.008790312334895134, -0.0066053662449121475, -0.004420419689267874, -0.0022354731336236, -5.052657797932625e-05, 0.0021344199776649475, 0.004319366533309221, 0.006504313088953495, 0.008689260110259056, 0.010874206200242043, 0.013059152290225029, 0.01524409931153059, 0.01742904633283615, 0.019613992422819138, 0.021798938512802124, 0.02398388460278511, 0.026168832555413246, 0.028353778645396233, 0.03053872473537922, 0.032723672688007355, 0.03490861877799034, 0.03709356486797333, 0.039278510957956314, 0.0414634570479393, 0.04364840313792229, 0.04583334922790527, 0.04801829531788826, 0.050203241407871246, 0.05238818749785423, 0.05457313358783722, 0.056758083403110504, 0.05894302949309349, 0.06112797558307648, 0.06331291794776917, 0.06549786776304245, 0.06768281012773514, 0.06986775994300842, 0.07205270230770111, 0.0742376521229744, 0.07642259448766708, 0.07860754430294037, 0.08079249411821365, 0.08297744393348694, 0.08516238629817963, 0.08734733611345291, 0.0895322784781456, 0.09171722829341888, 0.09390217065811157, 0.09608712047338486, 0.09827207028865814, 0.10045702010393143, 0.10264196246862411, 0.1048269122838974, 0.10701185464859009, 0.10919680446386337, 0.11138174682855606, 0.11356669664382935, 0.11575163900852203]}, "gradients/conv_layers.0.nn.3.bias": {"_type": "histogram", "values": [2.0, 0.0, 0.0, 1.0, 0.0, 0.0, 0.0, 0.0, 0.0, 0.0, 0.0, 0.0, 0.0, 0.0, 0.0, 0.0, 0.0, 0.0, 0.0, 0.0, 0.0, 0.0, 0.0, 0.0, 0.0, 1.0, 0.0, 0.0, 0.0, 0.0, 1.0, 0.0, 0.0, 0.0, 0.0, 0.0, 0.0, 1.0, 0.0, 0.0, 0.0, 0.0, 0.0, 0.0, 0.0, 0.0, 0.0, 0.0, 0.0, 0.0, 0.0, 0.0, 0.0, 0.0, 0.0, 0.0, 0.0, 1.0, 0.0, 0.0, 0.0, 0.0, 0.0, 1.0], "bins": [-0.06932821869850159, -0.06640738248825073, -0.06348654627799988, -0.06056571379303932, -0.05764487758278847, -0.05472404137253761, -0.05180320888757706, -0.0488823726773262, -0.04596153646707535, -0.04304070025682449, -0.04011986404657364, -0.03719903156161308, -0.03427819535136223, -0.031357359141111374, -0.02843652479350567, -0.025515690445899963, -0.02259485423564911, -0.019674018025398254, -0.01675318367779255, -0.01383234839886427, -0.01091151311993599, -0.00799067784100771, -0.00506984256207943, -0.0021490072831511497, 0.0007718279957771301, 0.00369266327470541, 0.00661349855363369, 0.00953433383256197, 0.01245516911149025, 0.01537600439041853, 0.01829683966934681, 0.021217674016952515, 0.02413851022720337, 0.027059346437454224, 0.02998018078505993, 0.032901015132665634, 0.03582185134291649, 0.03874268755316734, 0.0416635200381279, 0.044584356248378754, 0.04750519245862961, 0.05042602866888046, 0.05334686487913132, 0.05626769736409187, 0.05918853357434273, 0.06210936978459358, 0.06503020226955414, 0.06795103847980499, 0.07087187469005585, 0.0737927109003067, 0.07671354711055756, 0.07963438332080841, 0.08255521953105927, 0.08547604829072952, 0.08839688450098038, 0.09131772071123123, 0.09423855692148209, 0.09715939313173294, 0.1000802293419838, 0.10300106555223465, 0.10592189431190491, 0.10884273052215576, 0.11176356673240662, 0.11468440294265747, 0.11760523915290833]}, "gradients/conv_layers.0.nn.3.weight": {"_type": "histogram", "values": [1.0, 3.0, 0.0, 0.0, 0.0, 0.0, 0.0, 0.0, 0.0, 4.0, 1.0, 1.0, 2.0, 2.0, 2.0, 1.0, 2.0, 3.0, 5.0, 10.0, 1.0, 2.0, 3.0, 2.0, 1.0, 2.0, 1.0, 2.0, 2.0, 1.0, 0.0, 2.0, 3.0, 0.0, 0.0, 0.0, 0.0, 1.0, 0.0, 1.0, 0.0, 0.0, 1.0, 0.0, 0.0, 0.0, 0.0, 0.0, 0.0, 0.0, 0.0, 0.0, 0.0, 0.0, 0.0, 0.0, 0.0, 0.0, 0.0, 1.0, 0.0, 0.0, 0.0, 1.0], "bins": [-0.0408359169960022, -0.038777172565460205, -0.036718424409627914, -0.034659676253795624, -0.03260093182325363, -0.03054218553006649, -0.02848343923687935, -0.026424692943692207, -0.024365946650505066, -0.022307200357317924, -0.020248454064130783, -0.01818970777094364, -0.0161309614777565, -0.014072215184569359, -0.012013468891382217, -0.009954722598195076, -0.007895976305007935, -0.005837230011820793, -0.0037784837186336517, -0.0017197374254465103, 0.0003390088677406311, 0.0023977551609277725, 0.004456501454114914, 0.006515247747302055, 0.008573994040489197, 0.010632740333676338, 0.01269148662686348, 0.014750232920050621, 0.016808979213237762, 0.018867725506424904, 0.020926471799612045, 0.022985218092799187, 0.025043971836566925, 0.027102718129754066, 0.029161464422941208, 0.03122021071612835, 0.03327895700931549, 0.03533770143985748, 0.037396449595689774, 0.039455197751522064, 0.041513942182064056, 0.04357268661260605, 0.04563143476843834, 0.04769018292427063, 0.04974892735481262, 0.051807671785354614, 0.053866419941186905, 0.055925168097019196, 0.05798391252756119, 0.06004265695810318, 0.06210140511393547, 0.06416015326976776, 0.06621889770030975, 0.06827764213085175, 0.07033638656139374, 0.07239513844251633, 0.07445388287305832, 0.07651262730360031, 0.0785713791847229, 0.08063012361526489, 0.08268886804580688, 0.08474761247634888, 0.08680635690689087, 0.08886510878801346, 0.09092385321855545]}, "gradients/conv_layers.0.nn.1.weight": {"_type": "histogram", "values": [1.0, 1.0, 0.0, 0.0, 0.0, 0.0, 1.0, 0.0, 0.0, 1.0, 0.0, 0.0, 0.0, 0.0, 1.0, 0.0, 0.0, 0.0, 0.0, 0.0, 0.0, 0.0, 0.0, 0.0, 0.0, 0.0, 0.0, 0.0, 0.0, 0.0, 0.0, 0.0, 0.0, 1.0, 0.0, 0.0, 0.0, 0.0, 0.0, 0.0, 0.0, 0.0, 1.0, 0.0, 0.0, 0.0, 0.0, 0.0, 0.0, 0.0, 0.0, 0.0, 0.0, 0.0, 0.0, 0.0, 0.0, 0.0, 0.0, 0.0, 0.0, 0.0, 0.0, 1.0], "bins": [-0.009905577637255192, -0.008087597787380219, -0.006269617471843958, -0.004451637156307697, -0.002633657306432724, -0.000815677223727107, 0.00100230285897851, 0.002820282941684127, 0.004638263024389744, 0.006456242874264717, 0.008274223655462265, 0.010092203505337238, 0.011910183355212212, 0.013728163205087185, 0.015546143054962158, 0.017364123836159706, 0.019182104617357254, 0.021000085398554802, 0.0228180643171072, 0.02463604509830475, 0.026454024016857147, 0.028272004798054695, 0.030089985579252243, 0.03190796449780464, 0.03372594341635704, 0.03554392233490944, 0.037361904978752136, 0.039179883897304535, 0.040997862815856934, 0.04281584545969963, 0.04463382437825203, 0.04645180329680443, 0.048269785940647125, 0.050087764859199524, 0.05190574750304222, 0.05372372642159462, 0.05554170534014702, 0.057359687983989716, 0.059177666902542114, 0.06099564582109451, 0.06281362473964691, 0.06463160365819931, 0.06644958257675171, 0.06826756149530411, 0.0700855478644371, 0.0719035267829895, 0.0737215057015419, 0.0755394846200943, 0.0773574709892273, 0.0791754499077797, 0.08099342882633209, 0.08281140774488449, 0.08462939411401749, 0.08644737303256989, 0.08826535195112228, 0.09008333086967468, 0.09190130978822708, 0.09371928870677948, 0.09553726762533188, 0.09735524654388428, 0.09917323291301727, 0.10099121183156967, 0.10280919075012207, 0.10462716966867447, 0.10644514858722687]}, "gradients/conv_layers.0.nn.1.bias": {"_type": "histogram", "values": [1.0, 0.0, 0.0, 0.0, 0.0, 0.0, 0.0, 0.0, 0.0, 0.0, 0.0, 0.0, 0.0, 0.0, 0.0, 1.0, 1.0, 1.0, 0.0, 0.0, 0.0, 0.0, 0.0, 0.0, 0.0, 1.0, 0.0, 0.0, 0.0, 0.0, 0.0, 0.0, 0.0, 0.0, 0.0, 0.0, 0.0, 0.0, 0.0, 0.0, 0.0, 0.0, 0.0, 0.0, 0.0, 0.0, 1.0, 0.0, 0.0, 0.0, 0.0, 0.0, 0.0, 1.0, 0.0, 0.0, 0.0, 0.0, 0.0, 0.0, 0.0, 0.0, 0.0, 1.0], "bins": [-0.05211113765835762, -0.05015500262379646, -0.048198871314525604, -0.04624273627996445, -0.04428660497069359, -0.04233046993613243, -0.04037433862686157, -0.038418203592300415, -0.03646206855773926, -0.0345059335231781, -0.03254980221390724, -0.030593669041991234, -0.028637535870075226, -0.02668140083551407, -0.02472526766359806, -0.022769134491682053, -0.020813003182411194, -0.018856870010495186, -0.016900736838579178, -0.014944602735340595, -0.012988469563424587, -0.01103233639150858, -0.009076202288269997, -0.007120069116353989, -0.005163935944437981, -0.003207802539691329, -0.0012516691349446774, 0.0007044642698019743, 0.002660597674548626, 0.004616730846464634, 0.006572864484041929, 0.008528998121619225, 0.010485135018825531, 0.012441268190741539, 0.014397401362657547, 0.016353534534573555, 0.018309667706489563, 0.02026580274105072, 0.022221935912966728, 0.024178069084882736, 0.026134202256798744, 0.028090335428714752, 0.03004646860063076, 0.03200260177254677, 0.033958736807107925, 0.035914868116378784, 0.03787100315093994, 0.0398271344602108, 0.04178326949477196, 0.043739404529333115, 0.04569553583860397, 0.04765167087316513, 0.04960780218243599, 0.05156393721699715, 0.053520068526268005, 0.05547620356082916, 0.05743233859539032, 0.05938847362995148, 0.061344604939222336, 0.0633007362484932, 0.06525687128305435, 0.06721300631761551, 0.06916914135217667, 0.07112526893615723, 0.07308140397071838]}, "gradients/conv_layers.0.nn.0.bias": {"_type": "histogram", "values": [1.0, 0.0, 0.0, 0.0, 0.0, 0.0, 0.0, 0.0, 0.0, 0.0, 0.0, 0.0, 0.0, 1.0, 0.0, 0.0, 0.0, 1.0, 0.0, 1.0, 0.0, 1.0, 0.0, 0.0, 0.0, 0.0, 0.0, 0.0, 0.0, 0.0, 0.0, 0.0, 0.0, 0.0, 0.0, 0.0, 1.0, 0.0, 0.0, 0.0, 0.0, 0.0, 0.0, 0.0, 0.0, 1.0, 0.0, 0.0, 0.0, 0.0, 0.0, 0.0, 0.0, 0.0, 0.0, 0.0, 0.0, 0.0, 0.0, 0.0, 0.0, 0.0, 0.0, 1.0], "bins": [-0.0066195218823850155, -0.006342900451272726, -0.006066278554499149, -0.00578965712338686, -0.0055130356922745705, -0.005236413795500994, -0.004959792364388704, -0.0046831704676151276, -0.004406549036502838, -0.004129927605390549, -0.003853305708616972, -0.0035766842775046825, -0.0033000626135617495, -0.0030234409496188164, -0.002746819518506527, -0.002470197854563594, -0.0021935761906206608, -0.0019169545266777277, -0.0016403329791501164, -0.0013637114316225052, -0.001087089767679572, -0.0008104681619442999, -0.0005338465562090278, -0.0002572249504737556, 1.939665526151657e-05, 0.00029601826099678874, 0.0005726398667320609, 0.0008492614724673331, 0.0011258830782026052, 0.0014025047421455383, 0.0016791262896731496, 0.001955747837200761, 0.0022323690354824066, 0.0025089906994253397, 0.0027856123633682728, 0.003062233794480562, 0.0033388554584234953, 0.0036154771223664284, 0.003892098553478718, 0.0041687204502522945, 0.004445341881364584, 0.004721963312476873, 0.00499858520925045, 0.0052752066403627396, 0.005551828071475029, 0.005828449968248606, 0.006105071399360895, 0.006381693296134472, 0.006658314727246761, 0.006934936158359051, 0.0072115580551326275, 0.007488179486244917, 0.007764801383018494, 0.008041422814130783, 0.008318044245243073, 0.008594665676355362, 0.008871287107467651, 0.00914790853857994, 0.00942452996969223, 0.009701152332127094, 0.009977773763239384, 0.010254395194351673, 0.010531016625463963, 0.010807638056576252, 0.011084260419011116]}, "gradients/conv_layers.0.nn.0.weight": {"_type": "histogram", "values": [1.0, 0.0, 0.0, 1.0, 0.0, 0.0, 0.0, 0.0, 1.0, 1.0, 1.0, 0.0, 0.0, 0.0, 0.0, 2.0, 3.0, 2.0, 7.0, 2.0, 2.0, 0.0, 2.0, 0.0, 0.0, 1.0, 0.0, 1.0, 0.0, 0.0, 0.0, 0.0, 0.0, 1.0, 0.0, 0.0, 0.0, 1.0, 0.0, 1.0, 0.0, 0.0, 0.0, 0.0, 0.0, 0.0, 0.0, 0.0, 0.0, 1.0, 0.0, 0.0, 0.0, 0.0, 0.0, 0.0, 0.0, 0.0, 0.0, 0.0, 0.0, 0.0, 0.0, 1.0], "bins": [-0.15951868891716003, -0.15099462866783142, -0.1424705535173416, -0.133946493268013, -0.1254224330186844, -0.11689836531877518, -0.10837429761886597, -0.09985023736953735, -0.09132616966962814, -0.08280210196971893, -0.07427804172039032, -0.06575397402048111, -0.0572299100458622, -0.048705846071243286, -0.040181778371334076, -0.031657714396715164, -0.023133650422096252, -0.014609585516154766, -0.00608552061021328, 0.0024385442957282066, 0.010962609201669693, 0.019486673176288605, 0.028010739013552666, 0.03653480485081673, 0.04505886882543564, 0.05358293280005455, 0.06210699677467346, 0.07063106447458267, 0.07915513217449188, 0.0876791924238205, 0.0962032601237297, 0.10472732037305832, 0.11325138807296753, 0.12177545577287674, 0.13029952347278595, 0.13882358372211456, 0.14734764397144318, 0.15587171912193298, 0.1643957793712616, 0.1729198396205902, 0.18144389986991882, 0.18996796011924744, 0.19849203526973724, 0.20701609551906586, 0.21554015576839447, 0.22406423091888428, 0.2325882911682129, 0.2411123514175415, 0.2496364265680313, 0.2581605017185211, 0.26668456196784973, 0.27520862221717834, 0.28373268246650696, 0.29225674271583557, 0.3007808029651642, 0.3093048930168152, 0.3178289532661438, 0.3263530135154724, 0.334877073764801, 0.34340113401412964, 0.35192522406578064, 0.36044928431510925, 0.36897334456443787, 0.3774974048137665, 0.3860214650630951]}, "_wandb": {"runtime": 8057}}