{"epoch": 10, "train_acc": 80.27009489820747, "test_acc": 79.64610143830431, "loss": 0.42364609241485596, "_timestamp": 1681411545.056662, "_runtime": 75.67765617370605, "_step": 2, "parameters/conv_layers.0.nn.0.weight": {"_type": "histogram", "values": [1.0, 0.0, 0.0, 1.0, 0.0, 0.0, 1.0, 0.0, 0.0, 0.0, 0.0, 0.0, 0.0, 1.0, 0.0, 2.0, 8.0, 4.0, 4.0, 5.0, 4.0, 2.0, 7.0, 6.0, 3.0, 4.0, 3.0, 3.0, 7.0, 0.0, 3.0, 6.0, 2.0, 8.0, 5.0, 4.0, 7.0, 2.0, 7.0, 8.0, 6.0, 5.0, 5.0, 3.0, 6.0, 3.0, 3.0, 3.0, 4.0, 2.0, 0.0, 0.0, 0.0, 0.0, 0.0, 0.0, 0.0, 0.0, 0.0, 0.0, 0.0, 1.0, 0.0, 1.0], "bins": [-1.121524453163147, -1.0883814096450806, -1.0552383661270142, -1.0220954418182373, -0.9889523983001709, -0.9558093547821045, -0.9226663708686829, -0.8895233273506165, -0.8563803434371948, -0.8232372999191284, -0.7900943160057068, -0.7569512724876404, -0.7238082885742188, -0.6906652450561523, -0.6575222611427307, -0.6243792176246643, -0.5912361741065979, -0.5580931305885315, -0.5249501466751099, -0.49180713295936584, -0.4586641192436218, -0.4255210757255554, -0.3923780620098114, -0.3592350482940674, -0.32609203457832336, -0.29294902086257935, -0.2598060071468353, -0.22666297852993011, -0.1935199648141861, -0.16037695109844208, -0.12723392248153687, -0.09409090876579285, -0.06094789505004883, -0.02780487760901451, 0.005338139832019806, 0.03848115727305412, 0.07162417471408844, 0.10476718842983246, 0.13791021704673767, 0.1710532307624817, 0.2041962444782257, 0.23733925819396973, 0.27048227190971375, 0.30362528562545776, 0.33676832914352417, 0.3699113428592682, 0.4030543565750122, 0.4361973702907562, 0.46934038400650024, 0.5024834275245667, 0.5356264114379883, 0.5687694549560547, 0.6019124388694763, 0.6350554823875427, 0.6681984663009644, 0.7013415098190308, 0.7344845533370972, 0.7676275968551636, 0.8007705807685852, 0.8339136242866516, 0.8670566082000732, 0.9001996517181396, 0.9333426356315613, 0.9664856791496277, 0.9996286630630493]}, "parameters/conv_layers.0.nn.0.bias": {"_type": "histogram", "values": [1.0, 0.0, 1.0, 1.0, 0.0, 0.0, 4.0, 1.0, 0.0, 0.0, 0.0, 2.0, 0.0, 2.0, 1.0, 0.0, 1.0, 0.0, 1.0, 0.0, 3.0, 1.0, 0.0, 0.0, 0.0, 1.0, 2.0, 2.0, 1.0, 0.0, 0.0, 0.0, 0.0, 1.0, 2.0, 2.0, 0.0, 0.0, 0.0, 0.0, 0.0, 1.0, 0.0, 0.0, 0.0, 2.0, 1.0, 0.0, 0.0, 1.0, 0.0, 1.0, 0.0, 0.0, 1.0, 1.0, 0.0, 1.0, 0.0, 0.0, 0.0, 0.0, 0.0, 1.0], "bins": [-0.5512446761131287, -0.5344111919403076, -0.5175776481628418, -0.5007441639900208, -0.48391062021255493, -0.4670771360397339, -0.45024362206459045, -0.433410108089447, -0.4165765941143036, -0.39974308013916016, -0.3829095661640167, -0.3660760521888733, -0.34924256801605225, -0.3324090540409088, -0.3155755400657654, -0.29874202609062195, -0.2819085121154785, -0.2650749981403351, -0.24824148416519165, -0.2314079850912094, -0.21457447111606598, -0.19774095714092255, -0.1809074580669403, -0.16407394409179688, -0.14724043011665344, -0.13040691614151, -0.11357340961694717, -0.09673990309238434, -0.0799063891172409, -0.06307287514209747, -0.04623936861753464, -0.029405858367681503, -0.012572288513183594, 0.00426122173666954, 0.021094731986522675, 0.03792824223637581, 0.05476175248622894, 0.07159526646137238, 0.08842877298593521, 0.10526227951049805, 0.12209579348564148, 0.1389293074607849, 0.15576282143592834, 0.17259632050991058, 0.18942983448505402, 0.20626334846019745, 0.2230968475341797, 0.23993036150932312, 0.25676387548446655, 0.27359738945961, 0.2904309034347534, 0.30726441740989685, 0.3240979313850403, 0.34093141555786133, 0.35776492953300476, 0.3745984435081482, 0.3914319574832916, 0.40826547145843506, 0.4250989854335785, 0.4419324994087219, 0.45876598358154297, 0.4755994975566864, 0.49243301153182983, 0.5092665553092957, 0.5261000394821167]}, "parameters/conv_layers.0.nn.1.weight": {"_type": "histogram", "values": [1.0, 0.0, 0.0, 0.0, 0.0, 0.0, 0.0, 0.0, 0.0, 0.0, 0.0, 0.0, 0.0, 0.0, 1.0, 1.0, 0.0, 1.0, 1.0, 0.0, 3.0, 1.0, 1.0, 1.0, 1.0, 2.0, 1.0, 1.0, 1.0, 2.0, 1.0, 3.0, 0.0, 1.0, 1.0, 0.0, 1.0, 1.0, 0.0, 0.0, 1.0, 1.0, 1.0, 1.0, 0.0, 2.0, 1.0, 1.0, 2.0, 0.0, 0.0, 0.0, 1.0, 1.0, 0.0, 0.0, 0.0, 0.0, 0.0, 0.0, 0.0, 0.0, 0.0, 1.0], "bins": [0.8103852868080139, 0.8155574202537537, 0.8207295536994934, 0.8259016871452332, 0.8310738205909729, 0.8362459540367126, 0.8414180874824524, 0.8465902209281921, 0.8517623543739319, 0.8569344878196716, 0.8621066212654114, 0.8672787547111511, 0.8724508881568909, 0.8776230216026306, 0.8827951550483704, 0.8879672884941101, 0.8931394815444946, 0.8983116149902344, 0.9034837484359741, 0.9086558818817139, 0.9138280153274536, 0.9190001487731934, 0.9241722822189331, 0.9293444156646729, 0.9345165491104126, 0.9396886825561523, 0.9448608160018921, 0.9500329494476318, 0.9552050828933716, 0.9603772163391113, 0.9655493497848511, 0.9707214832305908, 0.9758936166763306, 0.9810657501220703, 0.9862378835678101, 0.9914100170135498, 0.9965821504592896, 1.0017542839050293, 1.006926417350769, 1.0120985507965088, 1.0172706842422485, 1.0224428176879883, 1.027614951133728, 1.0327870845794678, 1.0379592180252075, 1.0431313514709473, 1.048303484916687, 1.0534756183624268, 1.058647871017456, 1.0638200044631958, 1.0689921379089355, 1.0741642713546753, 1.079336404800415, 1.0845085382461548, 1.0896806716918945, 1.0948528051376343, 1.100024938583374, 1.1051970720291138, 1.1103692054748535, 1.1155413389205933, 1.120713472366333, 1.1258856058120728, 1.1310577392578125, 1.1362298727035522, 1.141402006149292]}, "parameters/conv_layers.0.nn.1.bias": {"_type": "histogram", "values": [1.0, 0.0, 1.0, 0.0, 0.0, 2.0, 1.0, 0.0, 0.0, 0.0, 1.0, 0.0, 0.0, 2.0, 0.0, 2.0, 2.0, 0.0, 1.0, 2.0, 3.0, 0.0, 1.0, 1.0, 1.0, 1.0, 0.0, 1.0, 1.0, 0.0, 0.0, 0.0, 2.0, 3.0, 0.0, 1.0, 2.0, 1.0, 0.0, 1.0, 1.0, 1.0, 0.0, 0.0, 0.0, 1.0, 0.0, 0.0, 0.0, 0.0, 1.0, 0.0, 0.0, 1.0, 0.0, 0.0, 0.0, 0.0, 0.0, 0.0, 0.0, 0.0, 0.0, 1.0], "bins": [-0.1502625048160553, -0.14592525362968445, -0.1415880024433136, -0.13725075125694275, -0.1329135000705719, -0.12857623398303986, -0.124238982796669, -0.11990173161029816, -0.11556448042392731, -0.11122722923755646, -0.10688997805118561, -0.10255271941423416, -0.09821546822786331, -0.09387821704149246, -0.08954095840454102, -0.08520370721817017, -0.08086645603179932, -0.07652920484542847, -0.07219195365905762, -0.06785469502210617, -0.06351744383573532, -0.05918019264936447, -0.05484293773770332, -0.050505682826042175, -0.046168431639671326, -0.041831180453300476, -0.03749392554163933, -0.03315667062997818, -0.02881941944360733, -0.02448216639459133, -0.020144913345575333, -0.015807660296559334, -0.011470422148704529, -0.00713316909968853, -0.002795916050672531, 0.0015413369983434677, 0.0058785900473594666, 0.010215843096375465, 0.014553096145391464, 0.018890349194407463, 0.023227602243423462, 0.02756485529243946, 0.03190210834145546, 0.03623936325311661, 0.04057661443948746, 0.04491386562585831, 0.049251120537519455, 0.0535883754491806, 0.05792562663555145, 0.0622628778219223, 0.06660012900829315, 0.0709373876452446, 0.07527463883161545, 0.0796118900179863, 0.08394914865493774, 0.0882863998413086, 0.09262365102767944, 0.09696090221405029, 0.10129815340042114, 0.10563541203737259, 0.10997266322374344, 0.11430991441011429, 0.11864717304706573, 0.12298442423343658, 0.12732167541980743]}, "parameters/conv_layers.0.nn.3.weight": {"_type": "histogram", "values": [1.0, 1.0, 0.0, 1.0, 0.0, 0.0, 2.0, 2.0, 1.0, 1.0, 1.0, 4.0, 1.0, 5.0, 10.0, 14.0, 13.0, 16.0, 19.0, 42.0, 43.0, 68.0, 60.0, 70.0, 64.0, 82.0, 71.0, 68.0, 69.0, 77.0, 79.0, 66.0, 69.0, 71.0, 85.0, 73.0, 72.0, 71.0, 65.0, 50.0, 38.0, 16.0, 9.0, 6.0, 8.0, 6.0, 3.0, 2.0, 1.0, 0.0, 1.0, 1.0, 0.0, 0.0, 0.0, 0.0, 0.0, 1.0, 0.0, 0.0, 0.0, 0.0, 0.0, 1.0], "bins": [-0.4833402633666992, -0.4677020311355591, -0.45206379890441895, -0.4364255368709564, -0.4207873046398163, -0.40514907240867615, -0.389510840177536, -0.3738726079463959, -0.35823434591293335, -0.3425961136817932, -0.3269578814506531, -0.31131961941719055, -0.2956813871860504, -0.2800431549549103, -0.26440492272377014, -0.2487666755914688, -0.23312845826148987, -0.21749022603034973, -0.2018519788980484, -0.18621374666690826, -0.17057549953460693, -0.1549372673034668, -0.13929903507232666, -0.12366079539060593, -0.10802255570888519, -0.09238431602716446, -0.07674607634544373, -0.06110784411430359, -0.045469604432582855, -0.02983136661350727, -0.014193128794431686, 0.001445109024643898, 0.017083346843719482, 0.032721586525440216, 0.04835982248187065, 0.06399805843830109, 0.07963629812002182, 0.09527453780174255, 0.11091277003288269, 0.12655101716518402, 0.14218924939632416, 0.1578274816274643, 0.17346572875976562, 0.18910396099090576, 0.2047421932220459, 0.22038044035434723, 0.23601867258548737, 0.2516569197177887, 0.26729515194892883, 0.28293338418006897, 0.2985716164112091, 0.31420987844467163, 0.32984811067581177, 0.3454863429069519, 0.36112457513809204, 0.3767628073692322, 0.3924010396003723, 0.40803927183151245, 0.4236775040626526, 0.4393157660961151, 0.45495399832725525, 0.4705922305583954, 0.4862304627895355, 0.501868724822998, 0.5175069570541382]}, "parameters/conv_layers.0.nn.3.bias": {"_type": "histogram", "values": [1.0, 1.0, 0.0, 0.0, 1.0, 1.0, 1.0, 0.0, 2.0, 1.0, 0.0, 1.0, 0.0, 0.0, 3.0, 0.0, 0.0, 1.0, 0.0, 0.0, 2.0, 2.0, 1.0, 2.0, 1.0, 1.0, 0.0, 1.0, 1.0, 0.0, 1.0, 1.0, 0.0, 1.0, 0.0, 0.0, 0.0, 0.0, 1.0, 1.0, 0.0, 0.0, 1.0, 1.0, 0.0, 0.0, 1.0, 2.0, 0.0, 0.0, 0.0, 1.0, 0.0, 1.0, 0.0, 2.0, 0.0, 0.0, 1.0, 0.0, 0.0, 0.0, 0.0, 1.0], "bins": [-0.2383190095424652, -0.23099586367607117, -0.22367271780967712, -0.21634957194328308, -0.20902642607688904, -0.2017032653093338, -0.19438011944293976, -0.18705697357654572, -0.17973382771015167, -0.17241068184375763, -0.1650875359773636, -0.15776439011096954, -0.1504412293434143, -0.14311808347702026, -0.13579493761062622, -0.12847179174423218, -0.12114864587783813, -0.11382550001144409, -0.10650235414505005, -0.09917920082807541, -0.09185605496168137, -0.08453290909528732, -0.07720975577831268, -0.06988660991191864, -0.0625634640455246, -0.055240318179130554, -0.04791716858744621, -0.04059401899576187, -0.03327087312936783, -0.025947725400328636, -0.018624577671289444, -0.011301429942250252, -0.00397828221321106, 0.0033448655158281326, 0.010668013244867325, 0.017991160973906517, 0.02531430870294571, 0.03263745456933975, 0.039960604161024094, 0.047283753752708435, 0.05460689961910248, 0.06193004548549652, 0.06925319135189056, 0.0765763446688652, 0.08389949053525925, 0.09122263640165329, 0.09854578971862793, 0.10586893558502197, 0.11319208145141602, 0.12051522731781006, 0.1278383731842041, 0.13516151905059814, 0.1424846649169922, 0.14980782568454742, 0.15713097155094147, 0.1644541174173355, 0.17177726328372955, 0.1791004091501236, 0.18642355501651764, 0.19374670088291168, 0.20106986165046692, 0.20839300751686096, 0.215716153383255, 0.22303929924964905, 0.2303624451160431]}, "parameters/lin1.weight": {"_type": "histogram", "values": [1.0, 0.0, 0.0, 0.0, 0.0, 1.0, 1.0, 0.0, 0.0, 1.0, 0.0, 0.0, 1.0, 4.0, 2.0, 10.0, 9.0, 4.0, 10.0, 18.0, 16.0, 15.0, 32.0, 45.0, 65.0, 91.0, 142.0, 283.0, 563.0, 1015.0, 1149.0, 1107.0, 1119.0, 1246.0, 1175.0, 1146.0, 1191.0, 1143.0, 995.0, 642.0, 314.0, 237.0, 153.0, 137.0, 75.0, 62.0, 50.0, 38.0, 20.0, 19.0, 15.0, 8.0, 5.0, 4.0, 1.0, 5.0, 4.0, 2.0, 5.0, 1.0, 2.0, 0.0, 0.0, 1.0], "bins": [-0.5918427109718323, -0.5747412443161011, -0.5576397776603699, -0.5405383110046387, -0.5234369039535522, -0.506335437297821, -0.48923397064208984, -0.47213250398635864, -0.45503103733062744, -0.43792957067489624, -0.42082810401916504, -0.4037266671657562, -0.386625200510025, -0.3695237338542938, -0.352422297000885, -0.3353208303451538, -0.3182193636894226, -0.3011178970336914, -0.2840164303779602, -0.2669149935245514, -0.2498135268688202, -0.232712060213089, -0.21561060845851898, -0.19850915670394897, -0.18140769004821777, -0.16430622339248657, -0.14720477163791656, -0.13010331988334656, -0.11300185322761536, -0.09590039402246475, -0.07879893481731415, -0.061697475612163544, -0.044595956802368164, -0.02749449759721756, -0.010393038392066956, 0.006708420813083649, 0.023809880018234253, 0.04091133922338486, 0.05801279842853546, 0.07511425763368607, 0.09221571683883667, 0.10931717604398727, 0.12641863524913788, 0.14352008700370789, 0.1606215536594391, 0.1777230203151703, 0.1948244720697403, 0.2119259238243103, 0.2290273904800415, 0.2461288571357727, 0.2632303237915039, 0.2803317606449127, 0.2974332273006439, 0.3145346939563751, 0.33163613080978394, 0.34873759746551514, 0.36583906412124634, 0.38294053077697754, 0.40004199743270874, 0.41714343428611755, 0.43424490094184875, 0.45134636759757996, 0.46844780445098877, 0.48554927110671997, 0.5026507377624512]}, "parameters/lin1.bias": {"_type": "histogram", "values": [1.0, 0.0, 0.0, 0.0, 0.0, 1.0, 0.0, 2.0, 0.0, 0.0, 0.0, 1.0, 1.0, 0.0, 2.0, 6.0, 5.0, 2.0, 3.0, 4.0, 6.0, 2.0, 5.0, 3.0, 0.0, 2.0, 4.0, 4.0, 0.0, 2.0, 2.0, 0.0, 2.0, 3.0, 1.0, 4.0, 3.0, 3.0, 4.0, 2.0, 3.0, 2.0, 0.0, 1.0, 4.0, 4.0, 1.0, 0.0, 4.0, 1.0, 1.0, 1.0, 2.0, 3.0, 1.0, 1.0, 2.0, 1.0, 1.0, 3.0, 3.0, 0.0, 0.0, 1.0], "bins": [-0.17141836881637573, -0.16634145379066467, -0.1612645387649536, -0.15618762373924255, -0.1511107087135315, -0.14603379368782043, -0.14095687866210938, -0.13587996363639832, -0.13080304861068726, -0.1257261335849762, -0.12064921855926514, -0.11557230353355408, -0.11049538850784302, -0.10541846603155136, -0.1003415510058403, -0.09526463598012924, -0.09018771350383759, -0.08511079847812653, -0.08003388345241547, -0.0749569684267044, -0.06988005340099335, -0.06480313092470169, -0.05972621589899063, -0.05464930087327957, -0.04957238584756851, -0.04449547082185745, -0.03941855579614639, -0.034341637045145035, -0.029264722019433975, -0.024187806993722916, -0.019110890105366707, -0.014033974148333073, -0.008957073092460632, -0.003880157135426998, 0.001196758821606636, 0.00627367477864027, 0.011350590735673904, 0.016427505761384964, 0.021504422649741173, 0.02658133953809738, 0.03165825456380844, 0.0367351695895195, 0.04181208461523056, 0.04688900336623192, 0.05196591839194298, 0.05704283341765404, 0.062119752168655396, 0.06719666719436646, 0.07227358222007751, 0.07735049724578857, 0.08242741227149963, 0.0875043272972107, 0.09258124232292175, 0.09765816479921341, 0.10273507982492447, 0.10781199485063553, 0.11288890987634659, 0.11796582490205765, 0.12304273992776871, 0.12811966240406036, 0.13319657742977142, 0.13827349245548248, 0.14335040748119354, 0.1484273225069046, 0.15350423753261566]}, "parameters/lin2.weight": {"_type": "histogram", "values": [1.0, 1.0, 0.0, 0.0, 0.0, 1.0, 0.0, 2.0, 2.0, 4.0, 2.0, 0.0, 5.0, 3.0, 8.0, 9.0, 4.0, 8.0, 7.0, 8.0, 8.0, 4.0, 6.0, 3.0, 9.0, 4.0, 4.0, 7.0, 1.0, 0.0, 1.0, 0.0, 1.0, 0.0, 0.0, 1.0, 3.0, 1.0, 1.0, 0.0, 0.0, 0.0, 0.0, 0.0, 0.0, 0.0, 0.0, 0.0, 0.0, 0.0, 0.0, 0.0, 0.0, 0.0, 0.0, 0.0, 0.0, 0.0, 0.0, 0.0, 0.0, 0.0, 0.0, 1.0], "bins": [-0.2718563675880432, -0.25797897577285767, -0.2441016137599945, -0.23022423684597015, -0.2163468599319458, -0.20246948301792145, -0.1885921061038971, -0.17471472918987274, -0.1608373522758484, -0.14695997536182404, -0.13308259844779968, -0.11920522153377533, -0.10532784461975098, -0.09145046025514603, -0.07757308334112167, -0.06369570642709732, -0.04981832206249237, -0.03594094514846802, -0.022063566371798515, -0.008186188526451588, 0.00569118931889534, 0.019568566232919693, 0.033445946872234344, 0.0473233237862587, 0.06120070070028305, 0.0750780776143074, 0.08895545452833176, 0.10283283144235611, 0.11671021580696106, 0.1305875927209854, 0.14446496963500977, 0.15834234654903412, 0.17221972346305847, 0.18609710037708282, 0.19997447729110718, 0.21385185420513153, 0.22772923111915588, 0.24160660803318024, 0.2554839849472046, 0.26936137676239014, 0.2832387387752533, 0.29711613059043884, 0.310993492603302, 0.32487088441848755, 0.3387482464313507, 0.35262563824653625, 0.3665030002593994, 0.38038039207458496, 0.3942577838897705, 0.40813517570495605, 0.4220125377178192, 0.43588992953300476, 0.4497672915458679, 0.46364468336105347, 0.4775220453739166, 0.4913994371891022, 0.5052767992019653, 0.5191541910171509, 0.5330315828323364, 0.5469089150428772, 0.5607863068580627, 0.5746636986732483, 0.5885410904884338, 0.6024184226989746, 0.6162958145141602]}, "parameters/lin2.bias": {"_type": "histogram", "values": [0.0, 0.0, 0.0, 0.0, 0.0, 0.0, 0.0, 0.0, 0.0, 0.0, 0.0, 0.0, 0.0, 0.0, 0.0, 0.0, 0.0, 0.0, 0.0, 0.0, 0.0, 0.0, 0.0, 0.0, 0.0, 0.0, 0.0, 0.0, 0.0, 0.0, 0.0, 0.0, 1.0, 0.0, 0.0, 0.0, 0.0, 0.0, 0.0, 0.0, 0.0, 0.0, 0.0, 0.0, 0.0, 0.0, 0.0, 0.0, 0.0, 0.0, 0.0, 0.0, 0.0, 0.0, 0.0, 0.0, 0.0, 0.0, 0.0, 0.0, 0.0, 0.0, 0.0, 0.0], "bins": [-0.10869428515434265, -0.10869428515434265, -0.10869428515434265, -0.10869428515434265, -0.10869428515434265, -0.10869428515434265, -0.10869428515434265, -0.10869428515434265, -0.10869428515434265, -0.10869428515434265, -0.10869428515434265, -0.10869428515434265, -0.10869428515434265, -0.10869428515434265, -0.10869428515434265, -0.10869428515434265, -0.10869428515434265, -0.10869428515434265, -0.10869428515434265, -0.10869428515434265, -0.10869428515434265, -0.10869428515434265, -0.10869428515434265, -0.10869428515434265, -0.10869428515434265, -0.10869428515434265, -0.10869428515434265, -0.10869428515434265, -0.10869428515434265, -0.10869428515434265, -0.10869428515434265, -0.10869428515434265, -0.10869428515434265, -0.10869428515434265, -0.10869428515434265, -0.10869428515434265, -0.10869428515434265, -0.10869428515434265, -0.10869428515434265, -0.10869428515434265, -0.10869428515434265, -0.10869428515434265, -0.10869428515434265, -0.10869428515434265, -0.10869428515434265, -0.10869428515434265, -0.10869428515434265, -0.10869428515434265, -0.10869428515434265, -0.10869428515434265, -0.10869428515434265, -0.10869428515434265, -0.10869428515434265, -0.10869428515434265, -0.10869428515434265, -0.10869428515434265, -0.10869428515434265, -0.10869428515434265, -0.10869428515434265, -0.10869428515434265, -0.10869428515434265, -0.10869428515434265, -0.10869428515434265, -0.10869428515434265, -0.10869428515434265]}, "gradients/lin2.bias": {"_type": "histogram", "values": [0.0, 0.0, 0.0, 0.0, 0.0, 0.0, 0.0, 0.0, 0.0, 0.0, 0.0, 0.0, 0.0, 0.0, 0.0, 0.0, 0.0, 0.0, 0.0, 0.0, 0.0, 0.0, 0.0, 0.0, 0.0, 0.0, 0.0, 0.0, 0.0, 0.0, 0.0, 0.0, 1.0, 0.0, 0.0, 0.0, 0.0, 0.0, 0.0, 0.0, 0.0, 0.0, 0.0, 0.0, 0.0, 0.0, 0.0, 0.0, 0.0, 0.0, 0.0, 0.0, 0.0, 0.0, 0.0, 0.0, 0.0, 0.0, 0.0, 0.0, 0.0, 0.0, 0.0, 0.0], "bins": [0.04542804881930351, 0.04542804881930351, 0.04542804881930351, 0.04542804881930351, 0.04542804881930351, 0.04542804881930351, 0.04542804881930351, 0.04542804881930351, 0.04542804881930351, 0.04542804881930351, 0.04542804881930351, 0.04542804881930351, 0.04542804881930351, 0.04542804881930351, 0.04542804881930351, 0.04542804881930351, 0.04542804881930351, 0.04542804881930351, 0.04542804881930351, 0.04542804881930351, 0.04542804881930351, 0.04542804881930351, 0.04542804881930351, 0.04542804881930351, 0.04542804881930351, 0.04542804881930351, 0.04542804881930351, 0.04542804881930351, 0.04542804881930351, 0.04542804881930351, 0.04542804881930351, 0.04542804881930351, 0.04542804881930351, 0.04542804881930351, 0.04542804881930351, 0.04542804881930351, 0.04542804881930351, 0.04542804881930351, 0.04542804881930351, 0.04542804881930351, 0.04542804881930351, 0.04542804881930351, 0.04542804881930351, 0.04542804881930351, 0.04542804881930351, 0.04542804881930351, 0.04542804881930351, 0.04542804881930351, 0.04542804881930351, 0.04542804881930351, 0.04542804881930351, 0.04542804881930351, 0.04542804881930351, 0.04542804881930351, 0.04542804881930351, 0.04542804881930351, 0.04542804881930351, 0.04542804881930351, 0.04542804881930351, 0.04542804881930351, 0.04542804881930351, 0.04542804881930351, 0.04542804881930351, 0.04542804881930351, 0.04542804881930351]}, "gradients/lin2.weight": {"_type": "histogram", "values": [1.0, 0.0, 2.0, 0.0, 0.0, 59.0, 4.0, 0.0, 0.0, 1.0, 1.0, 2.0, 0.0, 2.0, 2.0, 3.0, 1.0, 2.0, 2.0, 1.0, 1.0, 0.0, 4.0, 1.0, 2.0, 1.0, 2.0, 2.0, 3.0, 0.0, 1.0, 1.0, 1.0, 0.0, 1.0, 1.0, 2.0, 4.0, 0.0, 0.0, 1.0, 1.0, 2.0, 0.0, 1.0, 1.0, 0.0, 0.0, 1.0, 1.0, 0.0, 0.0, 1.0, 0.0, 0.0, 0.0, 0.0, 0.0, 0.0, 0.0, 0.0, 0.0, 0.0, 1.0], "bins": [-0.007401494774967432, -0.0061193848960101604, -0.004837275017052889, -0.0035551651380956173, -0.0022730552591383457, -0.0009909453801810741, 0.00029116449877619743, 0.001573274377733469, 0.0028553842566907406, 0.004137494135648012, 0.005419604014605284, 0.006701713893562555, 0.007983824238181114, 0.009265933185815811, 0.010548043996095657, 0.011830152943730354, 0.0131122637540102, 0.014394373632967472, 0.015676483511924744, 0.01695859432220459, 0.018240703269839287, 0.019522812217473984, 0.02080492302775383, 0.022087033838033676, 0.023369142785668373, 0.02465125173330307, 0.025933362543582916, 0.027215473353862762, 0.02849758230149746, 0.029779691249132156, 0.031061802059412003, 0.03234391286969185, 0.033626019954681396, 0.03490813076496124, 0.03619024157524109, 0.03747234866023064, 0.03875445947051048, 0.04003657028079033, 0.04131867736577988, 0.04260078817605972, 0.04388289898633957, 0.045165009796619415, 0.04644712060689926, 0.04772922769188881, 0.049011338502168655, 0.0502934493124485, 0.05157555639743805, 0.052857667207717896, 0.05413977801799774, 0.05542188882827759, 0.056703999638557434, 0.05798610672354698, 0.05926821753382683, 0.060550328344106674, 0.06183243542909622, 0.06311454623937607, 0.06439665704965591, 0.06567876785993576, 0.0669608786702156, 0.06824298948049545, 0.0695250928401947, 0.07080720365047455, 0.0720893144607544, 0.07337142527103424, 0.07465353608131409]}, "gradients/lin1.bias": {"_type": "histogram", "values": [1.0, 0.0, 0.0, 0.0, 0.0, 0.0, 1.0, 0.0, 1.0, 3.0, 1.0, 3.0, 0.0, 0.0, 2.0, 3.0, 1.0, 3.0, 1.0, 2.0, 4.0, 1.0, 2.0, 0.0, 0.0, 1.0, 59.0, 2.0, 0.0, 0.0, 0.0, 2.0, 1.0, 0.0, 3.0, 5.0, 0.0, 1.0, 2.0, 5.0, 7.0, 0.0, 0.0, 0.0, 1.0, 1.0, 0.0, 0.0, 0.0, 0.0, 0.0, 0.0, 0.0, 0.0, 0.0, 0.0, 0.0, 0.0, 0.0, 0.0, 0.0, 0.0, 0.0, 1.0], "bins": [-0.010375672951340675, -0.009990300051867962, -0.009604928083717823, -0.00921955518424511, -0.00883418321609497, -0.008448810316622257, -0.008063437417149544, -0.007678064983338118, -0.0072926925495266914, -0.006907320115715265, -0.006521947681903839, -0.006136574782431126, -0.0057512023486196995, -0.005365829914808273, -0.00498045701533556, -0.004595084581524134, -0.0042097121477127075, -0.0038243397139012814, -0.0034389670472592115, -0.0030535943806171417, -0.0026682219468057156, -0.0022828495129942894, -0.0018974768463522196, -0.0015121042961254716, -0.0011267317458987236, -0.0007413591956719756, -0.0003559866454452276, 2.9385904781520367e-05, 0.00041475845500826836, 0.0008001310052350163, 0.0011855035554617643, 0.0015708761056885123, 0.0019562486559152603, 0.0023416210897266865, 0.0027269937563687563, 0.003112366423010826, 0.0034977388568222523, 0.0038831112906336784, 0.004268484190106392, 0.004653856623917818, 0.005039229057729244, 0.00542460149154067, 0.0058099739253520966, 0.00619534682482481, 0.006580719258636236, 0.006966091692447662, 0.007351464591920376, 0.007736837025731802, 0.008122209459543228, 0.008507582359015942, 0.00889295432716608, 0.009278327226638794, 0.009663699194788933, 0.010049072094261646, 0.01043444499373436, 0.010819816961884499, 0.011205189861357212, 0.011590562760829926, 0.011975934728980064, 0.012361307628452778, 0.012746680527925491, 0.01313205249607563, 0.013517425395548344, 0.013902797363698483, 0.014288170263171196]}, "gradients/lin1.weight": {"_type": "histogram", "values": [2.0, 2.0, 0.0, 0.0, 0.0, 1.0, 1.0, 1.0, 5.0, 6.0, 9.0, 6.0, 12.0, 12.0, 14.0, 19.0, 23.0, 25.0, 42.0, 46.0, 61.0, 110.0, 133.0, 246.0, 483.0, 10119.0, 1783.0, 439.0, 251.0, 162.0, 81.0, 67.0, 39.0, 43.0, 35.0, 28.0, 19.0, 26.0, 8.0, 8.0, 6.0, 5.0, 5.0, 3.0, 4.0, 1.0, 0.0, 1.0, 2.0, 0.0, 1.0, 1.0, 0.0, 0.0, 0.0, 0.0, 0.0, 1.0, 1.0, 0.0, 1.0, 0.0, 0.0, 1.0], "bins": [-0.031245287507772446, -0.03004153072834015, -0.028837773948907852, -0.027634015306830406, -0.02643025852739811, -0.025226501747965813, -0.024022744968533516, -0.02281898818910122, -0.021615229547023773, -0.020411472767591476, -0.01920771598815918, -0.018003957346081734, -0.016800200566649437, -0.01559644378721714, -0.014392687007784843, -0.013188929297029972, -0.01198517344892025, -0.010781416669487953, -0.009577658958733082, -0.008373902179300785, -0.007170144934207201, -0.005966387689113617, -0.00476263090968132, -0.003558873664587736, -0.002355116419494152, -0.0011513592908158898, 5.23978378623724e-05, 0.0012561549665406346, 0.002459912095218897, 0.003663669340312481, 0.004867426119744778, 0.006071183364838362, 0.007274940609931946, 0.008478697389364243, 0.009682455100119114, 0.01088621187955141, 0.012089969590306282, 0.013293726369738579, 0.014497483149170876, 0.015701239928603172, 0.01690499857068062, 0.018108755350112915, 0.019312512129545212, 0.020516270771622658, 0.021720027551054955, 0.02292378433048725, 0.024127541109919548, 0.025331297889351845, 0.02653505466878414, 0.02773881144821644, 0.028942568227648735, 0.03014632686972618, 0.03135008364915848, 0.032553840428590775, 0.03375759720802307, 0.03496135398745537, 0.036165110766887665, 0.03736886754631996, 0.03857262432575226, 0.039776381105184555, 0.04098013788461685, 0.04218389466404915, 0.043387655168771744, 0.04459141194820404, 0.04579516872763634]}, "gradients/conv_layers.0.nn.3.bias": {"_type": "histogram", "values": [1.0, 1.0, 0.0, 0.0, 1.0, 0.0, 0.0, 0.0, 1.0, 0.0, 0.0, 0.0, 1.0, 0.0, 0.0, 1.0, 0.0, 2.0, 0.0, 1.0, 0.0, 1.0, 0.0, 2.0, 1.0, 2.0, 6.0, 4.0, 0.0, 2.0, 1.0, 2.0, 0.0, 0.0, 1.0, 0.0, 2.0, 1.0, 0.0, 1.0, 1.0, 0.0, 0.0, 0.0, 0.0, 0.0, 0.0, 1.0, 0.0, 0.0, 0.0, 1.0, 0.0, 0.0, 0.0, 0.0, 0.0, 1.0, 0.0, 0.0, 0.0, 0.0, 0.0, 1.0], "bins": [-0.1625368297100067, -0.15646125376224518, -0.15038567781448364, -0.1443101018667221, -0.13823452591896057, -0.13215894997119904, -0.1260833740234375, -0.12000780552625656, -0.11393222957849503, -0.10785665363073349, -0.10178107768297195, -0.09570550173521042, -0.08962993323802948, -0.08355435729026794, -0.07747878134250641, -0.07140320539474487, -0.06532762944698334, -0.0592520534992218, -0.053176477551460266, -0.04710090532898903, -0.04102532938122749, -0.03494975343346596, -0.02887417934834957, -0.022798605263233185, -0.01672302931547165, -0.010647454299032688, -0.004571879282593727, 0.001503695733845234, 0.007579270750284195, 0.013654845766723156, 0.019730420783162117, 0.025805994868278503, 0.03188158571720123, 0.03795716166496277, 0.044032737612724304, 0.05010830983519554, 0.05618388578295708, 0.06225946173071861, 0.06833503395318985, 0.07441060990095139, 0.08048618584871292, 0.08656176179647446, 0.09263733774423599, 0.09871291369199753, 0.10478848218917847, 0.11086405813694, 0.11693963408470154, 0.12301521003246307, 0.1290907859802246, 0.13516636192798615, 0.14124193787574768, 0.14731751382350922, 0.15339308977127075, 0.1594686657190323, 0.16554424166679382, 0.17161981761455536, 0.1776953935623169, 0.18377096951007843, 0.18984654545783997, 0.1959221214056015, 0.20199769735336304, 0.20807327330112457, 0.2141488492488861, 0.22022442519664764, 0.22629998624324799]}, "gradients/conv_layers.0.nn.3.weight": {"_type": "histogram", "values": [1.0, 0.0, 0.0, 0.0, 3.0, 1.0, 0.0, 1.0, 0.0, 2.0, 4.0, 5.0, 7.0, 9.0, 7.0, 15.0, 10.0, 27.0, 47.0, 74.0, 156.0, 821.0, 180.0, 64.0, 24.0, 28.0, 13.0, 24.0, 19.0, 4.0, 5.0, 9.0, 4.0, 2.0, 5.0, 5.0, 6.0, 2.0, 2.0, 2.0, 2.0, 0.0, 1.0, 1.0, 1.0, 2.0, 0.0, 2.0, 0.0, 0.0, 1.0, 0.0, 0.0, 0.0, 0.0, 1.0, 0.0, 0.0, 0.0, 0.0, 0.0, 0.0, 0.0, 1.0], "bins": [-0.1629582941532135, -0.15548162162303925, -0.148004949092865, -0.14052827656269073, -0.13305160403251648, -0.12557493150234222, -0.11809825897216797, -0.11062158644199371, -0.10314491391181946, -0.0956682413816452, -0.08819156885147095, -0.08071489632129669, -0.07323822379112244, -0.06576155126094818, -0.05828487500548363, -0.05080820247530937, -0.04333152621984482, -0.03585485368967056, -0.028378181159496307, -0.020901506766676903, -0.013424834236502647, -0.005948161240667105, 0.001528511755168438, 0.009005185216665268, 0.016481857746839523, 0.02395853027701378, 0.031435202807188034, 0.03891187533736229, 0.04638855159282684, 0.0538652241230011, 0.061341896653175354, 0.06881856918334961, 0.07629524171352386, 0.08377191424369812, 0.09124858677387238, 0.09872525930404663, 0.10620193183422089, 0.11367860436439514, 0.1211552768945694, 0.12863194942474365, 0.1361086219549179, 0.14358529448509216, 0.15106196701526642, 0.15853863954544067, 0.16601531207561493, 0.17349198460578918, 0.18096865713596344, 0.1884453296661377, 0.19592201709747314, 0.2033986896276474, 0.21087536215782166, 0.2183520346879959, 0.22582870721817017, 0.23330537974834442, 0.24078205227851868, 0.24825872480869293, 0.2557353973388672, 0.26321208477020264, 0.2706887423992157, 0.27816542983055115, 0.2856420874595642, 0.29311877489089966, 0.3005954325199127, 0.30807211995124817, 0.31554877758026123]}, "gradients/conv_layers.0.nn.1.weight": {"_type": "histogram", "values": [1.0, 0.0, 0.0, 0.0, 0.0, 0.0, 0.0, 0.0, 0.0, 0.0, 0.0, 0.0, 2.0, 0.0, 0.0, 0.0, 0.0, 0.0, 0.0, 1.0, 1.0, 0.0, 3.0, 2.0, 1.0, 4.0, 1.0, 2.0, 2.0, 0.0, 4.0, 2.0, 0.0, 2.0, 3.0, 2.0, 1.0, 1.0, 0.0, 0.0, 0.0, 1.0, 0.0, 0.0, 1.0, 0.0, 0.0, 0.0, 0.0, 1.0, 0.0, 0.0, 0.0, 0.0, 0.0, 0.0, 0.0, 0.0, 0.0, 0.0, 0.0, 1.0, 0.0, 1.0], "bins": [-0.06737878173589706, -0.06484781950712204, -0.062316857278347015, -0.05978589504957199, -0.05725493282079697, -0.05472397059202194, -0.05219300836324692, -0.04966204613447189, -0.04713108390569687, -0.044600121676921844, -0.04206915944814682, -0.039538197219371796, -0.03700723499059677, -0.03447627276182175, -0.03194531053304672, -0.029414350166916847, -0.026883389800786972, -0.024352427572011948, -0.021821465343236923, -0.0192905031144619, -0.016759540885686874, -0.014228579588234425, -0.011697618290781975, -0.00916665606200695, -0.006635693833231926, -0.0041047316044569016, -0.0015737698413431644, 0.0009571921546012163, 0.003488154150545597, 0.0060191163793206215, 0.008550077676773071, 0.011081039905548096, 0.01361200213432312, 0.016142964363098145, 0.01867392659187317, 0.021204888820648193, 0.023735851049423218, 0.026266811415553093, 0.028797773644328117, 0.03132873773574829, 0.033859699964523315, 0.03639066219329834, 0.038921624422073364, 0.04145258665084839, 0.04398354887962341, 0.04651451110839844, 0.04904547333717346, 0.051576435565948486, 0.05410739406943321, 0.05663835629820824, 0.05916931852698326, 0.061700280755758286, 0.06423123925924301, 0.06676220148801804, 0.06929316371679306, 0.07182412594556808, 0.07435508817434311, 0.07688605040311813, 0.07941701263189316, 0.08194797486066818, 0.0844789370894432, 0.08700989931821823, 0.08954086154699326, 0.09207182377576828, 0.0946027860045433]}, "gradients/conv_layers.0.nn.1.bias": {"_type": "histogram", "values": [1.0, 0.0, 0.0, 0.0, 0.0, 0.0, 0.0, 1.0, 0.0, 1.0, 0.0, 0.0, 0.0, 2.0, 3.0, 5.0, 4.0, 2.0, 3.0, 2.0, 3.0, 1.0, 2.0, 1.0, 1.0, 1.0, 0.0, 1.0, 0.0, 0.0, 1.0, 0.0, 1.0, 1.0, 0.0, 0.0, 0.0, 0.0, 0.0, 0.0, 0.0, 0.0, 1.0, 0.0, 0.0, 0.0, 0.0, 0.0, 0.0, 0.0, 0.0, 0.0, 0.0, 0.0, 0.0, 0.0, 0.0, 0.0, 0.0, 1.0, 0.0, 0.0, 0.0, 1.0], "bins": [-0.048986658453941345, -0.046010229736566544, -0.04303380474448204, -0.04005737602710724, -0.037080951035022736, -0.034104522317647934, -0.03112809546291828, -0.02815166860818863, -0.025175241753458977, -0.022198814898729324, -0.019222388043999672, -0.01624596118927002, -0.013269533403217793, -0.01029310654848814, -0.0073166792280972, -0.004340251907706261, -0.0013638250529766083, 0.0016126020345836878, 0.004589029122143984, 0.0075654564425349236, 0.010541883297264576, 0.013518310151994228, 0.016494737938046455, 0.019471164792776108, 0.02244759164750576, 0.025424018502235413, 0.028400445356965065, 0.03137687221169472, 0.03435330092906952, 0.03732972592115402, 0.040306154638528824, 0.04328257963061333, 0.04625900834798813, 0.04923543706536293, 0.052211862057447433, 0.055188290774822235, 0.05816471576690674, 0.06114114448428154, 0.06411757320165634, 0.06709399819374084, 0.07007042318582535, 0.07304684817790985, 0.07602328062057495, 0.07899970561265945, 0.08197613060474396, 0.08495255559682846, 0.08792898803949356, 0.09090541303157806, 0.09388184547424316, 0.09685827046632767, 0.09983470290899277, 0.10281112790107727, 0.10578755289316177, 0.10876397788524628, 0.11174041032791138, 0.11471683531999588, 0.11769326031208038, 0.12066968530416489, 0.12364611774682999, 0.1266225427389145, 0.1295989751815796, 0.1325753927230835, 0.1355518251657486, 0.1385282427072525, 0.1415046751499176]}, "gradients/conv_layers.0.nn.0.bias": {"_type": "histogram", "values": [1.0, 0.0, 0.0, 0.0, 0.0, 0.0, 0.0, 0.0, 0.0, 0.0, 0.0, 0.0, 0.0, 0.0, 0.0, 0.0, 0.0, 0.0, 0.0, 0.0, 0.0, 0.0, 0.0, 0.0, 0.0, 0.0, 1.0, 1.0, 0.0, 1.0, 6.0, 10.0, 4.0, 2.0, 1.0, 1.0, 4.0, 1.0, 1.0, 1.0, 0.0, 0.0, 1.0, 1.0, 0.0, 0.0, 0.0, 1.0, 0.0, 0.0, 0.0, 0.0, 0.0, 0.0, 0.0, 1.0, 0.0, 0.0, 0.0, 0.0, 0.0, 0.0, 0.0, 1.0], "bins": [-0.046320151537656784, -0.04484519362449646, -0.04337023198604584, -0.04189527407288551, -0.04042031615972519, -0.038945358246564865, -0.03747040033340454, -0.03599543869495392, -0.034520480781793594, -0.03304552286863327, -0.03157056123018265, -0.030095603317022324, -0.028620645403862, -0.027145687490701675, -0.025670727714896202, -0.02419576793909073, -0.022720810025930405, -0.02124585211277008, -0.019770892336964607, -0.018295932561159134, -0.01682097464799881, -0.015346015803515911, -0.013871056959033012, -0.012396098114550114, -0.010921139270067215, -0.009446180425584316, -0.007971221581101418, -0.006496262736618519, -0.00502130389213562, -0.0035463450476527214, -0.0020713862031698227, -0.000596427358686924, 0.0008785314857959747, 0.0023534903302788734, 0.003828449174761772, 0.005303408019244671, 0.00677836686372757, 0.008253325708210468, 0.009728284552693367, 0.011203243397176266, 0.012678202241659164, 0.014153161086142063, 0.015628119930624962, 0.017103079706430435, 0.01857803761959076, 0.020052995532751083, 0.021527955308556557, 0.02300291508436203, 0.024477872997522354, 0.025952830910682678, 0.02742779068648815, 0.028902750462293625, 0.03037770837545395, 0.03185266628861427, 0.0333276242017746, 0.03480258584022522, 0.036277543753385544, 0.03775250166654587, 0.03922746330499649, 0.040702421218156815, 0.04217737913131714, 0.04365233704447746, 0.04512729495763779, 0.04660225659608841, 0.048077214509248734]}, "gradients/conv_layers.0.nn.0.weight": {"_type": "histogram", "values": [1.0, 0.0, 0.0, 0.0, 0.0, 0.0, 0.0, 0.0, 0.0, 1.0, 0.0, 0.0, 0.0, 0.0, 0.0, 0.0, 0.0, 0.0, 1.0, 0.0, 0.0, 0.0, 1.0, 0.0, 0.0, 1.0, 1.0, 3.0, 4.0, 7.0, 85.0, 18.0, 5.0, 7.0, 8.0, 2.0, 1.0, 0.0, 2.0, 2.0, 0.0, 0.0, 2.0, 1.0, 0.0, 1.0, 2.0, 0.0, 1.0, 0.0, 0.0, 0.0, 1.0, 0.0, 0.0, 0.0, 0.0, 0.0, 0.0, 0.0, 1.0, 0.0, 0.0, 1.0], "bins": [-1.1716487407684326, -1.1331093311309814, -1.0945698022842407, -1.0560302734375, -1.0174908638000488, -0.9789513945579529, -0.9404119253158569, -0.901872456073761, -0.863332986831665, -0.8247935175895691, -0.7862540483474731, -0.7477145791053772, -0.7091751098632812, -0.6706356406211853, -0.6320961713790894, -0.5935567021369934, -0.5550172328948975, -0.5164777636528015, -0.47793829441070557, -0.4393988251686096, -0.40085935592651367, -0.3623198866844177, -0.3237804174423218, -0.28524094820022583, -0.24670147895812988, -0.20816200971603394, -0.169622540473938, -0.13108307123184204, -0.0925436019897461, -0.054004132747650146, -0.0154646635055542, 0.023074805736541748, 0.061614155769348145, 0.10015362501144409, 0.13869309425354004, 0.177232563495636, 0.21577203273773193, 0.2543115019798279, 0.29285097122192383, 0.3313904404640198, 0.3699299097061157, 0.40846937894821167, 0.4470088481903076, 0.48554831743240356, 0.5240877866744995, 0.5626272559165955, 0.6011667251586914, 0.6397061944007874, 0.6782456636428833, 0.7167851328849792, 0.7553246021270752, 0.7938640713691711, 0.8324035406112671, 0.870943009853363, 0.909482479095459, 0.9480219483375549, 0.9865614175796509, 1.0251009464263916, 1.0636403560638428, 1.102179765701294, 1.1407192945480347, 1.1792588233947754, 1.2177982330322266, 1.2563376426696777, 1.2948771715164185]}, "_wandb": {"runtime": 77}}