{"epoch": 490, "train_acc": 96.45551139589585, "test_acc": 95.95950037850113, "loss": 0.09457982331514359, "_timestamp": 1681495278.470146, "_runtime": 5938.095649957657, "_step": 50, "parameters/conv_layers.0.bias": {"_type": "histogram", "values": [2.0, 0.0, 1.0, 0.0, 1.0, 0.0, 0.0, 1.0, 0.0, 0.0, 0.0, 0.0, 0.0, 0.0, 0.0, 0.0, 0.0, 0.0, 0.0, 4.0, 0.0, 0.0, 0.0, 0.0, 0.0, 0.0, 0.0, 0.0, 0.0, 0.0, 0.0, 0.0, 0.0, 0.0, 0.0, 0.0, 1.0, 0.0, 0.0, 0.0, 0.0, 0.0, 0.0, 0.0, 0.0, 0.0, 0.0, 0.0, 0.0, 0.0, 0.0, 0.0, 0.0, 0.0, 0.0, 0.0, 0.0, 0.0, 0.0, 0.0, 1.0, 0.0, 1.0, 1.0], "bins": [-0.7574529051780701, -0.7177401185035706, -0.6780272722244263, -0.6383144855499268, -0.5986016392707825, -0.558888852596283, -0.5191760063171387, -0.47946321964263916, -0.43975040316581726, -0.40003758668899536, -0.36032477021217346, -0.32061195373535156, -0.28089916706085205, -0.24118633568286896, -0.20147353410720825, -0.16176071763038635, -0.12204790115356445, -0.08233508467674255, -0.04262227565050125, -0.0029094628989696503, 0.03680334985256195, 0.07651616632938385, 0.11622897535562515, 0.15594178438186646, 0.19565460085868835, 0.23536741733551025, 0.27508023381233215, 0.31479305028915405, 0.35450583696365356, 0.39421865344047546, 0.43393146991729736, 0.47364428639411926, 0.5133570432662964, 0.5530698299407959, 0.5927826762199402, 0.6324954628944397, 0.672208309173584, 0.7119210958480835, 0.7516339421272278, 0.7913467288017273, 0.8310595750808716, 0.8707723617553711, 0.9104852080345154, 0.9501979947090149, 0.9899108409881592, 1.0296236276626587, 1.0693364143371582, 1.1090493202209473, 1.1487619876861572, 1.1884747743606567, 1.2281875610351562, 1.2679004669189453, 1.3076132535934448, 1.3473260402679443, 1.3870388269424438, 1.426751732826233, 1.4664645195007324, 1.506177306175232, 1.5458900928497314, 1.5856029987335205, 1.62531578540802, 1.6650285720825195, 1.704741358757019, 1.744454264640808, 1.7841670513153076]}, "parameters/conv_layers.0.lin.weight": {"_type": "histogram", "values": [1.0, 0.0, 0.0, 0.0, 0.0, 0.0, 0.0, 1.0, 1.0, 0.0, 1.0, 1.0, 6.0, 1.0, 1.0, 1.0, 5.0, 0.0, 3.0, 2.0, 2.0, 5.0, 6.0, 2.0, 1.0, 2.0, 1.0, 0.0, 1.0, 0.0, 2.0, 0.0, 1.0, 1.0, 1.0, 0.0, 0.0, 0.0, 0.0, 0.0, 0.0, 0.0, 1.0, 0.0, 0.0, 0.0, 0.0, 1.0, 0.0, 0.0, 0.0, 0.0, 0.0, 0.0, 0.0, 0.0, 0.0, 0.0, 0.0, 0.0, 0.0, 0.0, 0.0, 1.0], "bins": [-1.1953661441802979, -1.1419771909713745, -1.0885882377624512, -1.0351994037628174, -0.981810450553894, -0.9284214973449707, -0.8750325441360474, -0.8216436505317688, -0.7682546973228455, -0.7148657441139221, -0.6614768505096436, -0.6080878973007202, -0.5546989440917969, -0.5013100504875183, -0.44792109727859497, -0.394532173871994, -0.34114325046539307, -0.2877543270587921, -0.23436538875102997, -0.18097645044326782, -0.12758752703666687, -0.07419859617948532, -0.020809665322303772, 0.03257926553487778, 0.08596819639205933, 0.13935711979866028, 0.19274605810642242, 0.24613499641418457, 0.2995239198207855, 0.3529128432273865, 0.4063017964363098, 0.45969071984291077, 0.5130796432495117, 0.5664685964584351, 0.6198574900627136, 0.673246443271637, 0.7266353368759155, 0.7800242900848389, 0.8334132432937622, 0.8868021368980408, 0.9401910901069641, 0.9935800433158875, 1.046968936920166, 1.1003578901290894, 1.1537468433380127, 1.207135796546936, 1.2605246305465698, 1.3139135837554932, 1.3673025369644165, 1.4206914901733398, 1.4740804433822632, 1.527469277381897, 1.5808582305908203, 1.6342471837997437, 1.687636137008667, 1.7410250902175903, 1.7944140434265137, 1.847802996635437, 1.9011919498443604, 1.9545807838439941, 2.007969856262207, 2.061358690261841, 2.1147475242614746, 2.1681365966796875, 2.2215254306793213]}, "parameters/conv_layers.1.bias": {"_type": "histogram", "values": [1.0, 0.0, 1.0, 0.0, 0.0, 0.0, 0.0, 0.0, 0.0, 0.0, 0.0, 0.0, 0.0, 0.0, 0.0, 0.0, 0.0, 0.0, 0.0, 1.0, 0.0, 0.0, 0.0, 0.0, 0.0, 0.0, 1.0, 0.0, 0.0, 0.0, 0.0, 0.0, 0.0, 0.0, 3.0, 1.0, 1.0, 0.0, 1.0, 0.0, 0.0, 0.0, 0.0, 0.0, 0.0, 0.0, 0.0, 0.0, 0.0, 0.0, 0.0, 0.0, 0.0, 0.0, 0.0, 0.0, 0.0, 0.0, 0.0, 1.0, 0.0, 0.0, 0.0, 2.0], "bins": [-0.806542158126831, -0.7839167714118958, -0.7612913846969604, -0.7386659383773804, -0.7160405516624451, -0.6934151649475098, -0.6707897186279297, -0.6481643319129944, -0.6255389451980591, -0.6029135584831238, -0.5802881717681885, -0.5576627254486084, -0.5350373387336731, -0.5124119520187378, -0.4897865355014801, -0.4671611189842224, -0.4445357322692871, -0.4219103455543518, -0.3992849290370941, -0.3766595125198364, -0.3540341258049011, -0.3314087390899658, -0.30878332257270813, -0.28615790605545044, -0.26353251934051514, -0.24090711772441864, -0.21828171610832214, -0.19565631449222565, -0.17303091287612915, -0.15040551126003265, -0.12778010964393616, -0.10515470802783966, -0.08252936601638794, -0.05990396440029144, -0.037278562784194946, -0.01465316116809845, 0.007972240447998047, 0.030597642064094543, 0.05322304368019104, 0.07584844529628754, 0.09847384691238403, 0.12109924852848053, 0.14372465014457703, 0.16635005176067352, 0.18897545337677002, 0.21160085499286652, 0.234226256608963, 0.2568516731262207, 0.279477059841156, 0.3021024465560913, 0.324727863073349, 0.3473532795906067, 0.369978666305542, 0.3926040530204773, 0.415229469537735, 0.4378548860549927, 0.460480272769928, 0.4831056594848633, 0.5057311058044434, 0.5283564925193787, 0.550981879234314, 0.5736072659492493, 0.5962326526641846, 0.6188580989837646, 0.6414834856987]}, "parameters/conv_layers.1.lin.weight": {"_type": "histogram", "values": [1.0, 0.0, 0.0, 0.0, 0.0, 0.0, 0.0, 0.0, 0.0, 0.0, 3.0, 1.0, 1.0, 0.0, 0.0, 0.0, 1.0, 0.0, 2.0, 1.0, 1.0, 2.0, 6.0, 10.0, 10.0, 3.0, 14.0, 9.0, 5.0, 7.0, 10.0, 10.0, 6.0, 5.0, 5.0, 9.0, 8.0, 10.0, 5.0, 7.0, 2.0, 3.0, 1.0, 2.0, 1.0, 0.0, 0.0, 1.0, 0.0, 0.0, 1.0, 0.0, 0.0, 1.0, 0.0, 1.0, 1.0, 1.0, 0.0, 0.0, 0.0, 1.0, 0.0, 1.0], "bins": [-1.8076668977737427, -1.750311017036438, -1.6929551362991333, -1.6355992555618286, -1.578243374824524, -1.5208874940872192, -1.4635316133499146, -1.4061757326126099, -1.3488199710845947, -1.29146409034729, -1.2341082096099854, -1.1767523288726807, -1.119396448135376, -1.0620405673980713, -1.0046846866607666, -0.9473288655281067, -0.8899729251861572, -0.8326170444488525, -0.7752611637115479, -0.7179052829742432, -0.6605494022369385, -0.6031935811042786, -0.5458377003669739, -0.4884818196296692, -0.4311259388923645, -0.3737700581550598, -0.3164141774177551, -0.2590583264827728, -0.20170244574546814, -0.14434656500816345, -0.08699069917201996, -0.029634825885295868, 0.027721047401428223, 0.08507692068815231, 0.1424327939748764, 0.1997886598110199, 0.2571445405483246, 0.3145004212856293, 0.3718562722206116, 0.42921215295791626, 0.48656803369522095, 0.5439239144325256, 0.6012797951698303, 0.658635675907135, 0.7159914970397949, 0.7733473777770996, 0.8307032585144043, 0.888059139251709, 0.9454150199890137, 1.0027709007263184, 1.060126781463623, 1.1174826622009277, 1.1748385429382324, 1.232194423675537, 1.2895503044128418, 1.3469061851501465, 1.4042620658874512, 1.4616179466247559, 1.5189738273620605, 1.5763297080993652, 1.63368558883667, 1.6910414695739746, 1.7483973503112793, 1.805753231048584, 1.8631089925765991]}, "parameters/conv_layers.2.bias": {"_type": "histogram", "values": [3.0, 0.0, 0.0, 0.0, 0.0, 0.0, 0.0, 0.0, 0.0, 0.0, 0.0, 0.0, 1.0, 0.0, 0.0, 0.0, 0.0, 0.0, 1.0, 0.0, 0.0, 0.0, 0.0, 0.0, 0.0, 0.0, 0.0, 0.0, 0.0, 0.0, 0.0, 1.0, 0.0, 0.0, 0.0, 1.0, 1.0, 0.0, 0.0, 1.0, 0.0, 1.0, 0.0, 0.0, 0.0, 0.0, 0.0, 0.0, 0.0, 0.0, 0.0, 0.0, 0.0, 0.0, 0.0, 0.0, 0.0, 0.0, 1.0, 0.0, 0.0, 0.0, 0.0, 2.0], "bins": [-0.6417968273162842, -0.6245460510253906, -0.6072952151298523, -0.5900444388389587, -0.5727936029434204, -0.5555428266525269, -0.5382920503616333, -0.521041214466095, -0.5037904381752014, -0.4865396320819855, -0.46928882598876953, -0.452038049697876, -0.43478724360466003, -0.4175364375114441, -0.40028566122055054, -0.3830348551273346, -0.36578404903411865, -0.3485332429409027, -0.33128243684768677, -0.3140316605567932, -0.29678085446357727, -0.27953004837036133, -0.2622792720794678, -0.24502846598625183, -0.2277776598930359, -0.21052685379981995, -0.1932760626077652, -0.17602527141571045, -0.1587744653224945, -0.14152365922927856, -0.12427286803722382, -0.10702206939458847, -0.08977127075195312, -0.07252047210931778, -0.055269673466682434, -0.03801887482404709, -0.020768076181411743, -0.0035172775387763977, 0.013733521103858948, 0.030984319746494293, 0.04823511838912964, 0.06548591703176498, 0.08273671567440033, 0.09998751431703568, 0.11723831295967102, 0.13448911905288696, 0.1517399102449417, 0.16899070143699646, 0.1862415075302124, 0.20349231362342834, 0.2207431048154831, 0.23799389600753784, 0.2552447021007538, 0.2724955081939697, 0.2897462844848633, 0.3069970905780792, 0.32424789667129517, 0.3414987027645111, 0.35874950885772705, 0.3760002851486206, 0.39325109124183655, 0.4105018973350525, 0.42775267362594604, 0.445003479719162, 0.46225428581237793]}, "parameters/conv_layers.2.lin.weight": {"_type": "histogram", "values": [1.0, 0.0, 0.0, 0.0, 0.0, 0.0, 0.0, 0.0, 0.0, 0.0, 0.0, 0.0, 0.0, 0.0, 0.0, 0.0, 0.0, 0.0, 0.0, 0.0, 1.0, 0.0, 0.0, 0.0, 0.0, 0.0, 0.0, 0.0, 0.0, 0.0, 0.0, 0.0, 0.0, 0.0, 0.0, 0.0, 0.0, 0.0, 0.0, 0.0, 0.0, 4.0, 4.0, 6.0, 1.0, 3.0, 15.0, 18.0, 25.0, 24.0, 27.0, 14.0, 9.0, 5.0, 3.0, 1.0, 2.0, 1.0, 1.0, 0.0, 0.0, 0.0, 3.0, 1.0], "bins": [-9.75607967376709, -9.557143211364746, -9.358206748962402, -9.159270286560059, -8.960333824157715, -8.761397361755371, -8.562461853027344, -8.363525390625, -8.164588928222656, -7.9656524658203125, -7.766716003417969, -7.567780017852783, -7.3688435554504395, -7.169907093048096, -6.970970630645752, -6.772034168243408, -6.5730977058410645, -6.374161243438721, -6.175224781036377, -5.976288795471191, -5.777352333068848, -5.578415870666504, -5.37947940826416, -5.180542945861816, -4.981606483459473, -4.782670021057129, -4.583733558654785, -4.3847975730896, -4.185861110687256, -3.986924648284912, -3.7879881858825684, -3.5890519618988037, -3.390115737915039, -3.1911792755126953, -2.9922430515289307, -2.793306589126587, -2.5943703651428223, -2.3954339027404785, -2.1964974403381348, -1.9975610971450806, -1.7986247539520264, -1.5996884107589722, -1.400752067565918, -1.2018156051635742, -1.00287926197052, -0.8039429187774658, -0.6050065159797668, -0.40607014298439026, -0.20713376998901367, -0.008197396993637085, 0.1907389760017395, 0.3896753489971161, 0.5886117219924927, 0.7875480651855469, 0.9864844679832458, 1.1854208707809448, 1.384357213973999, 1.5832935571670532, 1.7822299003601074, 1.9811663627624512, 2.180102825164795, 2.3790390491485596, 2.5779755115509033, 2.776911735534668, 2.9758481979370117]}, "parameters/lin1.weight": {"_type": "histogram", "values": [2.0, 0.0, 0.0, 0.0, 2.0, 0.0, 0.0, 0.0, 1.0, 3.0, 0.0, 0.0, 0.0, 0.0, 0.0, 0.0, 5.0, 5.0, 3.0, 3.0, 4.0, 6.0, 5.0, 8.0, 10.0, 11.0, 14.0, 12.0, 20.0, 20.0, 52.0, 54.0, 68.0, 92.0, 152.0, 291.0, 597.0, 7514.0, 3839.0, 319.0, 164.0, 113.0, 74.0, 54.0, 41.0, 31.0, 14.0, 19.0, 20.0, 15.0, 4.0, 3.0, 1.0, 4.0, 6.0, 4.0, 2.0, 2.0, 1.0, 2.0, 0.0, 0.0, 2.0, 1.0], "bins": [-6.669307708740234, -6.493253231048584, -6.317199230194092, -6.141144752502441, -5.965090274810791, -5.789036273956299, -5.612981796264648, -5.436927318572998, -5.260872840881348, -5.084818363189697, -4.908764362335205, -4.732709884643555, -4.556655406951904, -4.380601406097412, -4.204546928405762, -4.028492450714111, -3.852438449859619, -3.676384210586548, -3.5003297328948975, -3.324275493621826, -3.148221015930176, -2.9721667766571045, -2.796112537384033, -2.620058059692383, -2.4440038204193115, -2.2679495811462402, -2.09189510345459, -1.9158408641815186, -1.7397865056991577, -1.5637321472167969, -1.3876779079437256, -1.2116235494613647, -1.035569190979004, -0.8595148324966431, -0.683460533618927, -0.5074062347412109, -0.3313518762588501, -0.15529754757881165, 0.020756781101226807, 0.19681110978126526, 0.3728654384613037, 0.5489197969436646, 0.7249740958213806, 0.9010283946990967, 1.0770827531814575, 1.2531371116638184, 1.4291913509368896, 1.6052457094192505, 1.7813000679016113, 1.9573544263839722, 2.133408784866333, 2.3094630241394043, 2.4855175018310547, 2.661571741104126, 2.8376259803771973, 3.0136804580688477, 3.189734697341919, 3.3657889366149902, 3.5418434143066406, 3.717897653579712, 3.893951892852783, 4.070006370544434, 4.246060848236084, 4.422114849090576, 4.598169326782227]}, "parameters/lin1.bias": {"_type": "histogram", "values": [2.0, 0.0, 0.0, 0.0, 0.0, 0.0, 0.0, 0.0, 0.0, 0.0, 0.0, 0.0, 1.0, 0.0, 0.0, 0.0, 1.0, 0.0, 0.0, 2.0, 1.0, 1.0, 4.0, 1.0, 3.0, 2.0, 2.0, 2.0, 8.0, 4.0, 5.0, 8.0, 6.0, 6.0, 6.0, 4.0, 8.0, 5.0, 7.0, 8.0, 2.0, 4.0, 2.0, 1.0, 2.0, 1.0, 1.0, 0.0, 1.0, 0.0, 1.0, 0.0, 1.0, 0.0, 0.0, 0.0, 0.0, 2.0, 0.0, 0.0, 0.0, 1.0, 0.0, 1.0], "bins": [-0.39257925748825073, -0.3817801773548126, -0.3709810972213745, -0.3601820468902588, -0.3493829667568207, -0.33858388662338257, -0.32778480648994446, -0.31698572635650635, -0.3061866760253906, -0.2953875958919525, -0.2845885157585144, -0.2737894654273987, -0.26299038529396057, -0.25219130516052246, -0.24139222502708435, -0.23059315979480743, -0.21979406476020813, -0.20899498462677002, -0.1981959193944931, -0.187396839261055, -0.17659777402877808, -0.16579869389533997, -0.15499961376190186, -0.14420054852962494, -0.13340146839618683, -0.12260239571332932, -0.1118033230304718, -0.10100424289703369, -0.09020517021417618, -0.07940609753131866, -0.06860701739788055, -0.05780794471502304, -0.04700887203216553, -0.036209799349308014, -0.025410722941160202, -0.01461164839565754, -0.0038125738501548767, 0.006986500695347786, 0.01778557524085045, 0.02858464978635311, 0.039383724331855774, 0.05018279701471329, 0.0609818734228611, 0.07178094983100891, 0.08258002251386642, 0.09337909519672394, 0.10417817533016205, 0.11497724801301956, 0.12577632069587708, 0.13657540082931519, 0.1473744660615921, 0.1581735461950302, 0.16897261142730713, 0.17977169156074524, 0.19057077169418335, 0.20136983692646027, 0.21216891705989838, 0.2229679971933365, 0.2337670624256134, 0.2445661425590515, 0.2553652226924896, 0.26616430282592773, 0.27696335315704346, 0.28776243329048157, 0.2985615134239197]}, "parameters/lin2.weight": {"_type": "histogram", "values": [1.0, 0.0, 0.0, 0.0, 1.0, 1.0, 1.0, 1.0, 1.0, 7.0, 1.0, 7.0, 46.0, 35.0, 4.0, 1.0, 2.0, 1.0, 0.0, 1.0, 1.0, 0.0, 1.0, 0.0, 0.0, 0.0, 0.0, 0.0, 0.0, 1.0, 0.0, 0.0, 0.0, 0.0, 0.0, 1.0, 0.0, 0.0, 0.0, 0.0, 0.0, 0.0, 0.0, 0.0, 0.0, 0.0, 0.0, 0.0, 0.0, 0.0, 0.0, 0.0, 0.0, 0.0, 0.0, 0.0, 0.0, 0.0, 0.0, 1.0, 0.0, 0.0, 0.0, 1.0], "bins": [-0.98746657371521, -0.9119372367858887, -0.8364078402519226, -0.7608784437179565, -0.6853491067886353, -0.609819769859314, -0.5342903733253479, -0.4587610065937042, -0.38323163986206055, -0.30770227313041687, -0.2321729063987732, -0.15664353966712952, -0.08111417293548584, -0.005584806203842163, 0.06994456052780151, 0.1454739272594452, 0.22100329399108887, 0.29653266072273254, 0.3720620274543762, 0.4475913941860199, 0.5231207609176636, 0.5986500978469849, 0.6741794943809509, 0.749708890914917, 0.8252382278442383, 0.9007675647735596, 0.9762969613075256, 1.0518263578414917, 1.127355694770813, 1.2028850317001343, 1.2784144878387451, 1.3539438247680664, 1.4294734001159668, 1.505002737045288, 1.5805320739746094, 1.6560615301132202, 1.7315908670425415, 1.8071202039718628, 1.8826496601104736, 1.958178997039795, 2.033708333969116, 2.1092376708984375, 2.184767007827759, 2.26029634475708, 2.3358259201049805, 2.4113552570343018, 2.486884593963623, 2.5624139308929443, 2.6379432678222656, 2.713472604751587, 2.789001941680908, 2.8645312786102295, 2.940060615539551, 3.015590190887451, 3.0911195278167725, 3.1666488647460938, 3.242178201675415, 3.3177075386047363, 3.3932368755340576, 3.468766212463379, 3.5442957878112793, 3.6198251247406006, 3.695354461669922, 3.770883798599243, 3.8464131355285645]}, "parameters/lin2.bias": {"_type": "histogram", "values": [0.0, 0.0, 0.0, 0.0, 0.0, 0.0, 0.0, 0.0, 0.0, 0.0, 0.0, 0.0, 0.0, 0.0, 0.0, 0.0, 0.0, 0.0, 0.0, 0.0, 0.0, 0.0, 0.0, 0.0, 0.0, 0.0, 0.0, 0.0, 0.0, 0.0, 0.0, 0.0, 1.0, 0.0, 0.0, 0.0, 0.0, 0.0, 0.0, 0.0, 0.0, 0.0, 0.0, 0.0, 0.0, 0.0, 0.0, 0.0, 0.0, 0.0, 0.0, 0.0, 0.0, 0.0, 0.0, 0.0, 0.0, 0.0, 0.0, 0.0, 0.0, 0.0, 0.0, 0.0], "bins": [0.21787142753601074, 0.21787142753601074, 0.21787142753601074, 0.21787142753601074, 0.21787142753601074, 0.21787142753601074, 0.21787142753601074, 0.21787142753601074, 0.21787142753601074, 0.21787142753601074, 0.21787142753601074, 0.21787142753601074, 0.21787142753601074, 0.21787142753601074, 0.21787142753601074, 0.21787142753601074, 0.21787142753601074, 0.21787142753601074, 0.21787142753601074, 0.21787142753601074, 0.21787142753601074, 0.21787142753601074, 0.21787142753601074, 0.21787142753601074, 0.21787142753601074, 0.21787142753601074, 0.21787142753601074, 0.21787142753601074, 0.21787142753601074, 0.21787142753601074, 0.21787142753601074, 0.21787142753601074, 0.21787142753601074, 0.21787142753601074, 0.21787142753601074, 0.21787142753601074, 0.21787142753601074, 0.21787142753601074, 0.21787142753601074, 0.21787142753601074, 0.21787142753601074, 0.21787142753601074, 0.21787142753601074, 0.21787142753601074, 0.21787142753601074, 0.21787142753601074, 0.21787142753601074, 0.21787142753601074, 0.21787142753601074, 0.21787142753601074, 0.21787142753601074, 0.21787142753601074, 0.21787142753601074, 0.21787142753601074, 0.21787142753601074, 0.21787142753601074, 0.21787142753601074, 0.21787142753601074, 0.21787142753601074, 0.21787142753601074, 0.21787142753601074, 0.21787142753601074, 0.21787142753601074, 0.21787142753601074, 0.21787142753601074]}, "gradients/lin2.bias": {"_type": "histogram", "values": [0.0, 0.0, 0.0, 0.0, 0.0, 0.0, 0.0, 0.0, 0.0, 0.0, 0.0, 0.0, 0.0, 0.0, 0.0, 0.0, 0.0, 0.0, 0.0, 0.0, 0.0, 0.0, 0.0, 0.0, 0.0, 0.0, 0.0, 0.0, 0.0, 0.0, 0.0, 1.0, 0.0, 0.0, 0.0, 0.0, 0.0, 0.0, 0.0, 0.0, 0.0, 0.0, 0.0, 0.0, 0.0, 0.0, 0.0, 0.0, 0.0, 0.0, 0.0, 0.0, 0.0, 0.0, 0.0, 0.0, 0.0, 0.0, 0.0, 0.0, 0.0, 0.0, 0.0, 0.0], "bins": [-0.007024688180536032, -0.007024688180536032, -0.007024688180536032, -0.007024688180536032, -0.007024688180536032, -0.007024688180536032, -0.007024688180536032, -0.007024688180536032, -0.007024688180536032, -0.007024688180536032, -0.007024688180536032, -0.007024688180536032, -0.007024688180536032, -0.007024688180536032, -0.007024688180536032, -0.007024688180536032, -0.007024688180536032, -0.007024688180536032, -0.007024688180536032, -0.007024688180536032, -0.007024688180536032, -0.007024688180536032, -0.007024688180536032, -0.007024688180536032, -0.007024688180536032, -0.007024688180536032, -0.007024688180536032, -0.007024688180536032, -0.007024688180536032, -0.007024688180536032, -0.007024688180536032, -0.007024688180536032, -0.007024688180536032, -0.007024688180536032, -0.007024688180536032, -0.007024688180536032, -0.007024688180536032, -0.007024688180536032, -0.007024688180536032, -0.007024688180536032, -0.007024688180536032, -0.007024688180536032, -0.007024688180536032, -0.007024688180536032, -0.007024688180536032, -0.007024688180536032, -0.007024688180536032, -0.007024688180536032, -0.007024688180536032, -0.007024688180536032, -0.007024688180536032, -0.007024688180536032, -0.007024688180536032, -0.007024688180536032, -0.007024688180536032, -0.007024688180536032, -0.007024688180536032, -0.007024688180536032, -0.007024688180536032, -0.007024688180536032, -0.007024688180536032, -0.007024688180536032, -0.007024688180536032, -0.007024688180536032, -0.007024688180536032]}, "gradients/lin2.weight": {"_type": "histogram", "values": [1.0, 1.0, 0.0, 0.0, 0.0, 0.0, 0.0, 0.0, 0.0, 0.0, 0.0, 0.0, 0.0, 0.0, 0.0, 0.0, 0.0, 1.0, 0.0, 0.0, 0.0, 0.0, 0.0, 0.0, 0.0, 0.0, 0.0, 0.0, 2.0, 101.0, 1.0, 1.0, 0.0, 0.0, 0.0, 3.0, 0.0, 0.0, 1.0, 0.0, 0.0, 0.0, 1.0, 0.0, 1.0, 0.0, 0.0, 0.0, 0.0, 0.0, 0.0, 0.0, 0.0, 0.0, 0.0, 0.0, 2.0, 0.0, 0.0, 0.0, 0.0, 0.0, 0.0, 1.0], "bins": [-0.09113060683012009, -0.08800902217626572, -0.08488743007183075, -0.08176584541797638, -0.07864425331354141, -0.07552266865968704, -0.07240108400583267, -0.0692794919013977, -0.06615790724754333, -0.06303632259368896, -0.059914730489254, -0.05679314583539963, -0.05367155745625496, -0.05054996907711029, -0.04742838069796562, -0.04430679231882095, -0.041185203939676285, -0.038063615560531616, -0.03494202718138695, -0.03182044252753258, -0.02869885414838791, -0.02557726576924324, -0.022455677390098572, -0.019334090873599052, -0.016212502494454384, -0.01309091504663229, -0.009969327598810196, -0.006847739219665527, -0.0037261517718434334, -0.0006045640911906958, 0.002517023589462042, 0.005638611502945423, 0.008760198950767517, 0.011881786398589611, 0.015003373846411705, 0.018124962225556374, 0.021246548742055893, 0.02436813712120056, 0.02748972550034523, 0.03061131201684475, 0.03373289853334427, 0.03685448691248894, 0.039976075291633606, 0.043097659945487976, 0.046219248324632645, 0.04934083670377731, 0.05246242508292198, 0.05558401346206665, 0.05870560184121132, 0.06182719022035599, 0.06494877487421036, 0.06807036697864532, 0.0711919516324997, 0.07431354373693466, 0.07743512839078903, 0.0805567130446434, 0.08367830514907837, 0.08679988980293274, 0.0899214819073677, 0.09304306656122208, 0.09616465866565704, 0.09928624331951141, 0.10240782797336578, 0.10552942007780075, 0.10865100473165512]}, "gradients/lin1.bias": {"_type": "histogram", "values": [1.0, 0.0, 0.0, 0.0, 0.0, 0.0, 0.0, 1.0, 1.0, 2.0, 4.0, 99.0, 6.0, 1.0, 0.0, 0.0, 0.0, 0.0, 0.0, 1.0, 0.0, 0.0, 0.0, 0.0, 0.0, 0.0, 0.0, 0.0, 0.0, 0.0, 0.0, 0.0, 0.0, 0.0, 0.0, 0.0, 0.0, 0.0, 0.0, 0.0, 0.0, 0.0, 0.0, 0.0, 0.0, 0.0, 0.0, 0.0, 0.0, 0.0, 0.0, 0.0, 0.0, 0.0, 0.0, 0.0, 0.0, 0.0, 0.0, 0.0, 0.0, 0.0, 0.0, 1.0], "bins": [-0.02123243547976017, -0.019378678873181343, -0.017524920403957367, -0.01567116379737854, -0.013817405328154564, -0.011963648721575737, -0.010109891183674335, -0.008256133645772934, -0.0064023761078715324, -0.004548618569970131, -0.002694861264899373, -0.0008411038434132934, 0.0010126535780727863, 0.002866411115974188, 0.004720168188214302, 0.006573925726115704, 0.008427683264017105, 0.010281440801918507, 0.012135198339819908, 0.01398895587772131, 0.01584271341562271, 0.017696470022201538, 0.019550228491425514, 0.02140398509800434, 0.023257743567228317, 0.025111500173807144, 0.02696525864303112, 0.028819015249609947, 0.030672773718833923, 0.03252653032541275, 0.03438028693199158, 0.0362340472638607, 0.03808780387043953, 0.039941560477018356, 0.04179531708359718, 0.04364907741546631, 0.045502834022045135, 0.04735659062862396, 0.04921034723520279, 0.051064107567071915, 0.05291786417365074, 0.05477162078022957, 0.056625377386808395, 0.05847913771867752, 0.06033289432525635, 0.062186650931835175, 0.064040407538414, 0.06589416414499283, 0.06774792075157166, 0.06960167735815048, 0.07145543396472931, 0.07330919057130814, 0.07516294717788696, 0.07701671123504639, 0.07887046784162521, 0.08072422444820404, 0.08257798105478287, 0.0844317376613617, 0.08628549426794052, 0.08813925087451935, 0.08999300748109818, 0.0918467715382576, 0.09370052814483643, 0.09555428475141525, 0.09740804135799408]}, "gradients/lin1.weight": {"_type": "histogram", "values": [1.0, 0.0, 0.0, 0.0, 0.0, 3.0, 1.0, 3.0, 4.0, 20.0, 779.0, 12811.0, 31.0, 10.0, 4.0, 3.0, 4.0, 3.0, 1.0, 0.0, 1.0, 0.0, 1.0, 2.0, 2.0, 0.0, 0.0, 0.0, 0.0, 0.0, 0.0, 1.0, 1.0, 0.0, 0.0, 0.0, 1.0, 1.0, 0.0, 0.0, 0.0, 0.0, 0.0, 0.0, 0.0, 0.0, 0.0, 0.0, 0.0, 0.0, 0.0, 0.0, 0.0, 0.0, 0.0, 0.0, 0.0, 0.0, 0.0, 0.0, 0.0, 0.0, 0.0, 1.0], "bins": [-0.437105655670166, -0.3973793685436249, -0.35765308141708374, -0.3179267644882202, -0.2782004773616791, -0.23847419023513794, -0.1987478882074356, -0.15902158617973328, -0.11929529905319214, -0.0795690044760704, -0.03984270989894867, -0.00011641532182693481, 0.0396098792552948, 0.07933617383241653, 0.11906246840953827, 0.1587887704372406, 0.19851505756378174, 0.23824134469032288, 0.277967631816864, 0.31769394874572754, 0.3574202358722687, 0.3971465229988098, 0.43687283992767334, 0.4765991270542145, 0.5163254141807556, 0.5560517311096191, 0.5957779884338379, 0.6355043053627014, 0.6752306222915649, 0.7149568796157837, 0.7546831965446472, 0.794409453868866, 0.8341357707977295, 0.873862087726593, 0.9135883450508118, 0.9533146619796753, 0.993040919303894, 1.0327672958374023, 1.072493553161621, 1.1122198104858398, 1.1519460678100586, 1.1916723251342773, 1.2313987016677856, 1.2711249589920044, 1.3108512163162231, 1.3505775928497314, 1.3903038501739502, 1.430030107498169, 1.4697564840316772, 1.509482741355896, 1.5492091178894043, 1.588935375213623, 1.6286616325378418, 1.66838800907135, 1.7081142663955688, 1.7478405237197876, 1.787566900253296, 1.8272931575775146, 1.867019534111023, 1.9067457914352417, 1.9464720487594604, 1.9861984252929688, 2.0259246826171875, 2.0656509399414062, 2.105377197265625]}, "gradients/conv_layers.2.bias": {"_type": "histogram", "values": [1.0, 0.0, 0.0, 0.0, 0.0, 0.0, 0.0, 0.0, 0.0, 0.0, 0.0, 0.0, 0.0, 1.0, 0.0, 0.0, 0.0, 0.0, 2.0, 0.0, 0.0, 2.0, 1.0, 1.0, 0.0, 0.0, 1.0, 0.0, 0.0, 0.0, 0.0, 0.0, 0.0, 0.0, 0.0, 0.0, 0.0, 1.0, 0.0, 0.0, 0.0, 0.0, 0.0, 0.0, 0.0, 0.0, 1.0, 0.0, 0.0, 0.0, 0.0, 0.0, 0.0, 0.0, 0.0, 0.0, 1.0, 0.0, 0.0, 0.0, 0.0, 0.0, 0.0, 1.0], "bins": [-0.9567375183105469, -0.9127666354179382, -0.8687957525253296, -0.824824869632721, -0.7808539867401123, -0.7368831038475037, -0.692912220954895, -0.6489413380622864, -0.6049704551696777, -0.5609995722770691, -0.5170286893844604, -0.4730578064918518, -0.42908692359924316, -0.3851160407066345, -0.3411451578140259, -0.29717427492141724, -0.2532033920288086, -0.20923250913619995, -0.1652616262435913, -0.12129074335098267, -0.07731986045837402, -0.03334897756576538, 0.010621905326843262, 0.054592788219451904, 0.09856367111206055, 0.1425345540046692, 0.18650543689727783, 0.23047631978988647, 0.2744472026824951, 0.31841808557510376, 0.3623889684677124, 0.40635985136032104, 0.4503307342529297, 0.49430161714553833, 0.538272500038147, 0.5822433829307556, 0.6262142658233643, 0.6701851487159729, 0.7141560316085815, 0.7581269145011902, 0.8020977973937988, 0.8460686802864075, 0.8900395631790161, 0.9340104460716248, 0.9779813289642334, 1.0219521522521973, 1.0659230947494507, 1.109894037246704, 1.153864860534668, 1.1978356838226318, 1.2418066263198853, 1.2857775688171387, 1.3297483921051025, 1.3737192153930664, 1.4176901578903198, 1.4616611003875732, 1.505631923675537, 1.549602746963501, 1.5935736894607544, 1.6375446319580078, 1.6815154552459717, 1.7254862785339355, 1.769457221031189, 1.8134281635284424, 1.8573989868164062]}, "gradients/conv_layers.2.lin.weight": {"_type": "histogram", "values": [1.0, 1.0, 1.0, 0.0, 0.0, 0.0, 0.0, 0.0, 0.0, 1.0, 0.0, 0.0, 0.0, 0.0, 0.0, 0.0, 1.0, 0.0, 0.0, 0.0, 0.0, 1.0, 2.0, 1.0, 4.0, 9.0, 8.0, 15.0, 79.0, 9.0, 5.0, 2.0, 2.0, 1.0, 1.0, 1.0, 0.0, 2.0, 2.0, 2.0, 0.0, 1.0, 2.0, 2.0, 1.0, 1.0, 2.0, 1.0, 0.0, 1.0, 0.0, 1.0, 2.0, 1.0, 0.0, 0.0, 0.0, 0.0, 0.0, 0.0, 1.0, 0.0, 1.0, 1.0], "bins": [-0.706491231918335, -0.6812743544578552, -0.6560574173927307, -0.630840539932251, -0.6056236028671265, -0.5804067254066467, -0.5551897883415222, -0.5299729108810425, -0.504755973815918, -0.47953906655311584, -0.4543221592903137, -0.4291052520275116, -0.4038883447647095, -0.37867143750190735, -0.3534545302391052, -0.3282376229763031, -0.30302074551582336, -0.27780383825302124, -0.2525869309902191, -0.227370023727417, -0.20215311646461487, -0.17693622410297394, -0.15171931684017181, -0.1265024095773697, -0.10128550231456757, -0.07606859505176544, -0.050851691514253616, -0.02563478611409664, -0.00041788071393966675, 0.024799024686217308, 0.05001593008637428, 0.07523283362388611, 0.10044974088668823, 0.12566664814949036, 0.15088355541229248, 0.1761004626750946, 0.20131736993789673, 0.22653426229953766, 0.251751184463501, 0.2769680917263031, 0.3021849989891052, 0.32740190625190735, 0.3526188135147095, 0.3778357207775116, 0.4030526280403137, 0.42826953530311584, 0.45348644256591797, 0.4787033498287201, 0.5039201974868774, 0.5291370749473572, 0.5543540120124817, 0.5795708894729614, 0.6047878265380859, 0.6300047039985657, 0.6552216410636902, 0.6804385185241699, 0.7056554555892944, 0.7308723330497742, 0.7560892701148987, 0.7813061475753784, 0.8065230846405029, 0.8317399621009827, 0.8569568991661072, 0.8821737766265869, 0.9073907136917114]}, "gradients/conv_layers.1.bias": {"_type": "histogram", "values": [1.0, 0.0, 0.0, 0.0, 0.0, 0.0, 0.0, 0.0, 0.0, 0.0, 0.0, 0.0, 0.0, 1.0, 0.0, 1.0, 0.0, 0.0, 0.0, 0.0, 1.0, 0.0, 0.0, 0.0, 0.0, 1.0, 1.0, 3.0, 0.0, 0.0, 1.0, 0.0, 0.0, 0.0, 0.0, 0.0, 0.0, 0.0, 0.0, 0.0, 0.0, 0.0, 0.0, 0.0, 1.0, 0.0, 0.0, 0.0, 0.0, 1.0, 0.0, 0.0, 0.0, 0.0, 0.0, 0.0, 0.0, 0.0, 0.0, 0.0, 0.0, 0.0, 0.0, 1.0], "bins": [-0.7451151609420776, -0.7181394100189209, -0.6911636590957642, -0.6641879081726074, -0.6372121572494507, -0.610236406326294, -0.5832606554031372, -0.5562849044799805, -0.5293091535568237, -0.502333402633667, -0.47535765171051025, -0.4483819007873535, -0.4214061498641968, -0.3944304287433624, -0.3674546778202057, -0.34047892689704895, -0.3135032057762146, -0.28652745485305786, -0.2595517039299011, -0.23257596790790558, -0.20560021698474884, -0.1786244660615921, -0.15164873003959656, -0.12467297911643982, -0.09769722819328308, -0.07072147727012634, -0.0437457337975502, -0.01676998659968376, 0.010205760598182678, 0.03718150779604912, 0.06415725499391556, 0.0911329984664917, 0.11810868978500366, 0.1450844407081604, 0.17206019163131714, 0.19903592765331268, 0.22601167857646942, 0.25298741459846497, 0.2799631655216217, 0.30693891644477844, 0.3339146673679352, 0.3608904182910919, 0.38786616921424866, 0.4148419201374054, 0.44181764125823975, 0.4687933921813965, 0.4957691431045532, 0.52274489402771, 0.5497206449508667, 0.5766963958740234, 0.6036721467971802, 0.6306478977203369, 0.6576236486434937, 0.6845993995666504, 0.7115751504898071, 0.7385509014129639, 0.7655266523361206, 0.7925024032592773, 0.8194781541824341, 0.8464539051055908, 0.8734296560287476, 0.9004054069519043, 0.927381157875061, 0.9543569087982178, 0.9813326001167297]}, "gradients/conv_layers.1.lin.weight": {"_type": "histogram", "values": [1.0, 0.0, 0.0, 0.0, 0.0, 0.0, 0.0, 0.0, 1.0, 1.0, 0.0, 0.0, 0.0, 1.0, 1.0, 2.0, 1.0, 1.0, 2.0, 3.0, 5.0, 6.0, 100.0, 24.0, 5.0, 5.0, 0.0, 2.0, 0.0, 1.0, 0.0, 0.0, 0.0, 1.0, 2.0, 0.0, 0.0, 0.0, 0.0, 0.0, 0.0, 1.0, 1.0, 0.0, 0.0, 1.0, 0.0, 0.0, 0.0, 0.0, 0.0, 0.0, 0.0, 0.0, 0.0, 0.0, 0.0, 0.0, 0.0, 0.0, 0.0, 0.0, 0.0, 1.0], "bins": [-0.6351027488708496, -0.6074051856994629, -0.5797076225280762, -0.5520100593566895, -0.5243124961853027, -0.496614933013916, -0.4689173698425293, -0.4412198066711426, -0.41352224349975586, -0.38582468032836914, -0.3581271171569824, -0.3304295539855957, -0.302731990814209, -0.27503442764282227, -0.24733684957027435, -0.21963928639888763, -0.19194170832633972, -0.164244145154953, -0.13654658198356628, -0.10884901136159897, -0.08115144819021225, -0.05345388501882553, -0.025756318122148514, 0.0019412469118833542, 0.029638811945915222, 0.05733637511730194, 0.08503393828868866, 0.11273150891065598, 0.1404290795326233, 0.16812664270401, 0.19582420587539673, 0.22352176904678345, 0.25121933221817017, 0.2789168953895569, 0.3066144585609436, 0.3343120217323303, 0.36200958490371704, 0.38970714807510376, 0.4174047112464905, 0.4451022744178772, 0.4727998375892639, 0.5004974007606506, 0.5281949639320374, 0.5558925271034241, 0.5835900902748108, 0.6112876534461975, 0.6389852166175842, 0.666682779788971, 0.6943804025650024, 0.7220779657363892, 0.7497755289077759, 0.7774730920791626, 0.8051706552505493, 0.832868218421936, 0.8605657815933228, 0.8882633447647095, 0.9159609079360962, 0.9436584711074829, 0.9713560342788696, 0.9990535974502563, 1.026751160621643, 1.0544487237930298, 1.0821462869644165, 1.1098438501358032, 1.13754141330719]}, "gradients/conv_layers.0.bias": {"_type": "histogram", "values": [1.0, 0.0, 0.0, 0.0, 0.0, 0.0, 0.0, 0.0, 1.0, 0.0, 0.0, 0.0, 0.0, 0.0, 0.0, 0.0, 0.0, 0.0, 0.0, 0.0, 0.0, 0.0, 1.0, 0.0, 0.0, 0.0, 0.0, 0.0, 2.0, 4.0, 1.0, 0.0, 0.0, 0.0, 0.0, 0.0, 0.0, 0.0, 0.0, 0.0, 0.0, 0.0, 0.0, 0.0, 0.0, 0.0, 1.0, 0.0, 0.0, 0.0, 0.0, 0.0, 0.0, 0.0, 0.0, 0.0, 0.0, 0.0, 0.0, 0.0, 1.0, 0.0, 0.0, 1.0], "bins": [-0.5901513695716858, -0.5703932642936707, -0.5506351590156555, -0.5308770537376404, -0.5111189484596252, -0.4913608431816101, -0.47160273790359497, -0.45184463262557983, -0.4320865273475647, -0.41232842206954956, -0.3925703167915344, -0.3728122115135193, -0.35305410623550415, -0.333296000957489, -0.3135378956794739, -0.29377979040145874, -0.2740216851234436, -0.25426357984542847, -0.23450547456741333, -0.2147473692893982, -0.19498926401138306, -0.17523115873336792, -0.15547305345535278, -0.13571494817733765, -0.11595684289932251, -0.09619873762130737, -0.07644063234329224, -0.0566825270652771, -0.03692442178726196, -0.017166316509246826, 0.0025917887687683105, 0.022349894046783447, 0.04210805892944336, 0.061866164207458496, 0.08162426948547363, 0.10138237476348877, 0.1211404800415039, 0.14089858531951904, 0.16065669059753418, 0.18041479587554932, 0.20017290115356445, 0.2199310064315796, 0.23968911170959473, 0.25944721698760986, 0.279205322265625, 0.29896342754364014, 0.3187215328216553, 0.3384796380996704, 0.35823774337768555, 0.3779958486557007, 0.3977539539337158, 0.41751205921173096, 0.4372701644897461, 0.45702826976776123, 0.47678637504577637, 0.4965444803237915, 0.5163025856018066, 0.5360606908798218, 0.5558187961578369, 0.575576901435852, 0.5953350067138672, 0.6150931119918823, 0.6348512172698975, 0.6546093225479126, 0.6743674278259277]}, "gradients/conv_layers.0.lin.weight": {"_type": "histogram", "values": [1.0, 0.0, 0.0, 0.0, 0.0, 1.0, 0.0, 0.0, 0.0, 0.0, 0.0, 0.0, 0.0, 0.0, 0.0, 0.0, 0.0, 1.0, 1.0, 0.0, 1.0, 0.0, 1.0, 0.0, 0.0, 1.0, 2.0, 1.0, 10.0, 21.0, 2.0, 1.0, 2.0, 0.0, 1.0, 0.0, 0.0, 0.0, 0.0, 1.0, 0.0, 0.0, 0.0, 1.0, 1.0, 0.0, 0.0, 0.0, 0.0, 0.0, 0.0, 0.0, 0.0, 0.0, 0.0, 0.0, 1.0, 0.0, 0.0, 0.0, 0.0, 0.0, 0.0, 1.0], "bins": [-5.380184650421143, -5.194830894470215, -5.009477615356445, -4.824123859405518, -4.638770580291748, -4.45341682434082, -4.268063545227051, -4.082709789276123, -3.8973562717437744, -3.712002754211426, -3.526649236679077, -3.3412957191467285, -3.155941963195801, -2.970588445663452, -2.7852349281311035, -2.599881410598755, -2.4145278930664062, -2.2291743755340576, -2.043820858001709, -1.8584672212600708, -1.6731137037277222, -1.4877601861953735, -1.3024065494537354, -1.1170530319213867, -0.9316995143890381, -0.7463459968566895, -0.560992419719696, -0.375638872385025, -0.190285325050354, -0.004931777715682983, 0.18042176961898804, 0.36577531695365906, 0.5511288642883301, 0.7364823818206787, 0.9218359589576721, 1.1071895360946655, 1.2925430536270142, 1.4778965711593628, 1.663250207901001, 1.8486037254333496, 2.0339572429656982, 2.219310760498047, 2.4046642780303955, 2.590017795562744, 2.775371551513672, 2.9607250690460205, 3.146078586578369, 3.3314321041107178, 3.5167856216430664, 3.702139139175415, 3.8874926567077637, 4.072846412658691, 4.258199691772461, 4.443553447723389, 4.628906726837158, 4.814260482788086, 4.9996137619018555, 5.184967517852783, 5.370320796966553, 5.5556745529174805, 5.74102783203125, 5.926381587982178, 6.111734867095947, 6.297088623046875, 6.482442378997803]}, "_wandb": {"runtime": 5937}}