{"epoch": 710, "train_acc": 100.0, "test_acc": 94.33333333333334, "loss": 0.0036687857937067747, "_timestamp": 1680559364.2072508, "_runtime": 523.2693688869476, "_step": 71, "parameters/lin1.weight": {"_type": "histogram", "values": [2.0, 1.0, 1.0, 2.0, 0.0, 0.0, 2.0, 0.0, 2.0, 1.0, 1.0, 2.0, 1.0, 2.0, 4.0, 14.0, 7.0, 17.0, 10.0, 32.0, 42.0, 44.0, 53.0, 64.0, 68.0, 97.0, 99.0, 133.0, 127.0, 174.0, 235.0, 327.0, 485.0, 926.0, 1866.0, 3772.0, 13651.0, 15347.0, 12011.0, 3400.0, 1675.0, 844.0, 527.0, 373.0, 259.0, 156.0, 138.0, 113.0, 90.0, 74.0, 69.0, 44.0, 45.0, 35.0, 26.0, 25.0, 27.0, 14.0, 17.0, 9.0, 8.0, 6.0, 3.0, 1.0], "bins": [-1.856021761894226, -1.8065460920333862, -1.7570704221725464, -1.7075947523117065, -1.6581192016601562, -1.6086435317993164, -1.5591678619384766, -1.5096921920776367, -1.4602165222167969, -1.410740852355957, -1.3612651824951172, -1.3117895126342773, -1.2623138427734375, -1.2128382921218872, -1.1633626222610474, -1.1138869524002075, -1.0644112825393677, -1.0149356126785278, -0.965459942817688, -0.9159843325614929, -0.8665086627006531, -0.8170329928398132, -0.7675573825836182, -0.7180817127227783, -0.6686060428619385, -0.6191303730010986, -0.5696547031402588, -0.5201790928840637, -0.4707034230232239, -0.42122775316238403, -0.3717521131038666, -0.3222764730453491, -0.2728006839752197, -0.22332502901554108, -0.17384937405586243, -0.12437371909618378, -0.07489806413650513, -0.025422409176826477, 0.024053245782852173, 0.07352890074253082, 0.12300455570220947, 0.17248021066188812, 0.22195586562156677, 0.27143150568008423, 0.3209071755409241, 0.3703828454017639, 0.41985848546028137, 0.46933412551879883, 0.5188097953796387, 0.5682854652404785, 0.6177611351013184, 0.6672367453575134, 0.7167124152183533, 0.7661880850791931, 0.8156636953353882, 0.865139365196228, 0.9146150350570679, 0.9640907049179077, 1.0135663747787476, 1.0630420446395874, 1.1125175952911377, 1.1619932651519775, 1.2114689350128174, 1.2609446048736572, 1.310420274734497]}, "parameters/lin1.bias": {"_type": "histogram", "values": [2.0, 1.0, 5.0, 1.0, 0.0, 1.0, 0.0, 1.0, 2.0, 3.0, 2.0, 5.0, 4.0, 5.0, 3.0, 2.0, 7.0, 3.0, 5.0, 10.0, 10.0, 9.0, 6.0, 6.0, 5.0, 9.0, 7.0, 5.0, 7.0, 4.0, 6.0, 7.0, 7.0, 6.0, 4.0, 5.0, 4.0, 5.0, 4.0, 4.0, 7.0, 2.0, 6.0, 4.0, 1.0, 4.0, 2.0, 5.0, 4.0, 6.0, 6.0, 2.0, 2.0, 1.0, 0.0, 1.0, 2.0, 0.0, 0.0, 1.0, 0.0, 0.0, 1.0, 1.0], "bins": [-0.1632358878850937, -0.15773054957389832, -0.15222519636154175, -0.14671985805034637, -0.141214519739151, -0.13570916652679443, -0.13020382821559906, -0.12469848990440369, -0.11919314414262772, -0.11368779838085175, -0.10818246006965637, -0.1026771143078804, -0.09717176854610443, -0.09166643023490906, -0.08616108447313309, -0.08065574616193771, -0.07515040040016174, -0.06964505463838577, -0.0641397163271904, -0.05863437056541443, -0.05312902852892876, -0.047623686492443085, -0.042118340730667114, -0.03661299869418144, -0.03110765665769577, -0.0256023146212101, -0.020096970722079277, -0.01459162775427103, -0.009086284786462784, -0.003580941818654537, 0.0019244011491537094, 0.007429744116961956, 0.012935072183609009, 0.01844041422009468, 0.023945758119225502, 0.029451102018356323, 0.034956444054841995, 0.04046178609132767, 0.04596713185310364, 0.05147247388958931, 0.05697781592607498, 0.062483157962560654, 0.06798849999904633, 0.0734938457608223, 0.07899919152259827, 0.08450452983379364, 0.09000987559556961, 0.09551521390676498, 0.10102055966854095, 0.10652590543031693, 0.1120312437415123, 0.11753658950328827, 0.12304192781448364, 0.1285472810268402, 0.13405261933803558, 0.13955795764923096, 0.14506331086158752, 0.1505686491727829, 0.15607400238513947, 0.16157934069633484, 0.1670846790075302, 0.17259003221988678, 0.17809537053108215, 0.18360070884227753, 0.1891060471534729]}, "parameters/lin2.weight": {"_type": "histogram", "values": [1.0, 0.0, 0.0, 0.0, 0.0, 0.0, 0.0, 0.0, 0.0, 0.0, 0.0, 1.0, 0.0, 0.0, 0.0, 1.0, 2.0, 0.0, 1.0, 0.0, 2.0, 1.0, 2.0, 1.0, 1.0, 6.0, 3.0, 2.0, 5.0, 7.0, 3.0, 8.0, 6.0, 22.0, 28.0, 25.0, 23.0, 23.0, 10.0, 5.0, 7.0, 2.0, 6.0, 6.0, 4.0, 0.0, 6.0, 5.0, 2.0, 4.0, 3.0, 0.0, 1.0, 2.0, 0.0, 2.0, 0.0, 0.0, 0.0, 0.0, 0.0, 0.0, 0.0, 1.0], "bins": [-0.8352642059326172, -0.8120049834251404, -0.7887457013130188, -0.765486478805542, -0.7422271966934204, -0.7189679741859436, -0.6957087516784668, -0.6724494695663452, -0.6491902470588684, -0.6259310245513916, -0.60267174243927, -0.5794125199317932, -0.5561532974243164, -0.5328940153121948, -0.509634792804718, -0.4863755404949188, -0.46311628818511963, -0.43985703587532043, -0.41659778356552124, -0.39333856105804443, -0.37007930874824524, -0.34682005643844604, -0.32356083393096924, -0.30030158162117004, -0.27704232931137085, -0.25378307700157166, -0.23052383959293365, -0.20726460218429565, -0.18400534987449646, -0.16074609756469727, -0.13748686015605927, -0.11422761529684067, -0.0909683108329773, -0.0677090659737587, -0.0444498211145401, -0.021190576255321503, 0.0020686686038970947, 0.025327913463115692, 0.04858715832233429, 0.07184640318155289, 0.09510564804077148, 0.11836489289999008, 0.14162413775920868, 0.16488337516784668, 0.18814262747764587, 0.21140187978744507, 0.23466111719608307, 0.25792035460472107, 0.28117960691452026, 0.30443885922431946, 0.32769811153411865, 0.35095733404159546, 0.37421658635139465, 0.39747583866119385, 0.42073506116867065, 0.44399431347846985, 0.46725356578826904, 0.49051281809806824, 0.5137720704078674, 0.5370312929153442, 0.5602905750274658, 0.5835497975349426, 0.6068090200424194, 0.630068302154541, 0.6533275246620178]}, "parameters/lin2.bias": {"_type": "histogram", "values": [0.0, 0.0, 0.0, 0.0, 0.0, 0.0, 0.0, 0.0, 0.0, 0.0, 0.0, 0.0, 0.0, 0.0, 0.0, 0.0, 0.0, 0.0, 0.0, 0.0, 0.0, 0.0, 0.0, 0.0, 0.0, 0.0, 0.0, 0.0, 0.0, 0.0, 0.0, 1.0, 0.0, 0.0, 0.0, 0.0, 0.0, 0.0, 0.0, 0.0, 0.0, 0.0, 0.0, 0.0, 0.0, 0.0, 0.0, 0.0, 0.0, 0.0, 0.0, 0.0, 0.0, 0.0, 0.0, 0.0, 0.0, 0.0, 0.0, 0.0, 0.0, 0.0, 0.0, 0.0], "bins": [-0.08668248355388641, -0.08668248355388641, -0.08668248355388641, -0.08668248355388641, -0.08668248355388641, -0.08668248355388641, -0.08668248355388641, -0.08668248355388641, -0.08668248355388641, -0.08668248355388641, -0.08668248355388641, -0.08668248355388641, -0.08668248355388641, -0.08668248355388641, -0.08668248355388641, -0.08668248355388641, -0.08668248355388641, -0.08668248355388641, -0.08668248355388641, -0.08668248355388641, -0.08668248355388641, -0.08668248355388641, -0.08668248355388641, -0.08668248355388641, -0.08668248355388641, -0.08668248355388641, -0.08668248355388641, -0.08668248355388641, -0.08668248355388641, -0.08668248355388641, -0.08668248355388641, -0.08668248355388641, -0.08668248355388641, -0.08668248355388641, -0.08668248355388641, -0.08668248355388641, -0.08668248355388641, -0.08668248355388641, -0.08668248355388641, -0.08668248355388641, -0.08668248355388641, -0.08668248355388641, -0.08668248355388641, -0.08668248355388641, -0.08668248355388641, -0.08668248355388641, -0.08668248355388641, -0.08668248355388641, -0.08668248355388641, -0.08668248355388641, -0.08668248355388641, -0.08668248355388641, -0.08668248355388641, -0.08668248355388641, -0.08668248355388641, -0.08668248355388641, -0.08668248355388641, -0.08668248355388641, -0.08668248355388641, -0.08668248355388641, -0.08668248355388641, -0.08668248355388641, -0.08668248355388641, -0.08668248355388641, -0.08668248355388641]}, "gradients/lin2.bias": {"_type": "histogram", "values": [0.0, 0.0, 0.0, 0.0, 0.0, 0.0, 0.0, 0.0, 0.0, 0.0, 0.0, 0.0, 0.0, 0.0, 0.0, 0.0, 0.0, 0.0, 0.0, 0.0, 0.0, 0.0, 0.0, 0.0, 0.0, 0.0, 0.0, 0.0, 0.0, 0.0, 0.0, 0.0, 1.0, 0.0, 0.0, 0.0, 0.0, 0.0, 0.0, 0.0, 0.0, 0.0, 0.0, 0.0, 0.0, 0.0, 0.0, 0.0, 0.0, 0.0, 0.0, 0.0, 0.0, 0.0, 0.0, 0.0, 0.0, 0.0, 0.0, 0.0, 0.0, 0.0, 0.0, 0.0], "bins": [-0.0019386752974241972, -0.0019386752974241972, -0.0019386752974241972, -0.0019386752974241972, -0.0019386752974241972, -0.0019386752974241972, -0.0019386752974241972, -0.0019386752974241972, -0.0019386752974241972, -0.0019386752974241972, -0.0019386752974241972, -0.0019386752974241972, -0.0019386752974241972, -0.0019386752974241972, -0.0019386752974241972, -0.0019386752974241972, -0.0019386752974241972, -0.0019386752974241972, -0.0019386752974241972, -0.0019386752974241972, -0.0019386752974241972, -0.0019386752974241972, -0.0019386752974241972, -0.0019386752974241972, -0.0019386752974241972, -0.0019386752974241972, -0.0019386752974241972, -0.0019386752974241972, -0.0019386752974241972, -0.0019386752974241972, -0.0019386752974241972, -0.0019386752974241972, -0.0019386752974241972, -0.0019386752974241972, -0.0019386752974241972, -0.0019386752974241972, -0.0019386752974241972, -0.0019386752974241972, -0.0019386752974241972, -0.0019386752974241972, -0.0019386752974241972, -0.0019386752974241972, -0.0019386752974241972, -0.0019386752974241972, -0.0019386752974241972, -0.0019386752974241972, -0.0019386752974241972, -0.0019386752974241972, -0.0019386752974241972, -0.0019386752974241972, -0.0019386752974241972, -0.0019386752974241972, -0.0019386752974241972, -0.0019386752974241972, -0.0019386752974241972, -0.0019386752974241972, -0.0019386752974241972, -0.0019386752974241972, -0.0019386752974241972, -0.0019386752974241972, -0.0019386752974241972, -0.0019386752974241972, -0.0019386752974241972, -0.0019386752974241972, -0.0019386752974241972]}, "gradients/lin2.weight": {"_type": "histogram", "values": [1.0, 1.0, 0.0, 0.0, 0.0, 0.0, 1.0, 0.0, 0.0, 0.0, 0.0, 0.0, 0.0, 0.0, 1.0, 2.0, 0.0, 0.0, 1.0, 0.0, 1.0, 1.0, 0.0, 2.0, 0.0, 1.0, 0.0, 0.0, 0.0, 1.0, 2.0, 2.0, 1.0, 5.0, 1.0, 2.0, 3.0, 1.0, 6.0, 3.0, 0.0, 1.0, 4.0, 1.0, 4.0, 2.0, 3.0, 5.0, 4.0, 5.0, 3.0, 2.0, 5.0, 1.0, 5.0, 0.0, 0.0, 5.0, 2.0, 6.0, 15.0, 10.0, 117.0, 1.0], "bins": [-0.010306579992175102, -0.010142406448721886, -0.009978233836591244, -0.009814060293138027, -0.00964988674968481, -0.009485713206231594, -0.009321540594100952, -0.009157367050647736, -0.008993193507194519, -0.008829019963741302, -0.00866484735161066, -0.008500673808157444, -0.008336500264704227, -0.008172326721251011, -0.008008154109120369, -0.007843980565667152, -0.007679807022213936, -0.007515633944422007, -0.00735146040096879, -0.007187287323176861, -0.007023113779723644, -0.006858940701931715, -0.0066947671584784985, -0.006530594080686569, -0.00636642100289464, -0.006202247925102711, -0.006038074381649494, -0.005873901303857565, -0.005709727760404348, -0.005545554682612419, -0.005381381139159203, -0.005217208061367273, -0.005053034517914057, -0.0048888614401221275, -0.004724687896668911, -0.004560514818876982, -0.004396341275423765, -0.004232168197631836, -0.004067994654178619, -0.0039038213435560465, -0.0037396482657641172, -0.0035754749551415443, -0.0034113016445189714, -0.0032471283338963985, -0.0030829550232738256, -0.0029187817126512527, -0.00275460840202868, -0.002590435091406107, -0.0024262620136141777, -0.002262088702991605, -0.002097915392369032, -0.001933742081746459, -0.001769568771123886, -0.001605395576916635, -0.0014412222662940621, -0.0012770489556714892, -0.0011128755286335945, -0.0009487022180110216, -0.0007845289073884487, -0.0006203556549735367, -0.00045618234435096383, -0.00029200903372839093, -0.0001278357522096485, 3.633754386100918e-05, 0.00020051078172400594]}, "gradients/lin1.bias": {"_type": "histogram", "values": [1.0, 0.0, 0.0, 0.0, 0.0, 0.0, 0.0, 1.0, 0.0, 1.0, 0.0, 0.0, 0.0, 0.0, 2.0, 0.0, 2.0, 1.0, 3.0, 3.0, 1.0, 0.0, 0.0, 1.0, 4.0, 1.0, 3.0, 2.0, 0.0, 1.0, 5.0, 2.0, 2.0, 4.0, 3.0, 3.0, 4.0, 4.0, 13.0, 120.0, 5.0, 6.0, 6.0, 6.0, 2.0, 1.0, 4.0, 2.0, 2.0, 0.0, 3.0, 5.0, 2.0, 1.0, 2.0, 1.0, 0.0, 2.0, 1.0, 0.0, 1.0, 0.0, 0.0, 1.0], "bins": [-0.0009779497049748898, -0.0009530077804811299, -0.00092806585598737, -0.0009031239897012711, -0.0008781820652075112, -0.0008532401407137513, -0.0008282982744276524, -0.0008033563499338925, -0.0007784144254401326, -0.0007534725009463727, -0.0007285305764526129, -0.0007035887101665139, -0.000678646785672754, -0.0006537048611789942, -0.0006287629948928952, -0.0006038210703991354, -0.0005788791459053755, -0.0005539372214116156, -0.0005289952969178557, -0.0005040534306317568, -0.0004791115061379969, -0.00045416958164423704, -0.00042922768625430763, -0.0004042857908643782, -0.00037934386637061834, -0.00035440194187685847, -0.00032946004648692906, -0.00030451815109699965, -0.0002795762266032398, -0.0002546343021094799, -0.0002296924067195505, -0.00020475049677770585, -0.0001798085286282003, -0.00015486661868635565, -0.000129924708744511, -0.00010498279880266637, -8.004088886082172e-05, -5.509897891897708e-05, -3.015706897713244e-05, -5.2151590352877975e-06, 1.9726750906556845e-05, 4.466866084840149e-05, 6.961057079024613e-05, 9.455248073209077e-05, 0.00011949439067393541, 0.00014443630061578006, 0.0001693782105576247, 0.00019432012049946934, 0.00021926203044131398, 0.00024420395493507385, 0.00026914585032500327, 0.0002940877457149327, 0.00031902967020869255, 0.0003439715947024524, 0.00036891349009238183, 0.00039385538548231125, 0.0004187973099760711, 0.000443739234469831, 0.0004686811298597604, 0.0004936230252496898, 0.0005185649497434497, 0.0005435068742372096, 0.0005684487987309694, 0.0005933906650170684, 0.0006183325895108283]}, "gradients/lin1.weight": {"_type": "histogram", "values": [1.0, 0.0, 0.0, 0.0, 0.0, 2.0, 0.0, 1.0, 2.0, 1.0, 2.0, 3.0, 4.0, 2.0, 5.0, 3.0, 8.0, 6.0, 9.0, 12.0, 14.0, 19.0, 23.0, 31.0, 34.0, 23.0, 44.0, 46.0, 54.0, 63.0, 81.0, 92.0, 114.0, 116.0, 188.0, 217.0, 353.0, 714.0, 51571.0, 2195.0, 468.0, 274.0, 173.0, 136.0, 103.0, 81.0, 68.0, 57.0, 49.0, 36.0, 25.0, 20.0, 16.0, 13.0, 7.0, 5.0, 6.0, 4.0, 2.0, 1.0, 2.0, 0.0, 0.0, 1.0], "bins": [-0.029936084523797035, -0.029164712876081467, -0.02839333936572075, -0.02762196771800518, -0.026850596070289612, -0.026079222559928894, -0.025307850912213326, -0.024536479264497757, -0.02376510575413704, -0.02299373410642147, -0.022222360596060753, -0.021450988948345184, -0.020679617300629616, -0.019908243790268898, -0.01913687214255333, -0.01836550049483776, -0.017594128847122192, -0.016822757199406624, -0.016051383689045906, -0.015280012041330338, -0.014508640393614769, -0.013737267814576626, -0.012965895235538483, -0.012194523587822914, -0.011423151008784771, -0.010651778429746628, -0.00988040678203106, -0.009109034202992916, -0.008337661623954773, -0.007566289976239204, -0.006794917397201061, -0.006023545283824205, -0.005252175033092499, -0.004480802919715643, -0.0037094305735081434, -0.002938058227300644, -0.002166686113923788, -0.0013953138841316104, -0.0006239416543394327, 0.00014743057545274496, 0.0009188028052449226, 0.0016901750350371003, 0.002461547264829278, 0.0032329196110367775, 0.004004291724413633, 0.004775663837790489, 0.005547036416828632, 0.006318408530205488, 0.007089780643582344, 0.007861153222620487, 0.008632524870336056, 0.009403897449374199, 0.010175269097089767, 0.01094664167612791, 0.011718014255166054, 0.012489385902881622, 0.013260758481919765, 0.014032131060957909, 0.014803502708673477, 0.01557487528771162, 0.016346247866749763, 0.017117619514465332, 0.0178889911621809, 0.01866036467254162, 0.019431736320257187]}, "_wandb": {"runtime": 530}}