{"epoch": 490, "train_acc": 99.65528428907454, "test_acc": 98.49545798637396, "loss": 0.002533381339162588, "_timestamp": 1681496057.4656892, "_runtime": 5591.123944282532, "_step": 50, "parameters/conv_layers.0.nn.0.weight": {"_type": "histogram", "values": [1.0, 0.0, 0.0, 0.0, 0.0, 0.0, 0.0, 0.0, 1.0, 0.0, 0.0, 0.0, 0.0, 0.0, 0.0, 1.0, 1.0, 0.0, 0.0, 0.0, 1.0, 3.0, 1.0, 1.0, 0.0, 1.0, 2.0, 1.0, 3.0, 0.0, 0.0, 1.0, 4.0, 8.0, 6.0, 4.0, 3.0, 2.0, 2.0, 1.0, 1.0, 0.0, 0.0, 0.0, 1.0, 0.0, 0.0, 0.0, 0.0, 0.0, 0.0, 0.0, 0.0, 0.0, 0.0, 0.0, 1.0, 0.0, 0.0, 0.0, 0.0, 0.0, 0.0, 1.0], "bins": [-4.511348247528076, -4.376725196838379, -4.242102146148682, -4.107479095458984, -3.972856044769287, -3.8382327556610107, -3.7036097049713135, -3.568986654281616, -3.434363603591919, -3.2997405529022217, -3.1651175022125244, -3.030494451522827, -2.895871162414551, -2.7612481117248535, -2.6266250610351562, -2.492002010345459, -2.3573789596557617, -2.2227559089660645, -2.088132858276367, -1.9535096883773804, -1.818886637687683, -1.6842635869979858, -1.549640417098999, -1.4150173664093018, -1.2803943157196045, -1.1457712650299072, -1.01114821434021, -0.8765250444412231, -0.7419019937515259, -0.6072789430618286, -0.4726558327674866, -0.3380327522754669, -0.20340919494628906, -0.06878611445426941, 0.06583696603775024, 0.2004600465297699, 0.33508312702178955, 0.4697062075138092, 0.6043292880058289, 0.7389523983001709, 0.8735754489898682, 1.0081984996795654, 1.1428215503692627, 1.2774447202682495, 1.4120677709579468, 1.546690821647644, 1.6813139915466309, 1.8159370422363281, 1.9505600929260254, 2.0851831436157227, 2.21980619430542, 2.354429244995117, 2.4890522956848145, 2.623675584793091, 2.758298635482788, 2.8929216861724854, 3.0275447368621826, 3.16216778755188, 3.296790838241577, 3.4314138889312744, 3.566037178039551, 3.700660228729248, 3.8352832794189453, 3.9699063301086426, 4.10452938079834]}, "parameters/conv_layers.0.nn.0.bias": {"_type": "histogram", "values": [2.0, 0.0, 0.0, 0.0, 1.0, 0.0, 0.0, 0.0, 0.0, 0.0, 0.0, 1.0, 0.0, 1.0, 0.0, 0.0, 0.0, 1.0, 0.0, 1.0, 0.0, 0.0, 0.0, 0.0, 0.0, 0.0, 1.0, 0.0, 0.0, 0.0, 0.0, 0.0, 0.0, 0.0, 0.0, 0.0, 0.0, 0.0, 1.0, 1.0, 0.0, 0.0, 0.0, 0.0, 0.0, 0.0, 0.0, 1.0, 0.0, 0.0, 0.0, 0.0, 0.0, 0.0, 0.0, 0.0, 0.0, 0.0, 1.0, 0.0, 0.0, 0.0, 0.0, 1.0], "bins": [-0.4344883859157562, -0.42120593786239624, -0.40792348980903625, -0.3946410119533539, -0.3813585638999939, -0.3680761158466339, -0.3547936677932739, -0.34151121973991394, -0.32822877168655396, -0.31494632363319397, -0.301663875579834, -0.2883813977241516, -0.2750989496707916, -0.26181650161743164, -0.24853405356407166, -0.23525159060955048, -0.2219691276550293, -0.2086866796016693, -0.19540421664714813, -0.18212176859378815, -0.16883930563926697, -0.15555685758590698, -0.142274409532547, -0.12899194657802582, -0.11570949852466583, -0.10242704302072525, -0.08914458751678467, -0.07586213946342468, -0.0625796839594841, -0.04929722845554352, -0.036014776676893234, -0.0227323230355978, -0.00944983959197998, 0.0038326140493154526, 0.017115067690610886, 0.03039752133190632, 0.04367997497320175, 0.056962430477142334, 0.07024487853050232, 0.0835273340344429, 0.09680978953838348, 0.11009224504232407, 0.12337470054626465, 0.13665714859962463, 0.14993959665298462, 0.1632220596075058, 0.17650450766086578, 0.18978697061538696, 0.20306941866874695, 0.21635186672210693, 0.2296343296766281, 0.2429167777299881, 0.2561992406845093, 0.26948168873786926, 0.28276413679122925, 0.29604658484458923, 0.3093290328979492, 0.3226114809513092, 0.3358939290046692, 0.34917640686035156, 0.36245885491371155, 0.37574130296707153, 0.3890237510204315, 0.4023061990737915, 0.4155886769294739]}, "parameters/conv_layers.0.nn.1.weight": {"_type": "histogram", "values": [1.0, 0.0, 0.0, 0.0, 1.0, 0.0, 0.0, 0.0, 0.0, 0.0, 0.0, 1.0, 0.0, 1.0, 0.0, 0.0, 0.0, 0.0, 0.0, 0.0, 1.0, 1.0, 0.0, 0.0, 0.0, 0.0, 1.0, 0.0, 1.0, 1.0, 0.0, 0.0, 0.0, 0.0, 0.0, 0.0, 0.0, 0.0, 0.0, 0.0, 0.0, 0.0, 0.0, 0.0, 0.0, 0.0, 0.0, 0.0, 0.0, 0.0, 0.0, 0.0, 0.0, 0.0, 0.0, 0.0, 0.0, 0.0, 0.0, 1.0, 1.0, 0.0, 0.0, 2.0], "bins": [0.3196186423301697, 0.332167387008667, 0.3447161316871643, 0.35726484656333923, 0.36981359124183655, 0.38236233592033386, 0.3949110805988312, 0.4074597954750061, 0.4200085401535034, 0.43255728483200073, 0.44510602951049805, 0.457654744386673, 0.4702034890651703, 0.4827522337436676, 0.4953009784221649, 0.5078496932983398, 0.5203984379768372, 0.5329471826553345, 0.5454959273338318, 0.5580446720123291, 0.5705934166908264, 0.583142101764679, 0.5956908464431763, 0.6082395911216736, 0.6207883358001709, 0.6333370804786682, 0.6458858251571655, 0.6584345698356628, 0.6709833145141602, 0.6835319995880127, 0.69608074426651, 0.7086294889450073, 0.7211782932281494, 0.7337270379066467, 0.746275782585144, 0.7588245272636414, 0.7713732719421387, 0.7839219570159912, 0.7964707016944885, 0.8090194463729858, 0.8215681910514832, 0.8341169357299805, 0.8466656804084778, 0.8592144250869751, 0.8717631697654724, 0.884311854839325, 0.8968605995178223, 0.9094093441963196, 0.9219580888748169, 0.9345068335533142, 0.9470555782318115, 0.9596043229103088, 0.9721530675888062, 0.9847017526626587, 0.997250497341156, 1.0097992420196533, 1.0223479270935059, 1.0348966121673584, 1.0474454164505005, 1.059994101524353, 1.0725429058074951, 1.0850915908813477, 1.0976403951644897, 1.1101890802383423, 1.1227378845214844]}, "parameters/conv_layers.0.nn.1.bias": {"_type": "histogram", "values": [1.0, 0.0, 0.0, 0.0, 0.0, 0.0, 0.0, 0.0, 0.0, 0.0, 1.0, 0.0, 0.0, 0.0, 0.0, 1.0, 0.0, 1.0, 0.0, 0.0, 1.0, 0.0, 0.0, 0.0, 0.0, 0.0, 0.0, 0.0, 0.0, 0.0, 0.0, 0.0, 0.0, 0.0, 0.0, 1.0, 0.0, 0.0, 0.0, 0.0, 1.0, 0.0, 0.0, 0.0, 1.0, 0.0, 0.0, 1.0, 0.0, 0.0, 1.0, 0.0, 0.0, 0.0, 0.0, 0.0, 0.0, 1.0, 0.0, 0.0, 1.0, 0.0, 0.0, 1.0], "bins": [-0.6679245233535767, -0.6538842916488647, -0.6398440599441528, -0.6258038282394409, -0.611763596534729, -0.5977234244346619, -0.58368319272995, -0.569642961025238, -0.5556027293205261, -0.5415624976158142, -0.5275222659111023, -0.5134820342063904, -0.49944183230400085, -0.48540160059928894, -0.4713613986968994, -0.4573211669921875, -0.4432809352874756, -0.42924070358276367, -0.41520047187805176, -0.40116026997566223, -0.3871200382709503, -0.3730798065662384, -0.3590396046638489, -0.34499937295913696, -0.33095914125442505, -0.31691890954971313, -0.3028786778450012, -0.2888384759426117, -0.2747982442378998, -0.26075801253318787, -0.24671779572963715, -0.23267757892608643, -0.21863733232021332, -0.2045971155166626, -0.19055688381195068, -0.17651665210723877, -0.16247643530368805, -0.14843621850013733, -0.13439598679542542, -0.1203557625412941, -0.10631553828716278, -0.09227531403303146, -0.07823508977890015, -0.06419486552476883, -0.05015464127063751, -0.036114417016506195, -0.022074192762374878, -0.00803396850824356, 0.006006255745887756, 0.020046480000019073, 0.03408670425415039, 0.04812692850828171, 0.062167152762413025, 0.07620737701654434, 0.09024760127067566, 0.10428782552480698, 0.1183280497789383, 0.132368266582489, 0.14640849828720093, 0.16044872999191284, 0.17448894679546356, 0.18852916359901428, 0.2025693953037262, 0.2166096270084381, 0.23064984381198883]}, "parameters/conv_layers.0.nn.3.weight": {"_type": "histogram", "values": [1.0, 0.0, 0.0, 0.0, 0.0, 0.0, 0.0, 0.0, 0.0, 0.0, 0.0, 0.0, 0.0, 0.0, 0.0, 0.0, 0.0, 0.0, 0.0, 0.0, 0.0, 1.0, 0.0, 1.0, 0.0, 1.0, 0.0, 0.0, 0.0, 1.0, 2.0, 0.0, 3.0, 2.0, 0.0, 2.0, 2.0, 5.0, 4.0, 3.0, 4.0, 5.0, 4.0, 4.0, 8.0, 11.0, 9.0, 13.0, 12.0, 9.0, 10.0, 11.0, 10.0, 10.0, 3.0, 5.0, 3.0, 4.0, 0.0, 3.0, 1.0, 0.0, 1.0, 1.0], "bins": [-3.579631805419922, -3.505340337753296, -3.43104887008667, -3.356757402420044, -3.282465696334839, -3.208174228668213, -3.133882761001587, -3.059591293334961, -2.985299825668335, -2.911008358001709, -2.836716890335083, -2.762425422668457, -2.688133716583252, -2.613842248916626, -2.53955078125, -2.465259313583374, -2.390967845916748, -2.316676378250122, -2.242384910583496, -2.16809344291687, -2.093801736831665, -2.019510269165039, -1.945218801498413, -1.870927333831787, -1.796635627746582, -1.722344160079956, -1.6480525732040405, -1.5737611055374146, -1.4994696378707886, -1.425178050994873, -1.350886583328247, -1.276595115661621, -1.2023035287857056, -1.1280120611190796, -1.053720474243164, -0.9794290065765381, -0.9051375389099121, -0.8308460116386414, -0.7565544843673706, -0.6822630167007446, -0.6079714894294739, -0.5336799621582031, -0.45938849449157715, -0.3850969672203064, -0.31080546975135803, -0.23651397228240967, -0.1622224599123001, -0.08793095499277115, -0.013639450073242188, 0.060652054846286774, 0.13494355976581573, 0.2092350721359253, 0.28352656960487366, 0.357818067073822, 0.4321095943450928, 0.5064010620117188, 0.5806925892829895, 0.6549841165542603, 0.7292755842208862, 0.803567111492157, 0.8778586387634277, 0.9521501064300537, 1.0264415740966797, 1.1007331609725952, 1.1750246286392212]}, "parameters/conv_layers.0.nn.3.bias": {"_type": "histogram", "values": [1.0, 0.0, 0.0, 0.0, 0.0, 1.0, 0.0, 0.0, 0.0, 0.0, 0.0, 0.0, 0.0, 0.0, 1.0, 0.0, 0.0, 0.0, 0.0, 0.0, 1.0, 0.0, 0.0, 0.0, 1.0, 1.0, 0.0, 0.0, 0.0, 0.0, 0.0, 0.0, 1.0, 0.0, 0.0, 0.0, 0.0, 0.0, 0.0, 0.0, 0.0, 1.0, 0.0, 0.0, 0.0, 0.0, 0.0, 1.0, 0.0, 0.0, 0.0, 1.0, 0.0, 0.0, 0.0, 1.0, 0.0, 1.0, 0.0, 0.0, 0.0, 0.0, 0.0, 1.0], "bins": [-1.1252156496047974, -1.0947508811950684, -1.064286231994629, -1.0338214635849, -1.003356695175171, -0.9728919267654419, -0.9424272179603577, -0.9119625091552734, -0.8814977407455444, -0.8510329723358154, -0.8205682635307312, -0.790103554725647, -0.759638786315918, -0.729174017906189, -0.6987093091011047, -0.6682446002960205, -0.6377798318862915, -0.6073150634765625, -0.5768503546714783, -0.546385645866394, -0.515920877456665, -0.4854561388492584, -0.4549914002418518, -0.4245266616344452, -0.3940619230270386, -0.36359718441963196, -0.33313244581222534, -0.3026677072048187, -0.2722029685974121, -0.2417382299900055, -0.21127349138259888, -0.18080875277519226, -0.15034401416778564, -0.11987927556037903, -0.08941453695297241, -0.058949798345565796, -0.02848505973815918, 0.0019796788692474365, 0.03244441747665405, 0.06290915608406067, 0.09337389469146729, 0.1238386332988739, 0.15430337190628052, 0.18476811051368713, 0.21523284912109375, 0.24569758772850037, 0.276162326335907, 0.3066270649433136, 0.3370918035507202, 0.36755654215812683, 0.39802128076553345, 0.42848601937294006, 0.4589507579803467, 0.4894154965877533, 0.5198802351951599, 0.5503449440002441, 0.5808097124099731, 0.6112744808197021, 0.6417391896247864, 0.6722038984298706, 0.7026686668395996, 0.7331334352493286, 0.7635981440544128, 0.7940628528594971, 0.8245276212692261]}, "parameters/conv_layers.1.nn.0.weight": {"_type": "histogram", "values": [3.0, 0.0, 0.0, 0.0, 1.0, 1.0, 2.0, 1.0, 2.0, 0.0, 3.0, 3.0, 1.0, 1.0, 0.0, 1.0, 4.0, 8.0, 3.0, 4.0, 3.0, 4.0, 2.0, 5.0, 4.0, 4.0, 5.0, 4.0, 6.0, 4.0, 7.0, 4.0, 9.0, 3.0, 5.0, 3.0, 9.0, 7.0, 7.0, 5.0, 4.0, 4.0, 2.0, 0.0, 2.0, 2.0, 7.0, 1.0, 2.0, 2.0, 0.0, 0.0, 1.0, 0.0, 0.0, 0.0, 0.0, 0.0, 0.0, 0.0, 1.0, 0.0, 1.0, 2.0], "bins": [-1.271902084350586, -1.2322129011154175, -1.192523717880249, -1.1528345346450806, -1.113145351409912, -1.0734561681747437, -1.0337669849395752, -0.994077742099762, -0.9543885588645935, -0.914699375629425, -0.8750101923942566, -0.8353210091590881, -0.7956317663192749, -0.7559425830841064, -0.716253399848938, -0.6765642166137695, -0.6368750333786011, -0.5971858501434326, -0.5574966669082642, -0.5178074836730957, -0.47811827063560486, -0.4384290874004364, -0.39873987436294556, -0.3590506911277771, -0.31936150789260864, -0.2796723246574402, -0.23998312652111053, -0.20029392838478088, -0.16060474514961243, -0.12091555446386337, -0.08122636377811432, -0.041537173092365265, -0.001847982406616211, 0.03784120827913284, 0.0775303989648819, 0.11721958965063095, 0.15690878033638, 0.19659796357154846, 0.2362871617078781, 0.27597635984420776, 0.3156655430793762, 0.3553547263145447, 0.39504390954971313, 0.434733122587204, 0.47442230582237244, 0.5141115188598633, 0.5538007020950317, 0.5934898853302002, 0.6331790685653687, 0.6728682518005371, 0.7125574350357056, 0.752246618270874, 0.7919358015060425, 0.8316250443458557, 0.8713142275810242, 0.9110034108161926, 0.9506925940513611, 0.9903817772865295, 1.0300710201263428, 1.0697602033615112, 1.1094493865966797, 1.1491385698318481, 1.1888277530670166, 1.228516936302185, 1.2682061195373535]}, "parameters/conv_layers.1.nn.0.bias": {"_type": "histogram", "values": [1.0, 0.0, 0.0, 0.0, 0.0, 0.0, 1.0, 1.0, 0.0, 0.0, 1.0, 1.0, 0.0, 0.0, 0.0, 1.0, 0.0, 0.0, 0.0, 0.0, 0.0, 1.0, 1.0, 0.0, 1.0, 0.0, 1.0, 0.0, 0.0, 0.0, 0.0, 0.0, 0.0, 0.0, 0.0, 0.0, 0.0, 0.0, 1.0, 0.0, 0.0, 0.0, 0.0, 0.0, 0.0, 1.0, 0.0, 0.0, 0.0, 0.0, 0.0, 0.0, 0.0, 0.0, 0.0, 0.0, 0.0, 0.0, 0.0, 0.0, 0.0, 0.0, 0.0, 1.0], "bins": [-0.2925175130367279, -0.2761940062046051, -0.2598704695701599, -0.24354694783687592, -0.22722342610359192, -0.21089991927146912, -0.19457639753818512, -0.17825287580490112, -0.16192935407161713, -0.14560583233833313, -0.12928231060504913, -0.11295879632234573, -0.09663527458906174, -0.08031175285577774, -0.06398823857307434, -0.047664716839790344, -0.03134119510650635, -0.0150176752358675, 0.001305844634771347, 0.017629364505410194, 0.03395288437604904, 0.05027640610933304, 0.06659992039203644, 0.08292344212532043, 0.09924696385860443, 0.11557048559188843, 0.13189400732517242, 0.14821752905845642, 0.16454103589057922, 0.18086455762386322, 0.19718807935714722, 0.2135116010904312, 0.2298351526260376, 0.2461586743593216, 0.2624821960926056, 0.2788057029247284, 0.2951292395591736, 0.3114527463912964, 0.3277762830257416, 0.3440997898578644, 0.36042332649230957, 0.3767468333244324, 0.39307036995887756, 0.40939387679100037, 0.42571741342544556, 0.44204092025756836, 0.45836445689201355, 0.47468796372413635, 0.49101147055625916, 0.5073350071907043, 0.5236585140228271, 0.53998202085495, 0.5563055276870728, 0.5726290941238403, 0.5889526009559631, 0.6052761077880859, 0.6215996146202087, 0.6379231214523315, 0.6542466282844543, 0.6705701947212219, 0.6868937015533447, 0.7032172083854675, 0.7195407152175903, 0.7358642816543579, 0.7521877884864807]}, "parameters/conv_layers.1.nn.1.weight": {"_type": "histogram", "values": [1.0, 0.0, 0.0, 0.0, 0.0, 1.0, 0.0, 0.0, 1.0, 1.0, 0.0, 0.0, 0.0, 1.0, 0.0, 0.0, 0.0, 1.0, 1.0, 0.0, 0.0, 1.0, 0.0, 0.0, 0.0, 0.0, 0.0, 0.0, 0.0, 0.0, 0.0, 0.0, 1.0, 0.0, 0.0, 0.0, 1.0, 0.0, 0.0, 1.0, 1.0, 0.0, 0.0, 0.0, 0.0, 0.0, 0.0, 0.0, 0.0, 0.0, 0.0, 0.0, 0.0, 0.0, 0.0, 0.0, 0.0, 0.0, 0.0, 0.0, 0.0, 0.0, 0.0, 1.0], "bins": [0.49700796604156494, 0.5108439326286316, 0.524679958820343, 0.5385159254074097, 0.5523518919944763, 0.5661879181861877, 0.5800238847732544, 0.593859851360321, 0.6076958179473877, 0.6215317845344543, 0.6353678107261658, 0.6492037773132324, 0.6630397439002991, 0.6768757700920105, 0.6907117366790771, 0.7045477032661438, 0.7183837294578552, 0.7322196960449219, 0.7460557222366333, 0.7598916888237, 0.7737276554107666, 0.787563681602478, 0.8013996481895447, 0.8152356147766113, 0.8290716409683228, 0.8429076075553894, 0.8567436337471008, 0.8705796003341675, 0.8844155669212341, 0.8982515931129456, 0.9120875597000122, 0.9259235262870789, 0.9397594928741455, 0.9535954594612122, 0.9674314856529236, 0.9812674522399902, 0.9951034188270569, 1.0089393854141235, 1.022775411605835, 1.0366114377975464, 1.0504473447799683, 1.0642833709716797, 1.0781192779541016, 1.091955304145813, 1.1057913303375244, 1.1196272373199463, 1.1334632635116577, 1.1472992897033691, 1.161135196685791, 1.1749712228775024, 1.1888071298599243, 1.2026431560516357, 1.2164791822433472, 1.230315089225769, 1.2441511154174805, 1.257987141609192, 1.2718231678009033, 1.2856591939926147, 1.2994951009750366, 1.313331127166748, 1.3271671533584595, 1.3410030603408813, 1.3548390865325928, 1.3686751127243042, 1.382511019706726]}, "parameters/conv_layers.1.nn.1.bias": {"_type": "histogram", "values": [1.0, 0.0, 0.0, 0.0, 0.0, 0.0, 0.0, 0.0, 0.0, 1.0, 0.0, 0.0, 0.0, 1.0, 0.0, 0.0, 0.0, 0.0, 0.0, 0.0, 0.0, 0.0, 0.0, 0.0, 1.0, 0.0, 0.0, 0.0, 1.0, 0.0, 0.0, 0.0, 0.0, 0.0, 0.0, 0.0, 0.0, 1.0, 0.0, 0.0, 0.0, 1.0, 1.0, 0.0, 1.0, 0.0, 0.0, 0.0, 0.0, 0.0, 1.0, 2.0, 0.0, 0.0, 0.0, 0.0, 0.0, 0.0, 0.0, 0.0, 0.0, 0.0, 0.0, 1.0], "bins": [-0.5896651148796082, -0.5758795738220215, -0.56209397315979, -0.5483084321022034, -0.5345228314399719, -0.5207372903823853, -0.5069516897201538, -0.49316611886024475, -0.4793805480003357, -0.46559497714042664, -0.4518094062805176, -0.4380238354206085, -0.42423826456069946, -0.4104526937007904, -0.39666712284088135, -0.3828815519809723, -0.3690960109233856, -0.35531044006347656, -0.3415248692035675, -0.32773929834365845, -0.3139537274837494, -0.30016815662384033, -0.2863825857639313, -0.2725970149040222, -0.25881147384643555, -0.2450259029865265, -0.23124033212661743, -0.21745476126670837, -0.20366919040679932, -0.18988363444805145, -0.1760980635881424, -0.16231249272823334, -0.1485268771648407, -0.13474130630493164, -0.12095573544502258, -0.10717017203569412, -0.09338460117578506, -0.07959903031587601, -0.06581346690654755, -0.05202789604663849, -0.03824232518672943, -0.024456756189465523, -0.010671187192201614, 0.003114381805062294, 0.016899950802326202, 0.03068551979959011, 0.04447108879685402, 0.05825665593147278, 0.07204222679138184, 0.0858277976512909, 0.09961336851119995, 0.11339893192052841, 0.12718451023101807, 0.14097006618976593, 0.154755637049675, 0.16854120790958405, 0.1823267787694931, 0.19611234962940216, 0.20989792048931122, 0.22368349134922028, 0.23746904730796814, 0.2512546181678772, 0.26504018902778625, 0.2788257598876953, 0.29261133074760437]}, "parameters/conv_layers.1.nn.3.weight": {"_type": "histogram", "values": [1.0, 0.0, 0.0, 0.0, 0.0, 0.0, 0.0, 0.0, 0.0, 0.0, 0.0, 0.0, 0.0, 1.0, 0.0, 0.0, 0.0, 0.0, 0.0, 0.0, 1.0, 0.0, 0.0, 0.0, 0.0, 0.0, 2.0, 1.0, 0.0, 0.0, 2.0, 0.0, 0.0, 3.0, 2.0, 4.0, 2.0, 4.0, 3.0, 1.0, 6.0, 3.0, 6.0, 10.0, 9.0, 11.0, 8.0, 13.0, 15.0, 13.0, 11.0, 14.0, 6.0, 4.0, 5.0, 3.0, 2.0, 0.0, 2.0, 0.0, 0.0, 0.0, 0.0, 1.0], "bins": [-4.259446144104004, -4.170975208282471, -4.0825042724609375, -3.9940335750579834, -3.9055628776550293, -3.817091941833496, -3.728621244430542, -3.640150308609009, -3.5516796112060547, -3.4632086753845215, -3.3747379779815674, -3.286267042160034, -3.19779634475708, -3.109325408935547, -3.0208547115325928, -2.9323837757110596, -2.8439128398895264, -2.755441904067993, -2.666971206665039, -2.578500270843506, -2.4900295734405518, -2.4015586376190186, -2.3130879402160645, -2.2246170043945312, -2.136146068572998, -2.047675132751465, -1.9592044353485107, -1.870733618736267, -1.7822628021240234, -1.6937918663024902, -1.6053210496902466, -1.516850233078003, -1.4283792972564697, -1.339908480644226, -1.2514376640319824, -1.1629668474197388, -1.0744960308074951, -0.9860251545906067, -0.8975542783737183, -0.8090834617614746, -0.720612645149231, -0.6321418285369873, -0.5436710119247437, -0.4552001357078552, -0.3667293190956116, -0.2782585024833679, -0.18978765606880188, -0.10131682455539703, -0.012845993041992188, 0.07562483847141266, 0.1640956699848175, 0.25256651639938354, 0.3410373330116272, 0.42950814962387085, 0.5179790258407593, 0.6064498424530029, 0.6949206590652466, 0.7833914756774902, 0.8718622922897339, 0.9603331685066223, 1.0488040447235107, 1.1372748613357544, 1.225745677947998, 1.3142164945602417, 1.4026873111724854]}, "parameters/conv_layers.1.nn.3.bias": {"_type": "histogram", "values": [1.0, 0.0, 0.0, 0.0, 0.0, 0.0, 0.0, 0.0, 0.0, 0.0, 0.0, 0.0, 0.0, 0.0, 0.0, 0.0, 0.0, 0.0, 0.0, 0.0, 0.0, 0.0, 0.0, 1.0, 0.0, 0.0, 0.0, 0.0, 1.0, 0.0, 0.0, 0.0, 0.0, 0.0, 0.0, 0.0, 1.0, 0.0, 0.0, 0.0, 1.0, 0.0, 0.0, 0.0, 0.0, 0.0, 0.0, 0.0, 0.0, 0.0, 0.0, 1.0, 1.0, 1.0, 0.0, 0.0, 0.0, 0.0, 0.0, 1.0, 1.0, 0.0, 2.0, 1.0], "bins": [-0.8606248497962952, -0.8357800841331482, -0.8109353184700012, -0.7860905528068542, -0.7612457871437073, -0.7364010214805603, -0.7115562558174133, -0.6867114901542664, -0.6618667244911194, -0.6370219588279724, -0.6121771931648254, -0.5873324275016785, -0.5624876618385315, -0.5376428961753845, -0.5127981305122375, -0.4879533648490906, -0.463108628988266, -0.438263863325119, -0.41341909766197205, -0.3885743319988251, -0.3637295663356781, -0.33888480067253113, -0.31404003500938416, -0.2891952693462372, -0.2643505334854126, -0.23950576782226562, -0.21466100215911865, -0.18981623649597168, -0.1649714708328247, -0.14012672007083893, -0.11528195440769196, -0.09043718874454498, -0.06559240818023682, -0.040747642517089844, -0.01590288057923317, 0.008941883221268654, 0.03378664702177048, 0.05863141268491745, 0.08347617089748383, 0.1083209365606308, 0.13316570222377777, 0.15801046788692474, 0.18285523355007172, 0.2076999992132187, 0.23254474997520447, 0.25738951563835144, 0.2822342813014984, 0.3070790469646454, 0.33192381262779236, 0.35676857829093933, 0.3816133439540863, 0.4064581096172333, 0.43130287528038025, 0.4561476409435272, 0.4809924066066742, 0.5058371424674988, 0.5306819081306458, 0.5555266737937927, 0.5803714394569397, 0.6052162051200867, 0.6300609707832336, 0.6549057364463806, 0.6797505021095276, 0.7045952677726746, 0.7294400334358215]}, "parameters/conv_layers.2.nn.0.weight": {"_type": "histogram", "values": [1.0, 0.0, 0.0, 0.0, 0.0, 0.0, 0.0, 0.0, 0.0, 0.0, 0.0, 0.0, 0.0, 0.0, 0.0, 0.0, 0.0, 0.0, 0.0, 0.0, 0.0, 1.0, 0.0, 0.0, 4.0, 1.0, 0.0, 1.0, 1.0, 2.0, 4.0, 5.0, 5.0, 4.0, 5.0, 1.0, 7.0, 6.0, 6.0, 8.0, 7.0, 9.0, 13.0, 15.0, 7.0, 9.0, 11.0, 6.0, 8.0, 2.0, 3.0, 3.0, 5.0, 4.0, 0.0, 1.0, 0.0, 0.0, 3.0, 0.0, 0.0, 0.0, 0.0, 1.0], "bins": [-2.688966751098633, -2.6236016750335693, -2.558236598968506, -2.4928715229034424, -2.427506446838379, -2.3621413707733154, -2.296776294708252, -2.2314112186431885, -2.166046142578125, -2.1006810665130615, -2.035315990447998, -1.9699509143829346, -1.904585838317871, -1.8392207622528076, -1.7738556861877441, -1.7084906101226807, -1.6431256532669067, -1.5777605772018433, -1.5123955011367798, -1.4470304250717163, -1.3816653490066528, -1.3163002729415894, -1.2509351968765259, -1.1855701208114624, -1.1202051639556885, -1.054840087890625, -0.9894750118255615, -0.924109935760498, -0.8587448596954346, -0.7933798432350159, -0.7280147671699524, -0.6626496911048889, -0.5972845554351807, -0.5319194793701172, -0.4665544033050537, -0.4011893570423126, -0.33582428097724915, -0.27045920491218567, -0.2050941437482834, -0.1397290825843811, -0.07436400651931763, -0.008998937904834747, 0.05636613070964813, 0.12173119932413101, 0.1870962679386139, 0.25246134400367737, 0.31782639026641846, 0.38319146633148193, 0.4485565423965454, 0.5139216184616089, 0.5792866945266724, 0.6446517705917358, 0.7100168466567993, 0.775381863117218, 0.8407469391822815, 0.906112015247345, 0.9714770913124084, 1.0368421077728271, 1.1022071838378906, 1.167572259902954, 1.2329373359680176, 1.298302412033081, 1.3636674880981445, 1.429032564163208, 1.4943976402282715]}, "parameters/conv_layers.2.nn.0.bias": {"_type": "histogram", "values": [1.0, 0.0, 0.0, 0.0, 0.0, 0.0, 0.0, 0.0, 0.0, 0.0, 0.0, 0.0, 0.0, 0.0, 0.0, 0.0, 0.0, 0.0, 1.0, 1.0, 0.0, 1.0, 0.0, 0.0, 0.0, 0.0, 0.0, 0.0, 0.0, 1.0, 1.0, 0.0, 0.0, 0.0, 1.0, 0.0, 1.0, 0.0, 0.0, 0.0, 0.0, 0.0, 0.0, 0.0, 0.0, 1.0, 0.0, 1.0, 0.0, 0.0, 0.0, 1.0, 0.0, 0.0, 0.0, 0.0, 0.0, 0.0, 0.0, 0.0, 0.0, 1.0, 0.0, 1.0], "bins": [-6.85659122467041, -6.699924468994141, -6.543257236480713, -6.386590003967285, -6.229923248291016, -6.073256492614746, -5.916589260101318, -5.759922027587891, -5.603255271911621, -5.446588516235352, -5.289921283721924, -5.133254051208496, -4.976587295532227, -4.819920539855957, -4.663253307342529, -4.506586074829102, -4.349919319152832, -4.1932525634765625, -4.036585330963135, -3.879918336868286, -3.7232513427734375, -3.566584348678589, -3.4099173545837402, -3.2532503604888916, -3.096583366394043, -2.9399163722991943, -2.7832493782043457, -2.626582384109497, -2.4699153900146484, -2.3132483959198, -2.156581401824951, -1.9999144077301025, -1.843247890472412, -1.6865808963775635, -1.5299139022827148, -1.3732469081878662, -1.2165799140930176, -1.059912919998169, -0.9032459259033203, -0.7465789318084717, -0.589911937713623, -0.4332449436187744, -0.2765779495239258, -0.11991095542907715, 0.036756038665771484, 0.19342303276062012, 0.35009002685546875, 0.5067570209503174, 0.663424015045166, 0.8200910091400146, 0.9767580032348633, 1.133424997329712, 1.2900919914245605, 1.4467589855194092, 1.6034259796142578, 1.7600929737091064, 1.916759967803955, 2.0734269618988037, 2.2300939559936523, 2.386760950088501, 2.5434279441833496, 2.7000949382781982, 2.856761932373047, 3.0134289264678955, 3.170095920562744]}, "parameters/conv_layers.2.nn.1.weight": {"_type": "histogram", "values": [1.0, 0.0, 0.0, 0.0, 0.0, 0.0, 0.0, 1.0, 0.0, 0.0, 0.0, 0.0, 0.0, 0.0, 0.0, 0.0, 0.0, 0.0, 0.0, 0.0, 0.0, 0.0, 0.0, 0.0, 0.0, 0.0, 0.0, 2.0, 0.0, 0.0, 1.0, 0.0, 1.0, 0.0, 0.0, 0.0, 0.0, 0.0, 1.0, 0.0, 0.0, 0.0, 0.0, 1.0, 0.0, 1.0, 1.0, 0.0, 0.0, 1.0, 0.0, 0.0, 0.0, 0.0, 0.0, 0.0, 0.0, 0.0, 0.0, 1.0, 0.0, 0.0, 0.0, 1.0], "bins": [0.6351993083953857, 0.6496484279632568, 0.6640975475311279, 0.678546667098999, 0.6929957866668701, 0.7074448466300964, 0.7218939661979675, 0.7363430857658386, 0.7507922053337097, 0.7652413249015808, 0.7796904444694519, 0.794139564037323, 0.8085886240005493, 0.8230377435684204, 0.8374868631362915, 0.8519359827041626, 0.8663851022720337, 0.8808342218399048, 0.8952833414077759, 0.909732460975647, 0.9241815805435181, 0.9386306405067444, 0.9530797600746155, 0.9675288796424866, 0.9819779992103577, 0.9964271187782288, 1.010876178741455, 1.0253252983093262, 1.0397744178771973, 1.0542235374450684, 1.0686726570129395, 1.0831217765808105, 1.0975708961486816, 1.1120200157165527, 1.1264691352844238, 1.140918254852295, 1.155367374420166, 1.169816493988037, 1.1842656135559082, 1.1987147331237793, 1.2131638526916504, 1.2276129722595215, 1.2420620918273926, 1.2565112113952637, 1.2709603309631348, 1.2854094505310059, 1.299858570098877, 1.314307689666748, 1.3287566900253296, 1.3432058095932007, 1.3576549291610718, 1.3721040487289429, 1.386553168296814, 1.401002287864685, 1.4154514074325562, 1.4299005270004272, 1.4443495273590088, 1.4587986469268799, 1.473247766494751, 1.487696886062622, 1.5021460056304932, 1.5165951251983643, 1.5310442447662354, 1.5454933643341064, 1.5599424839019775]}, "parameters/conv_layers.2.nn.1.bias": {"_type": "histogram", "values": [1.0, 0.0, 0.0, 0.0, 0.0, 0.0, 0.0, 0.0, 0.0, 0.0, 0.0, 0.0, 0.0, 0.0, 1.0, 0.0, 0.0, 0.0, 0.0, 0.0, 0.0, 0.0, 0.0, 1.0, 0.0, 1.0, 0.0, 0.0, 1.0, 0.0, 1.0, 0.0, 0.0, 1.0, 0.0, 0.0, 0.0, 0.0, 0.0, 0.0, 0.0, 0.0, 0.0, 0.0, 0.0, 0.0, 0.0, 0.0, 0.0, 1.0, 0.0, 1.0, 0.0, 1.0, 0.0, 0.0, 0.0, 0.0, 0.0, 0.0, 1.0, 1.0, 0.0, 1.0], "bins": [-1.2523415088653564, -1.2263797521591187, -1.2004179954528809, -1.1744561195373535, -1.1484943628311157, -1.122532606124878, -1.0965708494186401, -1.0706089735031128, -1.044647216796875, -1.0186854600906372, -0.9927236437797546, -0.9667618870735168, -0.9408000707626343, -0.9148383140563965, -0.8888764977455139, -0.8629147410392761, -0.8369529843330383, -0.8109912276268005, -0.785029411315918, -0.7590676546096802, -0.7331058382987976, -0.7071440815925598, -0.6811822652816772, -0.6552205085754395, -0.6292587518692017, -0.6032969951629639, -0.5773351788520813, -0.5513734221458435, -0.5254116058349609, -0.49944984912872314, -0.47348806262016296, -0.4475262761116028, -0.4215644299983978, -0.39560264348983765, -0.36964085698127747, -0.3436790704727173, -0.3177173137664795, -0.2917555272579193, -0.26579374074935913, -0.23983195424079895, -0.21387016773223877, -0.1879083812236786, -0.1619465947151184, -0.13598482310771942, -0.11002303659915924, -0.08406125009059906, -0.058099471032619476, -0.032137688249349594, -0.006175905466079712, 0.01978587731719017, 0.04574766010046005, 0.07170943915843964, 0.09767122566699982, 0.12363301217556, 0.14959478378295898, 0.17555657029151917, 0.20151835680007935, 0.22748014330863953, 0.2534419298171997, 0.2794037163257599, 0.30536550283432007, 0.33132725954055786, 0.35728904604911804, 0.3832508325576782, 0.4092126190662384]}, "parameters/conv_layers.2.nn.3.weight": {"_type": "histogram", "values": [1.0, 0.0, 0.0, 0.0, 0.0, 0.0, 0.0, 0.0, 0.0, 0.0, 0.0, 0.0, 0.0, 0.0, 1.0, 1.0, 1.0, 0.0, 0.0, 0.0, 1.0, 0.0, 0.0, 2.0, 1.0, 0.0, 0.0, 0.0, 2.0, 1.0, 1.0, 2.0, 2.0, 2.0, 4.0, 3.0, 0.0, 5.0, 7.0, 4.0, 1.0, 2.0, 6.0, 10.0, 5.0, 9.0, 12.0, 6.0, 9.0, 8.0, 9.0, 9.0, 14.0, 9.0, 4.0, 5.0, 4.0, 1.0, 0.0, 2.0, 0.0, 1.0, 0.0, 2.0], "bins": [-4.600992679595947, -4.507214546203613, -4.413435935974121, -4.319657802581787, -4.225879669189453, -4.132101535797119, -4.038322925567627, -3.944544792175293, -3.85076642036438, -3.756988048553467, -3.663209915161133, -3.5694315433502197, -3.4756534099578857, -3.3818750381469727, -3.2880966663360596, -3.1943185329437256, -3.1005401611328125, -3.0067617893218994, -2.9129836559295654, -2.8192052841186523, -2.7254271507263184, -2.6316487789154053, -2.537870407104492, -2.444092273712158, -2.350314140319824, -2.256535768508911, -2.162757635116577, -2.068979263305664, -1.9752010107040405, -1.881422758102417, -1.7876445055007935, -1.69386625289917, -1.6000877618789673, -1.5063095092773438, -1.4125312566757202, -1.3187528848648071, -1.2249746322631836, -1.13119637966156, -1.0374181270599365, -0.9436398148536682, -0.8498615622520447, -0.7560833096504211, -0.6623049974441528, -0.5685267448425293, -0.4747484624385834, -0.38097018003463745, -0.2871919274330139, -0.193413645029068, -0.09963536262512207, -0.005857087671756744, 0.08792118728160858, 0.1816994547843933, 0.27547773718833923, 0.36925601959228516, 0.4630342721939087, 0.556812584400177, 0.6505908370018005, 0.7443690896034241, 0.8381474018096924, 0.9319256544113159, 1.0257039070129395, 1.119482159614563, 1.213260531425476, 1.3070387840270996, 1.4008170366287231]}, "parameters/conv_layers.2.nn.3.bias": {"_type": "histogram", "values": [1.0, 0.0, 0.0, 0.0, 0.0, 0.0, 0.0, 0.0, 0.0, 1.0, 0.0, 0.0, 0.0, 0.0, 1.0, 0.0, 1.0, 0.0, 0.0, 0.0, 0.0, 1.0, 0.0, 0.0, 0.0, 0.0, 0.0, 0.0, 0.0, 0.0, 0.0, 0.0, 0.0, 0.0, 2.0, 0.0, 0.0, 1.0, 0.0, 0.0, 0.0, 0.0, 0.0, 0.0, 0.0, 0.0, 0.0, 0.0, 1.0, 1.0, 0.0, 0.0, 0.0, 0.0, 0.0, 0.0, 1.0, 1.0, 0.0, 0.0, 0.0, 0.0, 0.0, 1.0], "bins": [-0.6564264297485352, -0.6317363381385803, -0.6070462465286255, -0.5823561549186707, -0.5576660633087158, -0.532975971698761, -0.5082858800888062, -0.4835957884788513, -0.4589056968688965, -0.43421560525894165, -0.4095255136489868, -0.384835422039032, -0.36014533042907715, -0.3354552388191223, -0.3107651472091675, -0.28607505559921265, -0.2613849639892578, -0.23669487237930298, -0.21200478076934814, -0.1873146891593933, -0.16262459754943848, -0.13793450593948364, -0.11324441432952881, -0.08855432271957397, -0.06386423110961914, -0.03917413949966431, -0.014484047889709473, 0.010206043720245361, 0.034896135330200195, 0.05958622694015503, 0.08427631855010986, 0.1089664101600647, 0.13365644216537476, 0.1583465337753296, 0.18303662538528442, 0.20772671699523926, 0.2324168086051941, 0.2571069002151489, 0.28179699182510376, 0.3064870834350586, 0.3311771750450134, 0.35586726665496826, 0.3805573582649231, 0.40524744987487793, 0.42993754148483276, 0.4546276330947876, 0.47931772470474243, 0.5040078163146973, 0.5286979079246521, 0.5533879995346069, 0.5780780911445618, 0.6027681827545166, 0.6274582743644714, 0.6521483659744263, 0.6768384575843811, 0.7015285491943359, 0.7262186408042908, 0.7509087324142456, 0.7755988240242004, 0.8002889156341553, 0.8249790072441101, 0.8496690988540649, 0.8743591904640198, 0.8990492820739746, 0.9237393736839294]}, "parameters/lin1.weight": {"_type": "histogram", "values": [3.0, 3.0, 1.0, 1.0, 1.0, 1.0, 1.0, 3.0, 6.0, 3.0, 1.0, 11.0, 5.0, 4.0, 7.0, 11.0, 6.0, 14.0, 7.0, 20.0, 31.0, 37.0, 52.0, 73.0, 93.0, 122.0, 180.0, 280.0, 472.0, 773.0, 4243.0, 5064.0, 797.0, 449.0, 280.0, 214.0, 114.0, 87.0, 57.0, 46.0, 34.0, 24.0, 13.0, 12.0, 7.0, 7.0, 4.0, 2.0, 0.0, 3.0, 0.0, 1.0, 0.0, 0.0, 0.0, 0.0, 0.0, 0.0, 0.0, 0.0, 1.0, 2.0, 3.0, 3.0], "bins": [-3.9709489345550537, -3.843890905380249, -3.7168328762054443, -3.5897748470306396, -3.462716579437256, -3.335658550262451, -3.2086005210876465, -3.081542491912842, -2.954484462738037, -2.8274264335632324, -2.7003684043884277, -2.573310375213623, -2.4462523460388184, -2.3191940784454346, -2.19213604927063, -2.065078020095825, -1.9380199909210205, -1.8109619617462158, -1.6839039325714111, -1.556845784187317, -1.4297877550125122, -1.3027297258377075, -1.1756715774536133, -1.0486135482788086, -0.9215555191040039, -0.7944974899291992, -0.6674394011497498, -0.5403813123703003, -0.4133232831954956, -0.28626522421836853, -0.15920716524124146, -0.03214910626411438, 0.0949087142944336, 0.22196677327156067, 0.34902483224868774, 0.4760828912258148, 0.6031409502029419, 0.7301989793777466, 0.857257068157196, 0.9843151569366455, 1.1113731861114502, 1.2384312152862549, 1.3654892444610596, 1.4925473928451538, 1.6196054220199585, 1.7466634511947632, 1.8737215995788574, 2.000779628753662, 2.127837657928467, 2.2548956871032715, 2.381953716278076, 2.509011745452881, 2.6360697746276855, 2.7631280422210693, 2.890186071395874, 3.0172441005706787, 3.1443021297454834, 3.271360158920288, 3.3984181880950928, 3.5254762172698975, 3.6525344848632812, 3.779592514038086, 3.9066505432128906, 4.033708572387695, 4.1607666015625]}, "parameters/lin1.bias": {"_type": "histogram", "values": [1.0, 0.0, 0.0, 0.0, 0.0, 0.0, 0.0, 0.0, 0.0, 0.0, 0.0, 0.0, 0.0, 1.0, 2.0, 1.0, 0.0, 0.0, 0.0, 1.0, 1.0, 1.0, 2.0, 0.0, 3.0, 3.0, 3.0, 4.0, 0.0, 4.0, 6.0, 3.0, 9.0, 8.0, 9.0, 4.0, 6.0, 7.0, 2.0, 1.0, 6.0, 3.0, 1.0, 2.0, 4.0, 3.0, 2.0, 1.0, 2.0, 0.0, 2.0, 4.0, 1.0, 0.0, 1.0, 0.0, 1.0, 0.0, 0.0, 0.0, 1.0, 0.0, 0.0, 1.0], "bins": [-0.36337170004844666, -0.3541342616081238, -0.3448968529701233, -0.3356594145298004, -0.32642197608947754, -0.31718456745147705, -0.3079471290111542, -0.2987096905708313, -0.2894722819328308, -0.28023484349250793, -0.27099743485450745, -0.26175999641418457, -0.2525225579738617, -0.2432851344347, -0.23404771089553833, -0.22481027245521545, -0.21557283401489258, -0.2063354104757309, -0.19709797203540802, -0.18786054849624634, -0.17862311005592346, -0.16938568651676178, -0.1601482629776001, -0.15091082453727722, -0.14167340099811554, -0.13243597745895386, -0.12319853901863098, -0.1139611154794693, -0.10472368448972702, -0.09548625349998474, -0.08624882996082306, -0.07701139897108078, -0.06777395308017731, -0.05853652209043503, -0.04929909482598305, -0.04006166756153107, -0.030824236571788788, -0.021586807444691658, -0.012349378317594528, -0.0031119491904973984, 0.0061254799365997314, 0.015362909063696861, 0.02460033819079399, 0.03383776545524597, 0.04307519644498825, 0.05231262743473053, 0.06155005469918251, 0.07078748196363449, 0.08002491295337677, 0.08926234394311905, 0.09849977493286133, 0.10773719847202301, 0.11697462946176529, 0.12621206045150757, 0.13544948399066925, 0.14468692243099213, 0.1539243459701538, 0.1631617695093155, 0.17239920794963837, 0.18163663148880005, 0.19087406992912292, 0.2001114934682846, 0.2093489170074463, 0.21858635544776917, 0.22782377898693085]}, "parameters/lin2.weight": {"_type": "histogram", "values": [1.0, 0.0, 0.0, 0.0, 0.0, 0.0, 0.0, 0.0, 0.0, 0.0, 1.0, 0.0, 0.0, 0.0, 0.0, 1.0, 1.0, 0.0, 0.0, 0.0, 0.0, 2.0, 2.0, 3.0, 1.0, 0.0, 3.0, 1.0, 2.0, 5.0, 19.0, 35.0, 15.0, 3.0, 2.0, 0.0, 1.0, 1.0, 1.0, 3.0, 0.0, 1.0, 0.0, 0.0, 3.0, 1.0, 1.0, 0.0, 2.0, 0.0, 1.0, 0.0, 0.0, 0.0, 1.0, 1.0, 1.0, 0.0, 0.0, 0.0, 0.0, 0.0, 0.0, 2.0], "bins": [-1.5054197311401367, -1.4571901559829712, -1.4089605808258057, -1.3607310056686401, -1.3125014305114746, -1.264271855354309, -1.216042399406433, -1.1678128242492676, -1.119583249092102, -1.0713536739349365, -1.023124098777771, -0.9748945832252502, -0.9266650080680847, -0.8784354329109192, -0.8302058577537537, -0.7819762825965881, -0.7337467074394226, -0.6855171322822571, -0.6372875571250916, -0.5890580415725708, -0.5408284664154053, -0.49259889125823975, -0.4443693161010742, -0.3961397707462311, -0.34791019558906555, -0.2996806204319, -0.2514510750770569, -0.20322149991989136, -0.15499193966388702, -0.10676237940788269, -0.05853281170129776, -0.010303247720003128, 0.037926316261291504, 0.08615587651729584, 0.13438543677330017, 0.1826150119304657, 0.23084457218647003, 0.27907413244247437, 0.3273037075996399, 0.37553325295448303, 0.42376282811164856, 0.4719924032688141, 0.5202219486236572, 0.5684515237808228, 0.6166810989379883, 0.6649106740951538, 0.7131401896476746, 0.7613697648048401, 0.8095993399620056, 0.8578289151191711, 0.9060584902763367, 0.9542880058288574, 1.002517580986023, 1.0507471561431885, 1.098976731300354, 1.1472063064575195, 1.195435881614685, 1.2436654567718506, 1.2918950319290161, 1.3401246070861816, 1.3883541822433472, 1.4365837574005127, 1.4848132133483887, 1.5330427885055542, 1.5812723636627197]}, "parameters/lin2.bias": {"_type": "histogram", "values": [0.0, 0.0, 0.0, 0.0, 0.0, 0.0, 0.0, 0.0, 0.0, 0.0, 0.0, 0.0, 0.0, 0.0, 0.0, 0.0, 0.0, 0.0, 0.0, 0.0, 0.0, 0.0, 0.0, 0.0, 0.0, 0.0, 0.0, 0.0, 0.0, 0.0, 0.0, 0.0, 1.0, 0.0, 0.0, 0.0, 0.0, 0.0, 0.0, 0.0, 0.0, 0.0, 0.0, 0.0, 0.0, 0.0, 0.0, 0.0, 0.0, 0.0, 0.0, 0.0, 0.0, 0.0, 0.0, 0.0, 0.0, 0.0, 0.0, 0.0, 0.0, 0.0, 0.0, 0.0], "bins": [-0.6327840685844421, -0.6327840685844421, -0.6327840685844421, -0.6327840685844421, -0.6327840685844421, -0.6327840685844421, -0.6327840685844421, -0.6327840685844421, -0.6327840685844421, -0.6327840685844421, -0.6327840685844421, -0.6327840685844421, -0.6327840685844421, -0.6327840685844421, -0.6327840685844421, -0.6327840685844421, -0.6327840685844421, -0.6327840685844421, -0.6327840685844421, -0.6327840685844421, -0.6327840685844421, -0.6327840685844421, -0.6327840685844421, -0.6327840685844421, -0.6327840685844421, -0.6327840685844421, -0.6327840685844421, -0.6327840685844421, -0.6327840685844421, -0.6327840685844421, -0.6327840685844421, -0.6327840685844421, -0.6327840685844421, -0.6327840685844421, -0.6327840685844421, -0.6327840685844421, -0.6327840685844421, -0.6327840685844421, -0.6327840685844421, -0.6327840685844421, -0.6327840685844421, -0.6327840685844421, -0.6327840685844421, -0.6327840685844421, -0.6327840685844421, -0.6327840685844421, -0.6327840685844421, -0.6327840685844421, -0.6327840685844421, -0.6327840685844421, -0.6327840685844421, -0.6327840685844421, -0.6327840685844421, -0.6327840685844421, -0.6327840685844421, -0.6327840685844421, -0.6327840685844421, -0.6327840685844421, -0.6327840685844421, -0.6327840685844421, -0.6327840685844421, -0.6327840685844421, -0.6327840685844421, -0.6327840685844421, -0.6327840685844421]}, "gradients/lin2.bias": {"_type": "histogram", "values": [0.0, 0.0, 0.0, 0.0, 0.0, 0.0, 0.0, 0.0, 0.0, 0.0, 0.0, 0.0, 0.0, 0.0, 0.0, 0.0, 0.0, 0.0, 0.0, 0.0, 0.0, 0.0, 0.0, 0.0, 0.0, 0.0, 0.0, 0.0, 0.0, 0.0, 0.0, 0.0, 1.0, 0.0, 0.0, 0.0, 0.0, 0.0, 0.0, 0.0, 0.0, 0.0, 0.0, 0.0, 0.0, 0.0, 0.0, 0.0, 0.0, 0.0, 0.0, 0.0, 0.0, 0.0, 0.0, 0.0, 0.0, 0.0, 0.0, 0.0, 0.0, 0.0, 0.0, 0.0], "bins": [0.005520387087017298, 0.005520387087017298, 0.005520387087017298, 0.005520387087017298, 0.005520387087017298, 0.005520387087017298, 0.005520387087017298, 0.005520387087017298, 0.005520387087017298, 0.005520387087017298, 0.005520387087017298, 0.005520387087017298, 0.005520387087017298, 0.005520387087017298, 0.005520387087017298, 0.005520387087017298, 0.005520387087017298, 0.005520387087017298, 0.005520387087017298, 0.005520387087017298, 0.005520387087017298, 0.005520387087017298, 0.005520387087017298, 0.005520387087017298, 0.005520387087017298, 0.005520387087017298, 0.005520387087017298, 0.005520387087017298, 0.005520387087017298, 0.005520387087017298, 0.005520387087017298, 0.005520387087017298, 0.005520387087017298, 0.005520387087017298, 0.005520387087017298, 0.005520387087017298, 0.005520387087017298, 0.005520387087017298, 0.005520387087017298, 0.005520387087017298, 0.005520387087017298, 0.005520387087017298, 0.005520387087017298, 0.005520387087017298, 0.005520387087017298, 0.005520387087017298, 0.005520387087017298, 0.005520387087017298, 0.005520387087017298, 0.005520387087017298, 0.005520387087017298, 0.005520387087017298, 0.005520387087017298, 0.005520387087017298, 0.005520387087017298, 0.005520387087017298, 0.005520387087017298, 0.005520387087017298, 0.005520387087017298, 0.005520387087017298, 0.005520387087017298, 0.005520387087017298, 0.005520387087017298, 0.005520387087017298, 0.005520387087017298]}, "gradients/lin2.weight": {"_type": "histogram", "values": [108.0, 1.0, 0.0, 0.0, 1.0, 0.0, 0.0, 1.0, 0.0, 2.0, 0.0, 0.0, 0.0, 1.0, 0.0, 1.0, 0.0, 0.0, 0.0, 0.0, 0.0, 0.0, 0.0, 0.0, 0.0, 0.0, 0.0, 0.0, 0.0, 0.0, 0.0, 0.0, 0.0, 0.0, 0.0, 0.0, 0.0, 0.0, 0.0, 0.0, 0.0, 1.0, 0.0, 0.0, 0.0, 0.0, 0.0, 0.0, 0.0, 0.0, 0.0, 0.0, 0.0, 0.0, 0.0, 0.0, 0.0, 0.0, 0.0, 0.0, 0.0, 0.0, 0.0, 1.0], "bins": [0.0, 0.0008285603835247457, 0.0016571207670494914, 0.002485681092366576, 0.003314241534098983, 0.004142801743000746, 0.004971362184733152, 0.005799922626465559, 0.006628483068197966, 0.007457043509930372, 0.008285603486001492, 0.009114163927733898, 0.009942724369466305, 0.010771284811198711, 0.011599845252931118, 0.012428405694663525, 0.013256966136395931, 0.014085526578128338, 0.014914087019860744, 0.015742646530270576, 0.016571206972002983, 0.01739976741373539, 0.018228327855467796, 0.019056888297200203, 0.01988544873893261, 0.020714009180665016, 0.021542569622397423, 0.02237113006412983, 0.023199690505862236, 0.024028250947594643, 0.02485681138932705, 0.025685371831059456, 0.026513932272791862, 0.02734249271452427, 0.028171053156256676, 0.028999613597989082, 0.02982817403972149, 0.030656734481453896, 0.03148529306054115, 0.03231385350227356, 0.033142413944005966, 0.03397097438573837, 0.03479953482747078, 0.035628095269203186, 0.03645665571093559, 0.037285216152668, 0.038113776594400406, 0.03894233703613281, 0.03977089747786522, 0.040599457919597626, 0.04142801836133003, 0.04225657880306244, 0.043085139244794846, 0.04391369968652725, 0.04474226012825966, 0.045570820569992065, 0.04639938101172447, 0.04722794145345688, 0.048056501895189285, 0.04888506233692169, 0.0497136227786541, 0.050542183220386505, 0.05137074366211891, 0.05219930410385132, 0.053027864545583725]}, "gradients/lin1.bias": {"_type": "histogram", "values": [1.0, 0.0, 0.0, 0.0, 0.0, 0.0, 0.0, 0.0, 0.0, 0.0, 0.0, 0.0, 0.0, 1.0, 0.0, 0.0, 1.0, 0.0, 0.0, 0.0, 0.0, 0.0, 1.0, 0.0, 0.0, 0.0, 0.0, 0.0, 0.0, 0.0, 0.0, 1.0, 1.0, 1.0, 106.0, 0.0, 0.0, 0.0, 0.0, 0.0, 0.0, 0.0, 0.0, 0.0, 0.0, 0.0, 0.0, 0.0, 0.0, 1.0, 0.0, 1.0, 0.0, 1.0, 0.0, 0.0, 0.0, 0.0, 0.0, 0.0, 0.0, 0.0, 0.0, 1.0], "bins": [-0.0034850009251385927, -0.0033843605779111385, -0.0032837199978530407, -0.003183079417794943, -0.0030824390705674887, -0.0029817987233400345, -0.0028811581432819366, -0.002780517563223839, -0.0026798772159963846, -0.0025792368687689304, -0.0024785962887108326, -0.0023779557086527348, -0.0022773153614252806, -0.0021766750141978264, -0.0020760344341397285, -0.0019753938540816307, -0.0018747535068541765, -0.0017741130432114005, -0.0016734725795686245, -0.0015728321159258485, -0.0014721916522830725, -0.0013715511886402965, -0.0012709107249975204, -0.0011702702613547444, -0.0010696297977119684, -0.0009689893340691924, -0.0008683488704264164, -0.0007677084067836404, -0.0006670679431408644, -0.0005664274794980884, -0.00046578701585531235, -0.00036514655221253633, -0.000264506321400404, -0.00016386585775762796, -6.322539411485195e-05, 3.741506952792406e-05, 0.00013805553317070007, 0.00023869599681347609, 0.0003393364604562521, 0.0004399769240990281, 0.0005406173877418041, 0.0006412578513845801, 0.0007418983150273561, 0.0008425387786701322, 0.0009431792423129082, 0.0010438197059556842, 0.0011444601695984602, 0.0012451006332412362, 0.0013457410968840122, 0.0014463815605267882, 0.0015470220241695642, 0.0016476624878123403, 0.0017483029514551163, 0.0018489434150978923, 0.0019495838787406683, 0.0020502242259681225, 0.0021508648060262203, 0.002251505386084318, 0.0023521457333117723, 0.0024527860805392265, 0.0025534266605973244, 0.002654067240655422, 0.0027547075878828764, 0.0028553479351103306, 0.0029559885151684284]}, "gradients/lin1.weight": {"_type": "histogram", "values": [1.0, 0.0, 0.0, 0.0, 0.0, 0.0, 0.0, 1.0, 0.0, 0.0, 0.0, 0.0, 0.0, 1.0, 1.0, 0.0, 2.0, 2.0, 0.0, 1.0, 1.0, 2.0, 3.0, 5.0, 4.0, 3.0, 4.0, 12.0, 12.0, 10.0, 24.0, 15.0, 46.0, 139.0, 13104.0, 144.0, 39.0, 29.0, 20.0, 15.0, 13.0, 6.0, 5.0, 6.0, 4.0, 4.0, 0.0, 2.0, 1.0, 2.0, 1.0, 2.0, 0.0, 1.0, 0.0, 0.0, 0.0, 1.0, 0.0, 0.0, 0.0, 0.0, 0.0, 1.0], "bins": [-0.06311709433794022, -0.06129377335309982, -0.05947045236825943, -0.05764713138341904, -0.055823810398578644, -0.05400048941373825, -0.05217716842889786, -0.050353847444057465, -0.04853052645921707, -0.04670720547437668, -0.044883884489536285, -0.04306056350469589, -0.0412372425198555, -0.039413921535015106, -0.03759060055017471, -0.03576727956533432, -0.033943962305784225, -0.03212064132094383, -0.03029732033610344, -0.028473999351263046, -0.026650678366422653, -0.02482735924422741, -0.023004038259387016, -0.021180717274546623, -0.01935739628970623, -0.017534075304865837, -0.015710754320025444, -0.013887434266507626, -0.012064113281667233, -0.01024079229682684, -0.008417472243309021, -0.006594151258468628, -0.004770833998918533, -0.002947513246908784, -0.0011241924948990345, 0.0006991282571107149, 0.0025224490091204643, 0.004345769993960857, 0.006169090513139963, 0.007992411032319069, 0.009815732017159462, 0.011639053001999855, 0.013462373986840248, 0.015285694040358067, 0.017109014093875885, 0.018932335078716278, 0.02075565606355667, 0.022578977048397064, 0.024402298033237457, 0.02622561901807785, 0.028048940002918243, 0.029872260987758636, 0.03169558197259903, 0.03351890295743942, 0.035342223942279816, 0.03716554492712021, 0.0389888659119606, 0.040812186896800995, 0.04263550788164139, 0.04445882886648178, 0.046282149851322174, 0.04810547083616257, 0.04992879182100296, 0.05175211280584335, 0.05357543006539345]}, "gradients/conv_layers.2.nn.3.bias": {"_type": "histogram", "values": [1.0, 0.0, 0.0, 0.0, 0.0, 1.0, 0.0, 0.0, 0.0, 0.0, 2.0, 0.0, 0.0, 0.0, 0.0, 0.0, 0.0, 0.0, 0.0, 0.0, 0.0, 0.0, 0.0, 1.0, 1.0, 0.0, 0.0, 0.0, 0.0, 0.0, 0.0, 0.0, 0.0, 1.0, 1.0, 0.0, 0.0, 0.0, 0.0, 0.0, 0.0, 0.0, 0.0, 0.0, 0.0, 0.0, 1.0, 0.0, 1.0, 0.0, 1.0, 0.0, 0.0, 0.0, 0.0, 0.0, 0.0, 0.0, 0.0, 0.0, 0.0, 0.0, 0.0, 2.0], "bins": [-0.05224747210741043, -0.050600335001945496, -0.04895319789648056, -0.04730605706572533, -0.04565891996026039, -0.044011782854795456, -0.04236464574933052, -0.04071750491857529, -0.03907036781311035, -0.037423230707645416, -0.03577609360218048, -0.03412895277142525, -0.03248181566596031, -0.030834678560495377, -0.029187539592385292, -0.027540402486920357, -0.02589326538145542, -0.024246128275990486, -0.0225989893078804, -0.020951852202415466, -0.019304713234305382, -0.017657576128840446, -0.016010437160730362, -0.014363300055265427, -0.012716162018477917, -0.011069023981690407, -0.009421885944902897, -0.007774748373776674, -0.006127610336989164, -0.0044804723002016544, -0.002833334496244788, -0.0011861965758726, 0.000460941344499588, 0.002108079381287098, 0.003755217185243964, 0.0054023549892008305, 0.00704949302598834, 0.008696630597114563, 0.010343768633902073, 0.011990906670689583, 0.013638044707477093, 0.015285182744264603, 0.016932319849729538, 0.018579458817839622, 0.020226595923304558, 0.021873734891414642, 0.023520871996879578, 0.025168010964989662, 0.026815148070454597, 0.028462285175919533, 0.030109424144029617, 0.03175656124949455, 0.03340369835495949, 0.03505083918571472, 0.03669797629117966, 0.03834511339664459, 0.03999225050210953, 0.04163938760757446, 0.0432865247130394, 0.04493366554379463, 0.04658080264925957, 0.0482279397547245, 0.04987507686018944, 0.05152221769094467, 0.05316935479640961]}, "gradients/conv_layers.2.nn.3.weight": {"_type": "histogram", "values": [2.0, 0.0, 0.0, 1.0, 0.0, 0.0, 1.0, 1.0, 1.0, 0.0, 4.0, 1.0, 1.0, 2.0, 2.0, 0.0, 5.0, 8.0, 4.0, 9.0, 63.0, 20.0, 9.0, 2.0, 4.0, 1.0, 4.0, 1.0, 1.0, 4.0, 2.0, 0.0, 2.0, 2.0, 1.0, 1.0, 0.0, 1.0, 3.0, 2.0, 0.0, 0.0, 1.0, 0.0, 0.0, 0.0, 0.0, 0.0, 0.0, 1.0, 0.0, 0.0, 1.0, 0.0, 0.0, 0.0, 0.0, 0.0, 0.0, 0.0, 0.0, 0.0, 0.0, 1.0], "bins": [-0.056348539888858795, -0.05365756154060364, -0.05096658319234848, -0.04827560484409332, -0.045584626495838165, -0.04289364442229271, -0.04020266607403755, -0.037511687725782394, -0.03482070937752724, -0.03212973102927208, -0.029438752681016922, -0.026747772470116615, -0.024056794121861458, -0.0213658157736063, -0.018674835562705994, -0.015983857214450836, -0.013292878866195679, -0.010601900517940521, -0.00791092123836279, -0.005219942424446344, -0.0025289636105298996, 0.00016201520338654518, 0.00285299401730299, 0.005543972831219435, 0.00823495164513588, 0.010925929993391037, 0.013616909272968769, 0.0163078885525465, 0.01899886690080166, 0.021689845249056816, 0.024380825459957123, 0.02707180380821228, 0.029762782156467438, 0.032453760504722595, 0.03514473885297775, 0.03783571720123291, 0.04052669554948807, 0.043217677623033524, 0.04590865597128868, 0.04859963431954384, 0.051290612667798996, 0.05398159101605415, 0.05667256936430931, 0.05936354771256447, 0.062054529786109924, 0.06474550813436508, 0.06743648648262024, 0.0701274648308754, 0.07281844317913055, 0.07550942152738571, 0.07820039987564087, 0.08089137822389603, 0.08358235657215118, 0.08627333492040634, 0.0889643132686615, 0.09165529161691666, 0.09434626996517181, 0.09703724831342697, 0.09972822666168213, 0.10241920500993729, 0.10511018335819244, 0.1078011617064476, 0.11049214005470276, 0.11318311840295792, 0.11587410420179367]}, "gradients/conv_layers.2.nn.1.weight": {"_type": "histogram", "values": [1.0, 0.0, 0.0, 0.0, 0.0, 1.0, 0.0, 0.0, 0.0, 0.0, 0.0, 0.0, 0.0, 0.0, 0.0, 0.0, 0.0, 0.0, 0.0, 0.0, 0.0, 0.0, 0.0, 1.0, 2.0, 0.0, 0.0, 0.0, 0.0, 0.0, 1.0, 1.0, 0.0, 0.0, 0.0, 0.0, 0.0, 0.0, 0.0, 0.0, 1.0, 0.0, 0.0, 1.0, 1.0, 0.0, 0.0, 0.0, 0.0, 0.0, 0.0, 0.0, 0.0, 0.0, 1.0, 1.0, 0.0, 0.0, 0.0, 0.0, 0.0, 0.0, 0.0, 1.0], "bins": [-0.04480970278382301, -0.04288531094789505, -0.04096091911196709, -0.039036527276039124, -0.03711213544011116, -0.0351877436041832, -0.033263351768255234, -0.03133895993232727, -0.029414568096399307, -0.027490176260471344, -0.02556578442454338, -0.023641392588615417, -0.021717000752687454, -0.01979260891675949, -0.017868217080831528, -0.015943825244903564, -0.014019433408975601, -0.012095041573047638, -0.010170649737119675, -0.008246257901191711, -0.006321866065263748, -0.004397474229335785, -0.0024730823934078217, -0.0005486905574798584, 0.0013757012784481049, 0.003300093114376068, 0.005224484950304031, 0.007148876786231995, 0.009073268622159958, 0.010997660458087921, 0.012922052294015884, 0.014846444129943848, 0.016770832240581512, 0.018695224076509476, 0.02061961591243744, 0.022544007748365402, 0.024468399584293365, 0.02639279142022133, 0.028317183256149292, 0.030241575092077255, 0.03216596692800522, 0.03409035876393318, 0.036014750599861145, 0.03793914243578911, 0.03986353427171707, 0.041787926107645035, 0.043712317943573, 0.04563670977950096, 0.047561101615428925, 0.04948549345135689, 0.05140988528728485, 0.053334277123212814, 0.05525866895914078, 0.05718306079506874, 0.059107452630996704, 0.06103184446692467, 0.06295623630285263, 0.0648806244134903, 0.06680501997470856, 0.06872941553592682, 0.07065380364656448, 0.07257819175720215, 0.07450258731842041, 0.07642698287963867, 0.07835137099027634]}, "gradients/conv_layers.2.nn.1.bias": {"_type": "histogram", "values": [1.0, 0.0, 0.0, 0.0, 0.0, 0.0, 0.0, 0.0, 0.0, 0.0, 0.0, 0.0, 0.0, 0.0, 0.0, 0.0, 0.0, 0.0, 0.0, 0.0, 0.0, 0.0, 0.0, 0.0, 1.0, 1.0, 0.0, 0.0, 0.0, 1.0, 0.0, 0.0, 0.0, 0.0, 0.0, 0.0, 0.0, 0.0, 0.0, 1.0, 1.0, 0.0, 1.0, 0.0, 1.0, 0.0, 0.0, 0.0, 0.0, 0.0, 0.0, 0.0, 0.0, 1.0, 0.0, 0.0, 0.0, 2.0, 0.0, 0.0, 1.0, 0.0, 0.0, 1.0], "bins": [-0.11801676452159882, -0.11494173854589462, -0.11186671257019043, -0.10879168659448624, -0.10571666061878204, -0.10264162719249725, -0.09956660121679306, -0.09649157524108887, -0.09341654926538467, -0.09034152328968048, -0.08726649731397629, -0.0841914713382721, -0.0811164379119873, -0.07804141193628311, -0.07496638596057892, -0.07189135998487473, -0.06881633400917053, -0.06574130803346634, -0.06266628205776215, -0.059591252356767654, -0.05651622638106346, -0.05344120040535927, -0.05036617070436478, -0.047291144728660583, -0.04421611875295639, -0.0411410927772522, -0.038066066801548004, -0.03499103710055351, -0.03191601112484932, -0.028840985149145126, -0.025765957310795784, -0.02269092947244644, -0.01961589604616165, -0.01654087007045746, -0.013465842232108116, -0.010390815325081348, -0.007315788418054581, -0.004240761511027813, -0.0011657346040010452, 0.0019092923030257225, 0.00498431921005249, 0.008059346117079258, 0.011134373024106026, 0.014209399931132793, 0.01728442683815956, 0.020359452813863754, 0.023434480652213097, 0.02650950849056244, 0.029584534466266632, 0.032659560441970825, 0.03573458641767502, 0.03880961611866951, 0.0418846420943737, 0.044959668070077896, 0.04803469777107239, 0.05110972374677658, 0.054184749722480774, 0.05725977569818497, 0.06033480167388916, 0.06340982764959335, 0.06648485362529755, 0.06955988705158234, 0.07263491302728653, 0.07570993900299072, 0.07878496497869492]}, "gradients/conv_layers.2.nn.0.bias": {"_type": "histogram", "values": [1.0, 0.0, 0.0, 0.0, 0.0, 0.0, 0.0, 0.0, 0.0, 0.0, 0.0, 0.0, 0.0, 0.0, 0.0, 0.0, 0.0, 0.0, 0.0, 0.0, 0.0, 0.0, 0.0, 0.0, 0.0, 0.0, 0.0, 0.0, 0.0, 0.0, 0.0, 0.0, 1.0, 0.0, 0.0, 0.0, 0.0, 0.0, 1.0, 0.0, 0.0, 1.0, 2.0, 0.0, 0.0, 0.0, 0.0, 0.0, 0.0, 0.0, 1.0, 1.0, 0.0, 0.0, 3.0, 0.0, 0.0, 0.0, 0.0, 1.0, 0.0, 0.0, 0.0, 1.0], "bins": [-1.5832483768463135e-08, -1.554872142150998e-08, -1.5264959074556828e-08, -1.4981196727603674e-08, -1.469743438065052e-08, -1.4413672033697367e-08, -1.4129909686744213e-08, -1.384614733979106e-08, -1.3562384992837906e-08, -1.3278622645884752e-08, -1.2994860298931599e-08, -1.2711097951978445e-08, -1.2427335605025291e-08, -1.2143573258072138e-08, -1.1859810911118984e-08, -1.157604856416583e-08, -1.1292286217212677e-08, -1.1008523870259523e-08, -1.072476152330637e-08, -1.0440999176353216e-08, -1.0157236829400063e-08, -9.873474482446909e-09, -9.589712135493755e-09, -9.305949788540602e-09, -9.022187441587448e-09, -8.738425094634295e-09, -8.454662747681141e-09, -8.170900400727987e-09, -7.887138053774834e-09, -7.60337570682168e-09, -7.3196133598685265e-09, -7.035851012915373e-09, -6.752088665962219e-09, -6.468326319009066e-09, -6.184563972055912e-09, -5.900801625102758e-09, -5.617039278149605e-09, -5.333276931196451e-09, -5.0495145842432976e-09, -4.765752237290144e-09, -4.48198989033699e-09, -4.198227543383837e-09, -3.914465196430683e-09, -3.6307028494775295e-09, -3.346940502524376e-09, -3.0631781555712223e-09, -2.7794158086180687e-09, -2.495653461664915e-09, -2.2118911147117615e-09, -1.928128767758608e-09, -1.6443664208054543e-09, -1.3606040738523006e-09, -1.076841726899147e-09, -7.930793799459934e-10, -5.093170329928398e-10, -2.255546860396862e-10, 5.820766091346741e-11, 3.41970007866621e-10, 6.257323548197746e-10, 9.094947017729282e-10, 1.1932570487260818e-09, 1.4770193956792355e-09, 1.760781742632389e-09, 2.0445440895855427e-09, 2.3283064365386963e-09]}, "gradients/conv_layers.2.nn.0.weight": {"_type": "histogram", "values": [1.0, 0.0, 0.0, 0.0, 0.0, 0.0, 0.0, 0.0, 0.0, 0.0, 0.0, 0.0, 0.0, 0.0, 0.0, 0.0, 0.0, 0.0, 0.0, 0.0, 0.0, 0.0, 2.0, 0.0, 0.0, 0.0, 0.0, 0.0, 0.0, 0.0, 0.0, 1.0, 0.0, 0.0, 0.0, 0.0, 0.0, 2.0, 1.0, 0.0, 1.0, 3.0, 0.0, 0.0, 0.0, 2.0, 4.0, 8.0, 5.0, 14.0, 34.0, 17.0, 17.0, 18.0, 10.0, 10.0, 6.0, 2.0, 3.0, 3.0, 0.0, 1.0, 0.0, 4.0], "bins": [-0.1202351450920105, -0.11788157373666763, -0.11552800238132477, -0.1131744310259819, -0.11082085967063904, -0.10846729576587677, -0.1061137244105339, -0.10376015305519104, -0.10140658169984818, -0.09905301034450531, -0.09669943898916245, -0.09434586763381958, -0.09199230372905731, -0.08963873237371445, -0.08728516101837158, -0.08493158966302872, -0.08257801830768585, -0.08022444695234299, -0.07787087559700012, -0.07551730424165726, -0.07316373288631439, -0.07081016898155212, -0.06845659762620926, -0.0661030262708664, -0.06374945491552353, -0.061395883560180664, -0.0590423122048378, -0.05668874457478523, -0.05433517321944237, -0.0519816018640995, -0.049628034234046936, -0.04727446287870407, -0.04492088407278061, -0.042567312717437744, -0.04021374136209488, -0.03786017373204231, -0.03550660237669945, -0.03315303102135658, -0.030799461528658867, -0.02844589203596115, -0.026092320680618286, -0.02373874932527542, -0.021385179832577705, -0.01903161033987999, -0.016678038984537125, -0.014324468560516834, -0.011970898136496544, -0.009617327712476254, -0.007263757288455963, -0.004910186864435673, -0.0025566164404153824, -0.000203046016395092, 0.0021505244076251984, 0.004504094831645489, 0.006857665255665779, 0.00921123567968607, 0.01156480610370636, 0.01391837652772665, 0.01627194695174694, 0.018625516444444656, 0.02097908779978752, 0.023332659155130386, 0.025686228647828102, 0.028039798140525818, 0.030393369495868683]}, "gradients/conv_layers.1.nn.3.bias": {"_type": "histogram", "values": [1.0, 0.0, 0.0, 0.0, 1.0, 0.0, 0.0, 0.0, 1.0, 0.0, 0.0, 0.0, 0.0, 0.0, 0.0, 0.0, 0.0, 0.0, 0.0, 0.0, 0.0, 0.0, 0.0, 0.0, 1.0, 0.0, 0.0, 0.0, 0.0, 1.0, 0.0, 0.0, 1.0, 0.0, 0.0, 2.0, 1.0, 0.0, 0.0, 0.0, 0.0, 0.0, 2.0, 0.0, 0.0, 0.0, 0.0, 1.0, 0.0, 0.0, 0.0, 0.0, 0.0, 0.0, 0.0, 0.0, 0.0, 0.0, 0.0, 0.0, 0.0, 0.0, 0.0, 1.0], "bins": [-0.08290942013263702, -0.0805458202958107, -0.07818222045898438, -0.07581862807273865, -0.07345502823591232, -0.071091428399086, -0.06872782856225967, -0.06636423617601395, -0.06400063633918762, -0.0616370365023613, -0.05927344039082527, -0.05690984055399895, -0.05454624444246292, -0.0521826446056366, -0.04981904849410057, -0.047455448657274246, -0.04509184882044792, -0.0427282489836216, -0.04036465287208557, -0.03800105303525925, -0.03563745692372322, -0.033273857086896896, -0.03091025911271572, -0.028546661138534546, -0.02618306316435337, -0.023819465190172195, -0.02145586721599102, -0.019092269241809845, -0.01672866940498352, -0.01436507236212492, -0.01200147345662117, -0.009637875482439995, -0.00727427750825882, -0.004910679534077644, -0.002547081094235182, -0.00018348288722336292, 0.002180115319788456, 0.004543713293969631, 0.006907311733812094, 0.009270910173654556, 0.011634508147835732, 0.013998106122016907, 0.016361704096198082, 0.018725302070379257, 0.02108890190720558, 0.023452499881386757, 0.025816097855567932, 0.028179695829749107, 0.030543293803930283, 0.03290689364075661, 0.03527048975229263, 0.03763408958911896, 0.039997685700654984, 0.04236128553748131, 0.044724881649017334, 0.04708848148584366, 0.04945208132266998, 0.05181568115949631, 0.05417927727103233, 0.05654287710785866, 0.058906473219394684, 0.06127007305622101, 0.06363367289304733, 0.06599726527929306, 0.06836086511611938]}, "gradients/conv_layers.1.nn.3.weight": {"_type": "histogram", "values": [1.0, 0.0, 0.0, 1.0, 0.0, 0.0, 0.0, 0.0, 0.0, 0.0, 1.0, 0.0, 0.0, 0.0, 1.0, 0.0, 0.0, 0.0, 0.0, 1.0, 0.0, 1.0, 1.0, 1.0, 0.0, 0.0, 0.0, 1.0, 0.0, 1.0, 1.0, 4.0, 1.0, 0.0, 3.0, 0.0, 3.0, 4.0, 2.0, 6.0, 10.0, 16.0, 10.0, 46.0, 12.0, 5.0, 2.0, 8.0, 3.0, 4.0, 1.0, 2.0, 5.0, 2.0, 0.0, 3.0, 1.0, 1.0, 1.0, 1.0, 1.0, 0.0, 0.0, 1.0], "bins": [-0.10090654343366623, -0.09860654920339584, -0.09630655497312546, -0.09400655329227448, -0.09170655906200409, -0.0894065648317337, -0.08710657060146332, -0.08480656892061234, -0.08250657469034195, -0.08020658046007156, -0.07790658622980118, -0.0756065845489502, -0.07330659031867981, -0.07100659608840942, -0.06870660185813904, -0.06640660017728806, -0.06410661339759827, -0.06180661916732788, -0.0595066212117672, -0.05720662698149681, -0.05490662902593613, -0.05260663479566574, -0.05030663684010506, -0.04800664260983467, -0.04570664465427399, -0.0434066504240036, -0.04110665246844292, -0.03880665823817253, -0.03650666028261185, -0.03420666605234146, -0.03190666809678078, -0.02960667386651039, -0.02730667218565941, -0.025006676092743874, -0.02270667999982834, -0.020406683906912804, -0.01810668781399727, -0.015806693583726883, -0.013506697490811348, -0.011206701397895813, -0.008906705304980278, -0.006606709212064743, -0.004306713584810495, -0.002006717724725604, 0.00029327813535928726, 0.0025932739954441786, 0.00489326985552907, 0.0071932654827833176, 0.009493261575698853, 0.011793257668614388, 0.014093253761529922, 0.016393249854445457, 0.018693245947360992, 0.020993240177631378, 0.023293236270546913, 0.025593232363462448, 0.027893228456377983, 0.030193224549293518, 0.032493218779563904, 0.03479321673512459, 0.037093210965394974, 0.03939320892095566, 0.041693203151226044, 0.04399320110678673, 0.046293195337057114]}, "gradients/conv_layers.1.nn.1.weight": {"_type": "histogram", "values": [1.0, 0.0, 0.0, 0.0, 1.0, 0.0, 0.0, 0.0, 0.0, 0.0, 1.0, 0.0, 0.0, 0.0, 0.0, 0.0, 0.0, 0.0, 0.0, 0.0, 0.0, 1.0, 1.0, 0.0, 1.0, 0.0, 0.0, 0.0, 0.0, 0.0, 0.0, 0.0, 1.0, 0.0, 1.0, 1.0, 0.0, 1.0, 0.0, 1.0, 0.0, 0.0, 0.0, 0.0, 0.0, 0.0, 1.0, 0.0, 0.0, 0.0, 0.0, 0.0, 0.0, 0.0, 0.0, 0.0, 0.0, 0.0, 0.0, 0.0, 0.0, 0.0, 0.0, 1.0], "bins": [-0.035335347056388855, -0.034124478697776794, -0.03291361406445503, -0.03170274570584297, -0.03049187734723091, -0.029281010851264, -0.02807014249265194, -0.026859275996685028, -0.025648407638072968, -0.024437541142106056, -0.023226672783493996, -0.022015806287527084, -0.020804937928915024, -0.019594071432948112, -0.018383203074336052, -0.01717233657836914, -0.01596147008240223, -0.014750602655112743, -0.013539735227823257, -0.012328867800533772, -0.011118000373244286, -0.009907133877277374, -0.008696266449987888, -0.007485399022698402, -0.0062745315954089165, -0.0050636641681194305, -0.0038527969736605883, -0.002641929779201746, -0.00143106235191226, -0.00022019504103809595, 0.0009906722698360682, 0.0022015394642949104, 0.0034124068915843964, 0.004623274318873882, 0.005834141746163368, 0.007045008707791567, 0.00825587660074234, 0.009466743096709251, 0.010677610523998737, 0.011888477951288223, 0.01309934537857771, 0.014310212805867195, 0.015521080233156681, 0.016731947660446167, 0.01794281415641308, 0.01915368251502514, 0.02036454901099205, 0.02157541736960411, 0.022786283865571022, 0.023997150361537933, 0.025208018720149994, 0.026418885216116905, 0.027629753574728966, 0.028840620070695877, 0.030051488429307938, 0.03126235678792, 0.03247322142124176, 0.03368408977985382, 0.03489495441317558, 0.03610582277178764, 0.037316691130399704, 0.038527559489011765, 0.03973842412233353, 0.04094929248094559, 0.04216016083955765]}, "gradients/conv_layers.1.nn.1.bias": {"_type": "histogram", "values": [2.0, 0.0, 0.0, 0.0, 0.0, 0.0, 0.0, 0.0, 0.0, 0.0, 0.0, 0.0, 0.0, 0.0, 0.0, 0.0, 0.0, 2.0, 0.0, 0.0, 1.0, 0.0, 0.0, 0.0, 0.0, 1.0, 0.0, 0.0, 0.0, 0.0, 0.0, 0.0, 0.0, 0.0, 0.0, 0.0, 1.0, 0.0, 0.0, 0.0, 0.0, 0.0, 0.0, 1.0, 0.0, 0.0, 1.0, 2.0, 0.0, 0.0, 0.0, 0.0, 0.0, 1.0, 0.0, 0.0, 0.0, 0.0, 0.0, 0.0, 0.0, 0.0, 0.0, 1.0], "bins": [-0.03211308270692825, -0.03079511970281601, -0.029477158561348915, -0.02815919555723667, -0.026841232553124428, -0.025523271411657333, -0.02420530840754509, -0.022887345403432846, -0.021569382399320602, -0.02025141939520836, -0.018933458253741264, -0.01761549524962902, -0.016297532245516777, -0.014979570172727108, -0.013661608099937439, -0.012343645095825195, -0.011025683954358101, -0.009707721881568432, -0.008389758877456188, -0.007071796804666519, -0.005753834266215563, -0.0044358717277646065, -0.003117909422144294, -0.0017999470001086593, -0.00048198457807302475, 0.0008359778439626098, 0.0021539402659982443, 0.003471902571618557, 0.004789865110069513, 0.00610782764852047, 0.007425789721310139, 0.008743752725422382, 0.010061714798212051, 0.01137967687100172, 0.012697639875113964, 0.014015601947903633, 0.015333564952015877, 0.01665152609348297, 0.017969489097595215, 0.01928745210170746, 0.020605415105819702, 0.021923378109931946, 0.02324133925139904, 0.024559302255511284, 0.025877265259623528, 0.027195226401090622, 0.028513189405202866, 0.02983115240931511, 0.031149113550782204, 0.0324670746922493, 0.03378503769636154, 0.035103000700473785, 0.03642096370458603, 0.03773892670869827, 0.039056889712810516, 0.04037484899163246, 0.041692811995744705, 0.04301077499985695, 0.04432873800396919, 0.045646701008081436, 0.04696466028690338, 0.048282623291015625, 0.04960058629512787, 0.05091854929924011, 0.052236512303352356]}, "gradients/conv_layers.1.nn.0.bias": {"_type": "histogram", "values": [1.0, 0.0, 0.0, 0.0, 0.0, 0.0, 0.0, 0.0, 0.0, 0.0, 0.0, 0.0, 0.0, 0.0, 0.0, 0.0, 0.0, 0.0, 0.0, 0.0, 0.0, 0.0, 0.0, 0.0, 1.0, 0.0, 0.0, 0.0, 1.0, 1.0, 0.0, 0.0, 1.0, 0.0, 0.0, 0.0, 0.0, 1.0, 0.0, 1.0, 0.0, 0.0, 0.0, 1.0, 1.0, 0.0, 1.0, 0.0, 1.0, 0.0, 0.0, 0.0, 1.0, 0.0, 0.0, 0.0, 0.0, 0.0, 0.0, 0.0, 0.0, 0.0, 0.0, 1.0], "bins": [-1.0244548320770264e-08, -1.0011717677116394e-08, -9.778887033462524e-09, -9.546056389808655e-09, -9.313225746154785e-09, -9.080395102500916e-09, -8.847564458847046e-09, -8.614733815193176e-09, -8.381903171539307e-09, -8.149072527885437e-09, -7.916241884231567e-09, -7.683411240577698e-09, -7.450580596923828e-09, -7.2177499532699585e-09, -6.984919309616089e-09, -6.752088665962219e-09, -6.51925802230835e-09, -6.28642737865448e-09, -6.05359673500061e-09, -5.820766091346741e-09, -5.587935447692871e-09, -5.3551048040390015e-09, -5.122274160385132e-09, -4.889443516731262e-09, -4.6566128730773926e-09, -4.423782229423523e-09, -4.190951585769653e-09, -3.958120942115784e-09, -3.725290298461914e-09, -3.4924596548080444e-09, -3.259629011154175e-09, -3.026798367500305e-09, -2.7939677238464355e-09, -2.561137080192566e-09, -2.3283064365386963e-09, -2.0954757928848267e-09, -1.862645149230957e-09, -1.6298145055770874e-09, -1.3969838619232178e-09, -1.1641532182693481e-09, -9.313225746154785e-10, -6.984919309616089e-10, -4.656612873077393e-10, -2.3283064365386963e-10, 0.0, 2.3283064365386963e-10, 4.656612873077393e-10, 6.984919309616089e-10, 9.313225746154785e-10, 1.1641532182693481e-09, 1.3969838619232178e-09, 1.6298145055770874e-09, 1.862645149230957e-09, 2.0954757928848267e-09, 2.3283064365386963e-09, 2.561137080192566e-09, 2.7939677238464355e-09, 3.026798367500305e-09, 3.259629011154175e-09, 3.4924596548080444e-09, 3.725290298461914e-09, 3.958120942115784e-09, 4.190951585769653e-09, 4.423782229423523e-09, 4.6566128730773926e-09]}, "gradients/conv_layers.1.nn.0.weight": {"_type": "histogram", "values": [1.0, 0.0, 0.0, 1.0, 0.0, 0.0, 0.0, 0.0, 1.0, 0.0, 2.0, 2.0, 0.0, 4.0, 1.0, 1.0, 3.0, 1.0, 9.0, 8.0, 4.0, 8.0, 18.0, 14.0, 12.0, 12.0, 15.0, 7.0, 8.0, 6.0, 3.0, 5.0, 3.0, 4.0, 2.0, 3.0, 1.0, 2.0, 0.0, 3.0, 0.0, 0.0, 1.0, 0.0, 1.0, 0.0, 0.0, 1.0, 1.0, 0.0, 0.0, 0.0, 0.0, 0.0, 0.0, 0.0, 0.0, 0.0, 0.0, 0.0, 0.0, 0.0, 0.0, 1.0], "bins": [-0.033426448702812195, -0.03206843510270119, -0.03071041963994503, -0.029352404177188873, -0.027994390577077866, -0.026636376976966858, -0.0252783615142107, -0.023920346051454544, -0.022562332451343536, -0.02120431885123253, -0.019846303388476372, -0.018488287925720215, -0.017130274325609207, -0.0157722607254982, -0.014414245262742043, -0.01305623073130846, -0.011698216199874878, -0.010340201668441296, -0.008982187137007713, -0.007624172605574131, -0.006266158074140549, -0.004908143542706966, -0.003550129011273384, -0.002192114479839802, -0.0008340999484062195, 0.0005239145830273628, 0.0018819291144609451, 0.0032399436458945274, 0.00459795817732811, 0.005955972708761692, 0.007313987240195274, 0.008672001771628857, 0.010030016303062439, 0.011388030834496021, 0.012746045365929604, 0.014104059897363186, 0.015462074428796768, 0.016820088028907776, 0.018178103491663933, 0.01953611895442009, 0.020894132554531097, 0.022252146154642105, 0.023610161617398262, 0.02496817708015442, 0.026326190680265427, 0.027684204280376434, 0.02904221974313259, 0.030400235205888748, 0.031758248805999756, 0.033116262406110764, 0.03447427600622177, 0.03583229333162308, 0.037190306931734085, 0.03854832053184509, 0.0399063378572464, 0.04126435145735741, 0.042622365057468414, 0.04398037865757942, 0.04533839225769043, 0.046696409583091736, 0.048054423183202744, 0.04941243678331375, 0.05077045410871506, 0.052128467708826065, 0.05348648130893707]}, "gradients/conv_layers.0.nn.3.bias": {"_type": "histogram", "values": [2.0, 0.0, 0.0, 0.0, 0.0, 0.0, 0.0, 0.0, 0.0, 0.0, 0.0, 0.0, 0.0, 1.0, 0.0, 0.0, 0.0, 0.0, 0.0, 0.0, 0.0, 1.0, 0.0, 0.0, 0.0, 0.0, 0.0, 0.0, 0.0, 1.0, 0.0, 2.0, 0.0, 0.0, 0.0, 0.0, 1.0, 0.0, 1.0, 0.0, 0.0, 0.0, 1.0, 0.0, 0.0, 0.0, 1.0, 0.0, 0.0, 0.0, 0.0, 0.0, 0.0, 0.0, 0.0, 0.0, 0.0, 0.0, 0.0, 0.0, 0.0, 0.0, 1.0, 1.0], "bins": [-0.048619695007801056, -0.04687255248427391, -0.045125409960746765, -0.04337826371192932, -0.041631121188402176, -0.03988397866487503, -0.03813683241605759, -0.03638968989253044, -0.034642547369003296, -0.03289540484547615, -0.031148260459303856, -0.02940111607313156, -0.027653973549604416, -0.02590683102607727, -0.024159686639904976, -0.02241254225373268, -0.020665399730205536, -0.01891825720667839, -0.017171112820506096, -0.015423969365656376, -0.013676825910806656, -0.011929682455956936, -0.010182539001107216, -0.008435395546257496, -0.006688252091407776, -0.004941108636558056, -0.003193965181708336, -0.0014468217268586159, 0.0003003217279911041, 0.002047465182840824, 0.003794608637690544, 0.005541752092540264, 0.007288895547389984, 0.009036039002239704, 0.010783182457089424, 0.012530325911939144, 0.014277469366788864, 0.01602461189031601, 0.017771756276488304, 0.0195189006626606, 0.021266043186187744, 0.02301318570971489, 0.024760330095887184, 0.02650747448205948, 0.028254617005586624, 0.03000175952911377, 0.03174890577793121, 0.03349604830145836, 0.035243190824985504, 0.03699033334851265, 0.038737475872039795, 0.04048462212085724, 0.042231764644384384, 0.04397890716791153, 0.04572605341672897, 0.04747319594025612, 0.049220338463783264, 0.05096748098731041, 0.052714623510837555, 0.054461769759655, 0.056208912283182144, 0.05795605480670929, 0.05970320105552673, 0.06145034357905388, 0.06319748610258102]}, "gradients/conv_layers.0.nn.3.weight": {"_type": "histogram", "values": [3.0, 0.0, 0.0, 1.0, 1.0, 2.0, 0.0, 1.0, 0.0, 2.0, 2.0, 4.0, 4.0, 3.0, 2.0, 3.0, 2.0, 0.0, 4.0, 3.0, 3.0, 2.0, 2.0, 8.0, 39.0, 8.0, 5.0, 7.0, 4.0, 3.0, 2.0, 8.0, 2.0, 3.0, 5.0, 2.0, 1.0, 0.0, 5.0, 1.0, 2.0, 2.0, 0.0, 2.0, 2.0, 1.0, 1.0, 1.0, 1.0, 2.0, 1.0, 1.0, 0.0, 0.0, 0.0, 2.0, 1.0, 0.0, 2.0, 0.0, 0.0, 0.0, 0.0, 1.0], "bins": [-0.03212425112724304, -0.030820399522781372, -0.029516547918319702, -0.028212694451212883, -0.026908842846751213, -0.025604991242289543, -0.024301137775182724, -0.022997286170721054, -0.021693434566259384, -0.020389582961797714, -0.019085731357336044, -0.017781877890229225, -0.016478026285767555, -0.015174174681305885, -0.01387032214552164, -0.012566469609737396, -0.011262618005275726, -0.009958766400814056, -0.008654913865029812, -0.007351061794906855, -0.006047209724783897, -0.00474335765466094, -0.003439505584537983, -0.0021356535144150257, -0.0008318014442920685, 0.00047205062583088875, 0.001775902695953846, 0.003079754766076803, 0.0043836068361997604, 0.005687458906322718, 0.006991310976445675, 0.00829516351222992, 0.00959901511669159, 0.01090286672115326, 0.012206719256937504, 0.013510571792721748, 0.014814423397183418, 0.016118275001645088, 0.017422128468751907, 0.018725980073213577, 0.020029831677675247, 0.021333683282136917, 0.022637534886598587, 0.023941388353705406, 0.025245239958167076, 0.026549091562628746, 0.027852945029735565, 0.029156796634197235, 0.030460648238658905, 0.031764499843120575, 0.033068351447582245, 0.034372203052043915, 0.035676054656505585, 0.03697990998625755, 0.03828376159071922, 0.03958761319518089, 0.04089146479964256, 0.04219531640410423, 0.0434991680085659, 0.04480301961302757, 0.04610687494277954, 0.04741072654724121, 0.04871457815170288, 0.05001842975616455, 0.05132228136062622]}, "gradients/conv_layers.0.nn.1.weight": {"_type": "histogram", "values": [1.0, 0.0, 0.0, 0.0, 0.0, 0.0, 0.0, 0.0, 0.0, 1.0, 0.0, 0.0, 0.0, 0.0, 0.0, 0.0, 0.0, 0.0, 0.0, 0.0, 0.0, 1.0, 0.0, 0.0, 2.0, 0.0, 0.0, 0.0, 0.0, 0.0, 1.0, 1.0, 0.0, 1.0, 0.0, 0.0, 0.0, 0.0, 0.0, 0.0, 0.0, 1.0, 0.0, 1.0, 0.0, 0.0, 0.0, 0.0, 0.0, 0.0, 0.0, 1.0, 0.0, 0.0, 0.0, 0.0, 0.0, 0.0, 0.0, 0.0, 0.0, 1.0, 0.0, 1.0], "bins": [-0.061115168035030365, -0.05916908010840416, -0.057222992181777954, -0.05527690798044205, -0.05333082005381584, -0.051384732127189636, -0.04943864420056343, -0.047492559999227524, -0.04554647207260132, -0.04360038414597511, -0.04165429621934891, -0.039708212018013, -0.037762124091386795, -0.03581603616476059, -0.033869948238134384, -0.03192386403679848, -0.029977774247527122, -0.028031686320900917, -0.02608560025691986, -0.024139512330293655, -0.0221934262663126, -0.020247338339686394, -0.018301252275705338, -0.016355164349079132, -0.014409077353775501, -0.01246299035847187, -0.01051690336316824, -0.008570816367864609, -0.006624728906899691, -0.00467864191159606, -0.0027325546834617853, -0.0007864675717428327, 0.00115961953997612, 0.003105706535279751, 0.005051793530583382, 0.0069978809915483, 0.008943967521190643, 0.010890055447816849, 0.01283614244312048, 0.01478222943842411, 0.016728315502405167, 0.018674403429031372, 0.02062048949301243, 0.022566577419638634, 0.02451266348361969, 0.026458751410245895, 0.02840483747422695, 0.030350925400853157, 0.03229701519012451, 0.03424310311675072, 0.03618919104337692, 0.03813527524471283, 0.040081363171339035, 0.04202745109796524, 0.043973539024591446, 0.04591962322592735, 0.04786571115255356, 0.049811799079179764, 0.05175788700580597, 0.053703971207141876, 0.05565005913376808, 0.05759614706039429, 0.05954223498702049, 0.0614883191883564, 0.0634344071149826]}, "gradients/conv_layers.0.nn.1.bias": {"_type": "histogram", "values": [1.0, 0.0, 2.0, 0.0, 0.0, 0.0, 0.0, 0.0, 0.0, 0.0, 0.0, 0.0, 0.0, 0.0, 0.0, 0.0, 0.0, 1.0, 0.0, 0.0, 1.0, 0.0, 0.0, 0.0, 0.0, 0.0, 0.0, 2.0, 0.0, 0.0, 0.0, 0.0, 0.0, 1.0, 0.0, 0.0, 0.0, 0.0, 0.0, 0.0, 0.0, 2.0, 1.0, 0.0, 0.0, 0.0, 0.0, 0.0, 0.0, 0.0, 0.0, 0.0, 0.0, 0.0, 1.0, 0.0, 0.0, 0.0, 0.0, 0.0, 0.0, 0.0, 0.0, 1.0], "bins": [-0.06845145672559738, -0.06603267788887024, -0.0636139065027237, -0.06119513139128685, -0.058776356279850006, -0.056357577443122864, -0.05393880233168602, -0.051520027220249176, -0.04910125210881233, -0.04668247699737549, -0.044263701885938644, -0.0418449267745018, -0.03942614793777466, -0.037007372826337814, -0.03458859771490097, -0.03216982260346413, -0.029751047492027283, -0.02733227238059044, -0.024913497269153595, -0.022494720295071602, -0.020075945183634758, -0.017657170072197914, -0.015238394029438496, -0.012819617986679077, -0.010400842875242233, -0.00798206776380539, -0.005563291721045971, -0.0031445161439478397, -0.0007257405668497086, 0.0016930350102484226, 0.004111810587346554, 0.006530586164444685, 0.008949361741542816, 0.01136813685297966, 0.013786912895739079, 0.016205688938498497, 0.01862446404993534, 0.021043239161372185, 0.023462016135454178, 0.02588079124689102, 0.028299566358327866, 0.03071834146976471, 0.03313711658120155, 0.0355558916926384, 0.03797467052936554, 0.04039344564080238, 0.04281222075223923, 0.04523099586367607, 0.047649770975112915, 0.05006854608654976, 0.0524873211979866, 0.05490609630942345, 0.05732487142086029, 0.05974365025758743, 0.06216242536902428, 0.06458120048046112, 0.06699997186660767, 0.06941875070333481, 0.07183752208948135, 0.0742563009262085, 0.07667507231235504, 0.07909385114908218, 0.08151262253522873, 0.08393140137195587, 0.08635018020868301]}, "gradients/conv_layers.0.nn.0.bias": {"_type": "histogram", "values": [2.0, 2.0, 1.0, 1.0, 0.0, 2.0, 0.0, 0.0, 1.0, 0.0, 0.0, 0.0, 1.0, 0.0, 2.0, 0.0, 0.0, 0.0, 0.0, 0.0, 0.0, 0.0, 0.0, 0.0, 0.0, 0.0, 0.0, 0.0, 0.0, 0.0, 0.0, 0.0, 0.0, 0.0, 0.0, 0.0, 0.0, 0.0, 0.0, 0.0, 0.0, 0.0, 0.0, 0.0, 0.0, 0.0, 0.0, 0.0, 0.0, 0.0, 0.0, 0.0, 0.0, 0.0, 0.0, 0.0, 0.0, 0.0, 0.0, 0.0, 0.0, 0.0, 0.0, 1.0], "bins": [-6.984919309616089e-10, -4.911271389573812e-10, -2.837623469531536e-10, -7.639755494892597e-11, 1.3096723705530167e-10, 3.383320290595293e-10, 5.456968210637569e-10, 7.530616130679846e-10, 9.604264050722122e-10, 1.1677911970764399e-09, 1.3751559890806675e-09, 1.5825207810848951e-09, 1.7898855730891228e-09, 1.9972503650933504e-09, 2.204615157097578e-09, 2.4119799491018057e-09, 2.6193447411060333e-09, 2.826709533110261e-09, 3.0340743251144886e-09, 3.2414391171187162e-09, 3.448803909122944e-09, 3.6561687011271715e-09, 3.863533493131399e-09, 4.070898285135627e-09, 4.2782630771398544e-09, 4.485627869144082e-09, 4.69299266114831e-09, 4.900357453152537e-09, 5.107722245156765e-09, 5.315087037160993e-09, 5.52245182916522e-09, 5.729816621169448e-09, 5.9371814131736755e-09, 6.144546205177903e-09, 6.351910997182131e-09, 6.5592757891863585e-09, 6.766640581190586e-09, 6.974005373194814e-09, 7.181370165199041e-09, 7.388734957203269e-09, 7.596099749207497e-09, 7.803464541211724e-09, 8.010829333215952e-09, 8.21819412522018e-09, 8.425558917224407e-09, 8.632923709228635e-09, 8.840288501232862e-09, 9.04765329323709e-09, 9.255018085241318e-09, 9.462382877245545e-09, 9.669747669249773e-09, 9.877112461254e-09, 1.0084477253258228e-08, 1.0291842045262456e-08, 1.0499206837266684e-08, 1.0706571629270911e-08, 1.0913936421275139e-08, 1.1121301213279366e-08, 1.1328666005283594e-08, 1.1536030797287822e-08, 1.174339558929205e-08, 1.1950760381296277e-08, 1.2158125173300505e-08, 1.2365489965304732e-08, 1.257285475730896e-08]}, "gradients/conv_layers.0.nn.0.weight": {"_type": "histogram", "values": [1.0, 0.0, 0.0, 0.0, 0.0, 1.0, 0.0, 1.0, 0.0, 2.0, 0.0, 2.0, 0.0, 0.0, 10.0, 21.0, 4.0, 3.0, 1.0, 0.0, 1.0, 0.0, 1.0, 0.0, 0.0, 0.0, 1.0, 0.0, 0.0, 0.0, 1.0, 0.0, 0.0, 0.0, 0.0, 0.0, 0.0, 0.0, 0.0, 0.0, 0.0, 0.0, 0.0, 0.0, 1.0, 0.0, 0.0, 0.0, 0.0, 0.0, 0.0, 0.0, 0.0, 0.0, 0.0, 0.0, 0.0, 0.0, 0.0, 0.0, 0.0, 0.0, 0.0, 1.0], "bins": [-0.11843845993280411, -0.11058513820171356, -0.10273182392120361, -0.09487850219011307, -0.08702518045902252, -0.07917186617851257, -0.07131854444742203, -0.06346523016691208, -0.05561190843582153, -0.047758590430021286, -0.03990527242422104, -0.03205195069313049, -0.024198632687330246, -0.01634531468153, -0.008491994813084602, -0.0006386758759617805, 0.007214643061161041, 0.015067961998283863, 0.022921280935406685, 0.03077460080385208, 0.03862791880965233, 0.046481236815452576, 0.05433455854654312, 0.06218787655234337, 0.07004119455814362, 0.07789451628923416, 0.08574783056974411, 0.09360115230083466, 0.1014544665813446, 0.10930778831243515, 0.1171611100435257, 0.12501442432403564, 0.1328677535057068, 0.14072106778621674, 0.14857439696788788, 0.15642771124839783, 0.16428102552890778, 0.17213435471057892, 0.17998766899108887, 0.18784098327159882, 0.19569429755210876, 0.2035476118326187, 0.21140094101428986, 0.2192542552947998, 0.22710756957530975, 0.2349608987569809, 0.24281421303749084, 0.250667542219162, 0.25852084159851074, 0.2663741707801819, 0.27422747015953064, 0.2820807993412018, 0.2899341285228729, 0.2977874279022217, 0.3056407570838928, 0.31349408626556396, 0.3213474154472351, 0.32920074462890625, 0.337054044008255, 0.34490737318992615, 0.3527607023715973, 0.36061400175094604, 0.3684673309326172, 0.37632066011428833, 0.3841739594936371]}, "_wandb": {"runtime": 5590}}