{"epoch": 490, "train_acc": 86.84402627950361, "test_acc": 84.54769114307344, "loss": 0.28199806809425354, "_timestamp": 1681492866.195817, "_runtime": 3833.4014809131622, "_step": 50, "parameters/conv_layers.0.bias": {"_type": "histogram", "values": [2.0, 0.0, 0.0, 0.0, 1.0, 0.0, 1.0, 0.0, 0.0, 0.0, 0.0, 1.0, 0.0, 0.0, 0.0, 1.0, 2.0, 0.0, 1.0, 1.0, 0.0, 0.0, 2.0, 0.0, 0.0, 0.0, 0.0, 1.0, 1.0, 14.0, 0.0, 0.0, 0.0, 0.0, 1.0, 1.0, 1.0, 0.0, 0.0, 0.0, 1.0, 1.0, 0.0, 0.0, 0.0, 0.0, 0.0, 0.0, 0.0, 0.0, 1.0, 0.0, 0.0, 0.0, 0.0, 0.0, 0.0, 2.0, 0.0, 0.0, 1.0, 1.0, 0.0, 2.0], "bins": [-1.0569610595703125, -1.0209789276123047, -0.9849966764450073, -0.9490145444869995, -0.9130323529243469, -0.8770501613616943, -0.8410680294036865, -0.8050858378410339, -0.7691036462783813, -0.7331214547157288, -0.6971392631530762, -0.6611571311950684, -0.6251749396324158, -0.5891927480697632, -0.5532106161117554, -0.5172284245491028, -0.4812462329864502, -0.4452640414237976, -0.4092818796634674, -0.3732997179031372, -0.3373175263404846, -0.30133533477783203, -0.26535317301750183, -0.22937099635601044, -0.19338881969451904, -0.15740664303302765, -0.12142446637153625, -0.08544228971004486, -0.04946011304855347, -0.013477936387062073, 0.02250424027442932, 0.058486416935920715, 0.09446871280670166, 0.13045088946819305, 0.16643306612968445, 0.20241524279117584, 0.23839741945266724, 0.2743796110153198, 0.31036177277565, 0.3463439345359802, 0.3823261260986328, 0.4183083176612854, 0.4542904794216156, 0.4902726411819458, 0.5262548327445984, 0.562237024307251, 0.5982191562652588, 0.6342013478279114, 0.670183539390564, 0.7061657309532166, 0.7421479225158691, 0.778130054473877, 0.8141122460365295, 0.8500944375991821, 0.8860765695571899, 0.9220587611198425, 0.9580409526824951, 0.9940231442451477, 1.0300053358078003, 1.065987467765808, 1.1019697189331055, 1.1379518508911133, 1.173933982849121, 1.2099162340164185, 1.2458983659744263]}, "parameters/conv_layers.0.lin.weight": {"_type": "histogram", "values": [1.0, 0.0, 0.0, 0.0, 0.0, 0.0, 0.0, 0.0, 0.0, 0.0, 0.0, 0.0, 0.0, 0.0, 0.0, 0.0, 0.0, 0.0, 0.0, 0.0, 0.0, 0.0, 0.0, 0.0, 0.0, 0.0, 0.0, 0.0, 0.0, 0.0, 0.0, 0.0, 0.0, 0.0, 0.0, 0.0, 0.0, 0.0, 0.0, 0.0, 0.0, 0.0, 0.0, 0.0, 0.0, 0.0, 0.0, 0.0, 0.0, 0.0, 0.0, 0.0, 1.0, 2.0, 0.0, 2.0, 1.0, 2.0, 15.0, 96.0, 28.0, 6.0, 5.0, 1.0], "bins": [-37.22598648071289, -36.60212707519531, -35.978267669677734, -35.354408264160156, -34.730552673339844, -34.106693267822266, -33.48283386230469, -32.85897445678711, -32.23511505126953, -31.611255645751953, -30.987398147583008, -30.36353874206543, -29.73967933654785, -29.115819931030273, -28.491962432861328, -27.86810302734375, -27.244243621826172, -26.620384216308594, -25.99652671813965, -25.37266731262207, -24.748807907104492, -24.124948501586914, -23.50109100341797, -22.87723159790039, -22.253374099731445, -21.629514694213867, -21.005657196044922, -20.381797790527344, -19.757938385009766, -19.134078979492188, -18.510221481323242, -17.886362075805664, -17.262502670288086, -16.638643264770508, -16.014785766601562, -15.390926361083984, -14.767066955566406, -14.143208503723145, -13.519349098205566, -12.895490646362305, -12.271632194519043, -11.647773742675781, -11.023914337158203, -10.400055885314941, -9.776196479797363, -9.152338027954102, -8.528478622436523, -7.904620170593262, -7.280761241912842, -6.656902313232422, -6.033043384552002, -5.409184455871582, -4.78532600402832, -4.1614670753479, -3.5376081466674805, -2.9137492179870605, -2.2898902893066406, -1.6660313606262207, -1.0421725511550903, -0.4183136820793152, 0.20554518699645996, 0.8294040560722351, 1.4532629251480103, 2.0771217346191406, 2.7009806632995605]}, "parameters/lin1.weight": {"_type": "histogram", "values": [2.0, 1.0, 0.0, 0.0, 0.0, 0.0, 0.0, 0.0, 1.0, 0.0, 2.0, 0.0, 6.0, 0.0, 0.0, 0.0, 10.0, 8.0, 8.0, 8.0, 4.0, 4.0, 22.0, 29.0, 25.0, 37.0, 56.0, 92.0, 119.0, 136.0, 222.0, 305.0, 689.0, 7856.0, 3517.0, 370.0, 264.0, 187.0, 123.0, 83.0, 52.0, 41.0, 33.0, 20.0, 20.0, 15.0, 13.0, 5.0, 4.0, 0.0, 1.0, 4.0, 3.0, 0.0, 0.0, 1.0, 0.0, 0.0, 1.0, 0.0, 0.0, 0.0, 0.0, 1.0], "bins": [-4.993918418884277, -4.846282005310059, -4.69864559173584, -4.551009178161621, -4.403372764587402, -4.255736351013184, -4.108099937438965, -3.960463762283325, -3.8128273487091064, -3.6651909351348877, -3.517554521560669, -3.36991810798645, -3.2222819328308105, -3.074645519256592, -2.927009105682373, -2.7793726921081543, -2.6317362785339355, -2.484099864959717, -2.336463451385498, -2.1888270378112793, -2.0411906242370605, -1.8935543298721313, -1.7459180355072021, -1.5982816219329834, -1.4506452083587646, -1.303008794784546, -1.1553723812103271, -1.007736086845398, -0.8600996732711792, -0.7124632596969604, -0.5648269057273865, -0.4171905219554901, -0.26955413818359375, -0.12191775441169739, 0.025718629360198975, 0.17335501313209534, 0.3209913969039917, 0.46862778067588806, 0.6162641644477844, 0.7639005184173584, 0.9115369319915771, 1.059173345565796, 1.2068097591400146, 1.3544460535049438, 1.5020824670791626, 1.6497188806533813, 1.7973551750183105, 1.9449915885925293, 2.092628002166748, 2.240264415740967, 2.3879008293151855, 2.5355372428894043, 2.683173656463623, 2.8308098316192627, 2.9784462451934814, 3.1260826587677, 3.273719072341919, 3.4213554859161377, 3.5689918994903564, 3.716628313064575, 3.864264488220215, 4.011900901794434, 4.159537315368652, 4.307173728942871, 4.45481014251709]}, "parameters/lin1.bias": {"_type": "histogram", "values": [1.0, 0.0, 0.0, 0.0, 1.0, 0.0, 1.0, 0.0, 2.0, 1.0, 0.0, 2.0, 2.0, 2.0, 1.0, 3.0, 2.0, 1.0, 0.0, 2.0, 0.0, 0.0, 2.0, 1.0, 0.0, 1.0, 0.0, 0.0, 0.0, 1.0, 2.0, 4.0, 8.0, 11.0, 11.0, 20.0, 10.0, 3.0, 0.0, 3.0, 1.0, 0.0, 1.0, 1.0, 1.0, 0.0, 1.0, 0.0, 4.0, 1.0, 1.0, 0.0, 2.0, 1.0, 0.0, 1.0, 0.0, 1.0, 0.0, 0.0, 1.0, 3.0, 1.0, 1.0], "bins": [-1.1185580492019653, -1.0868256092071533, -1.0550931692123413, -1.0233606100082397, -0.9916281700134277, -0.9598957300186157, -0.9281632900238037, -0.8964307904243469, -0.8646983504295349, -0.8329659104347229, -0.8012334108352661, -0.7695009708404541, -0.7377685308456421, -0.7060360312461853, -0.6743035912513733, -0.6425710916519165, -0.6108386516571045, -0.5791062116622925, -0.5473737120628357, -0.5156412720680237, -0.4839088022708893, -0.4521763324737549, -0.42044389247894287, -0.38871142268180847, -0.3569789528846741, -0.3252464830875397, -0.2935140132904053, -0.26178157329559326, -0.23004910349845886, -0.19831663370132446, -0.16658417880535126, -0.13485172390937805, -0.10311919450759888, -0.07138673216104507, -0.03965426981449127, -0.00792180746793747, 0.023810654878616333, 0.055543117225170135, 0.08727557957172394, 0.11900804191827774, 0.15074050426483154, 0.18247297406196594, 0.21420542895793915, 0.24593788385391235, 0.27767035365104675, 0.30940282344818115, 0.34113526344299316, 0.37286773324012756, 0.40460020303726196, 0.43633267283439636, 0.46806514263153076, 0.4997975826263428, 0.5315300226211548, 0.5632625222206116, 0.5949949622154236, 0.6267274618148804, 0.6584599018096924, 0.6901923418045044, 0.7219248414039612, 0.7536572813987732, 0.78538978099823, 0.817122220993042, 0.848854660987854, 0.8805871605873108, 0.9123196005821228]}, "parameters/lin2.weight": {"_type": "histogram", "values": [2.0, 0.0, 0.0, 1.0, 1.0, 1.0, 0.0, 0.0, 0.0, 0.0, 1.0, 0.0, 5.0, 3.0, 1.0, 2.0, 0.0, 1.0, 4.0, 65.0, 9.0, 1.0, 1.0, 0.0, 4.0, 2.0, 1.0, 2.0, 2.0, 1.0, 1.0, 1.0, 1.0, 0.0, 1.0, 1.0, 0.0, 1.0, 2.0, 0.0, 0.0, 0.0, 0.0, 0.0, 0.0, 0.0, 0.0, 0.0, 0.0, 0.0, 0.0, 0.0, 0.0, 0.0, 0.0, 0.0, 0.0, 1.0, 0.0, 0.0, 0.0, 0.0, 0.0, 1.0], "bins": [-2.5831868648529053, -2.451371192932129, -2.3195555210113525, -2.1877400875091553, -2.055924415588379, -1.9241087436676025, -1.7922930717468262, -1.6604775190353394, -1.528661847114563, -1.3968461751937866, -1.2650306224822998, -1.1332149505615234, -1.001399278640747, -0.8695837259292603, -0.7377680540084839, -0.6059524416923523, -0.4741368293762207, -0.3423212170600891, -0.21050557494163513, -0.07868994772434235, 0.05312567949295044, 0.18494130671024323, 0.316756933927536, 0.44857257604599, 0.5803881883621216, 0.7122038006782532, 0.8440194129943848, 0.9758350849151611, 1.1076507568359375, 1.2394663095474243, 1.3712819814682007, 1.5030975341796875, 1.6349129676818848, 1.7667286396026611, 1.898544192314148, 2.0303597450256348, 2.162175416946411, 2.2939910888671875, 2.425806760787964, 2.5576224327087402, 2.6894378662109375, 2.821253538131714, 2.9530692100524902, 3.0848846435546875, 3.216700315475464, 3.3485159873962402, 3.4803316593170166, 3.612147331237793, 3.7439630031585693, 3.8757786750793457, 4.007594108581543, 4.139410018920898, 4.271225452423096, 4.403041362762451, 4.534856796264648, 4.666672229766846, 4.798488140106201, 4.930303573608398, 5.062119483947754, 5.193934917449951, 5.325750827789307, 5.457566261291504, 5.589381694793701, 5.721197605133057, 5.853013038635254]}, "parameters/lin2.bias": {"_type": "histogram", "values": [0.0, 0.0, 0.0, 0.0, 0.0, 0.0, 0.0, 0.0, 0.0, 0.0, 0.0, 0.0, 0.0, 0.0, 0.0, 0.0, 0.0, 0.0, 0.0, 0.0, 0.0, 0.0, 0.0, 0.0, 0.0, 0.0, 0.0, 0.0, 0.0, 0.0, 0.0, 0.0, 1.0, 0.0, 0.0, 0.0, 0.0, 0.0, 0.0, 0.0, 0.0, 0.0, 0.0, 0.0, 0.0, 0.0, 0.0, 0.0, 0.0, 0.0, 0.0, 0.0, 0.0, 0.0, 0.0, 0.0, 0.0, 0.0, 0.0, 0.0, 0.0, 0.0, 0.0, 0.0], "bins": [-0.88584303855896, -0.88584303855896, -0.88584303855896, -0.88584303855896, -0.88584303855896, -0.88584303855896, -0.88584303855896, -0.88584303855896, -0.88584303855896, -0.88584303855896, -0.88584303855896, -0.88584303855896, -0.88584303855896, -0.88584303855896, -0.88584303855896, -0.88584303855896, -0.88584303855896, -0.88584303855896, -0.88584303855896, -0.88584303855896, -0.88584303855896, -0.88584303855896, -0.88584303855896, -0.88584303855896, -0.88584303855896, -0.88584303855896, -0.88584303855896, -0.88584303855896, -0.88584303855896, -0.88584303855896, -0.88584303855896, -0.88584303855896, -0.88584303855896, -0.88584303855896, -0.88584303855896, -0.88584303855896, -0.88584303855896, -0.88584303855896, -0.88584303855896, -0.88584303855896, -0.88584303855896, -0.88584303855896, -0.88584303855896, -0.88584303855896, -0.88584303855896, -0.88584303855896, -0.88584303855896, -0.88584303855896, -0.88584303855896, -0.88584303855896, -0.88584303855896, -0.88584303855896, -0.88584303855896, -0.88584303855896, -0.88584303855896, -0.88584303855896, -0.88584303855896, -0.88584303855896, -0.88584303855896, -0.88584303855896, -0.88584303855896, -0.88584303855896, -0.88584303855896, -0.88584303855896, -0.88584303855896]}, "gradients/lin2.bias": {"_type": "histogram", "values": [0.0, 0.0, 0.0, 0.0, 0.0, 0.0, 0.0, 0.0, 0.0, 0.0, 0.0, 0.0, 0.0, 0.0, 0.0, 0.0, 0.0, 0.0, 0.0, 0.0, 0.0, 0.0, 0.0, 0.0, 0.0, 0.0, 0.0, 0.0, 0.0, 0.0, 0.0, 0.0, 1.0, 0.0, 0.0, 0.0, 0.0, 0.0, 0.0, 0.0, 0.0, 0.0, 0.0, 0.0, 0.0, 0.0, 0.0, 0.0, 0.0, 0.0, 0.0, 0.0, 0.0, 0.0, 0.0, 0.0, 0.0, 0.0, 0.0, 0.0, 0.0, 0.0, 0.0, 0.0], "bins": [-0.0709986463189125, -0.0709986463189125, -0.0709986463189125, -0.0709986463189125, -0.0709986463189125, -0.0709986463189125, -0.0709986463189125, -0.0709986463189125, -0.0709986463189125, -0.0709986463189125, -0.0709986463189125, -0.0709986463189125, -0.0709986463189125, -0.0709986463189125, -0.0709986463189125, -0.0709986463189125, -0.0709986463189125, -0.0709986463189125, -0.0709986463189125, -0.0709986463189125, -0.0709986463189125, -0.0709986463189125, -0.0709986463189125, -0.0709986463189125, -0.0709986463189125, -0.0709986463189125, -0.0709986463189125, -0.0709986463189125, -0.0709986463189125, -0.0709986463189125, -0.0709986463189125, -0.0709986463189125, -0.0709986463189125, -0.0709986463189125, -0.0709986463189125, -0.0709986463189125, -0.0709986463189125, -0.0709986463189125, -0.0709986463189125, -0.0709986463189125, -0.0709986463189125, -0.0709986463189125, -0.0709986463189125, -0.0709986463189125, -0.0709986463189125, -0.0709986463189125, -0.0709986463189125, -0.0709986463189125, -0.0709986463189125, -0.0709986463189125, -0.0709986463189125, -0.0709986463189125, -0.0709986463189125, -0.0709986463189125, -0.0709986463189125, -0.0709986463189125, -0.0709986463189125, -0.0709986463189125, -0.0709986463189125, -0.0709986463189125, -0.0709986463189125, -0.0709986463189125, -0.0709986463189125, -0.0709986463189125, -0.0709986463189125]}, "gradients/lin2.weight": {"_type": "histogram", "values": [1.0, 1.0, 0.0, 0.0, 0.0, 0.0, 0.0, 0.0, 0.0, 0.0, 0.0, 0.0, 1.0, 0.0, 0.0, 0.0, 0.0, 0.0, 0.0, 0.0, 1.0, 0.0, 0.0, 0.0, 0.0, 1.0, 0.0, 0.0, 0.0, 0.0, 0.0, 2.0, 0.0, 1.0, 0.0, 0.0, 1.0, 0.0, 0.0, 1.0, 2.0, 0.0, 2.0, 0.0, 1.0, 0.0, 0.0, 1.0, 0.0, 0.0, 1.0, 0.0, 0.0, 0.0, 0.0, 2.0, 1.0, 95.0, 2.0, 0.0, 1.0, 0.0, 1.0, 1.0], "bins": [-0.10531622916460037, -0.10349612683057785, -0.10167602449655533, -0.0998559296131134, -0.09803582727909088, -0.09621572494506836, -0.09439562261104584, -0.09257552027702332, -0.09075542539358139, -0.08893532305955887, -0.08711522072553635, -0.08529512584209442, -0.0834750235080719, -0.08165492117404938, -0.07983481884002686, -0.07801471650600433, -0.07619461417198181, -0.07437451183795929, -0.07255440950393677, -0.07073431462049484, -0.06891421228647232, -0.0670941099524498, -0.06527400761842728, -0.06345390528440475, -0.06163381040096283, -0.05981370806694031, -0.057993609458208084, -0.05617350712418556, -0.05435340851545334, -0.05253330618143082, -0.050713203847408295, -0.04889310523867607, -0.04707300662994385, -0.045252904295921326, -0.0434328056871891, -0.04161270335316658, -0.03979260474443436, -0.037972502410411835, -0.03615240007638931, -0.03433230146765709, -0.03251219913363457, -0.030692098662257195, -0.028871998190879822, -0.0270518958568573, -0.025231795385479927, -0.023411694914102554, -0.02159159444272518, -0.01977149397134781, -0.017951391637325287, -0.016131291165947914, -0.014311189763247967, -0.012491089291870594, -0.010670987889170647, -0.008850887417793274, -0.007030786946415901, -0.005210686009377241, -0.003390585072338581, -0.0015704842517152429, 0.00024961656890809536, 0.0020697172731161118, 0.003889818210154772, 0.005709919147193432, 0.007530019618570805, 0.009350121021270752, 0.011170221492648125]}, "gradients/lin1.bias": {"_type": "histogram", "values": [1.0, 0.0, 0.0, 1.0, 0.0, 0.0, 0.0, 0.0, 1.0, 0.0, 0.0, 0.0, 0.0, 0.0, 1.0, 0.0, 2.0, 0.0, 1.0, 0.0, 1.0, 0.0, 2.0, 0.0, 1.0, 0.0, 0.0, 0.0, 2.0, 0.0, 8.0, 88.0, 0.0, 1.0, 1.0, 1.0, 1.0, 2.0, 0.0, 0.0, 1.0, 1.0, 0.0, 0.0, 0.0, 0.0, 0.0, 0.0, 1.0, 0.0, 0.0, 0.0, 0.0, 0.0, 0.0, 0.0, 0.0, 1.0, 0.0, 0.0, 0.0, 0.0, 0.0, 1.0], "bins": [-0.07694293558597565, -0.07448258996009827, -0.07202224433422089, -0.0695618987083435, -0.06710156053304672, -0.06464121490716934, -0.06218086928129196, -0.05972052365541458, -0.0572601780295372, -0.05479983240365982, -0.05233949050307274, -0.04987914487719536, -0.04741879925131798, -0.044958457350730896, -0.042498111724853516, -0.040037766098976135, -0.03757742419838905, -0.03511707857251167, -0.03265673667192459, -0.03019639104604721, -0.02773604542016983, -0.0252757016569376, -0.022815357893705368, -0.020355012267827988, -0.017894668504595757, -0.01543432381004095, -0.012973979115486145, -0.010513635352253914, -0.008053290657699108, -0.005592945963144302, -0.003132601734250784, -0.0006722572725266218, 0.0017880871891975403, 0.004248431883752346, 0.0067087761126458645, 0.009169120341539383, 0.011629465036094189, 0.014089809730648994, 0.016550153493881226, 0.019010499119758606, 0.021470842882990837, 0.023931186646223068, 0.02639153227210045, 0.02885187603533268, 0.03131221979856491, 0.03377256542444229, 0.03623291105031967, 0.038693252950906754, 0.041153598576784134, 0.043613944202661514, 0.046074286103248596, 0.04853463172912598, 0.05099497735500336, 0.05345531925559044, 0.05591566488146782, 0.0583760105073452, 0.06083635240793228, 0.06329669803380966, 0.06575704365968704, 0.06821738928556442, 0.0706777274608612, 0.07313807308673859, 0.07559841871261597, 0.07805876433849335, 0.08051910996437073]}, "gradients/lin1.weight": {"_type": "histogram", "values": [1.0, 0.0, 0.0, 2.0, 0.0, 0.0, 0.0, 1.0, 0.0, 0.0, 1.0, 0.0, 1.0, 0.0, 3.0, 0.0, 1.0, 4.0, 3.0, 1.0, 6.0, 4.0, 8.0, 6.0, 8.0, 10.0, 18.0, 27.0, 47.0, 64.0, 165.0, 13566.0, 264.0, 73.0, 43.0, 22.0, 10.0, 8.0, 10.0, 2.0, 2.0, 4.0, 4.0, 2.0, 1.0, 1.0, 0.0, 2.0, 1.0, 0.0, 0.0, 0.0, 1.0, 1.0, 0.0, 0.0, 0.0, 1.0, 0.0, 0.0, 0.0, 0.0, 0.0, 1.0], "bins": [-0.3907497823238373, -0.37845683097839355, -0.36616387963294983, -0.3538709580898285, -0.34157800674438477, -0.32928505539894104, -0.3169921040534973, -0.3046991527080536, -0.29240620136260986, -0.28011325001716614, -0.2678202986717224, -0.2555273771286011, -0.24323442578315735, -0.23094147443771362, -0.2186485230922699, -0.20635558664798737, -0.19406265020370483, -0.1817696988582611, -0.16947676241397858, -0.15718381106853485, -0.14489087462425232, -0.1325979232788086, -0.12030497193336487, -0.10801202803850174, -0.09571908414363861, -0.08342614024877548, -0.07113319635391235, -0.05884024500846863, -0.0465473011136055, -0.03425435721874237, -0.021961409598588943, -0.009668463841080666, 0.00262451171875, 0.014917457476258278, 0.027210403233766556, 0.03950335085391998, 0.05179629474878311, 0.06408923864364624, 0.07638218998908997, 0.0886751338839531, 0.10096807777881622, 0.11326102167367935, 0.12555396556854248, 0.1378469169139862, 0.15013986825942993, 0.16243280470371246, 0.1747257560491562, 0.18701869249343872, 0.19931164383888245, 0.21160459518432617, 0.2238975316286087, 0.23619048297405243, 0.24848341941833496, 0.2607763707637787, 0.2730693221092224, 0.28536227345466614, 0.29765522480010986, 0.3099481761455536, 0.3222411274909973, 0.33453404903411865, 0.3468270003795624, 0.3591199517250061, 0.37141290307044983, 0.38370585441589355, 0.3959987759590149]}, "gradients/conv_layers.0.bias": {"_type": "histogram", "values": [1.0, 0.0, 0.0, 0.0, 0.0, 0.0, 0.0, 0.0, 0.0, 0.0, 0.0, 0.0, 0.0, 0.0, 1.0, 0.0, 0.0, 0.0, 0.0, 0.0, 1.0, 0.0, 0.0, 0.0, 0.0, 0.0, 0.0, 0.0, 0.0, 0.0, 0.0, 0.0, 0.0, 0.0, 0.0, 0.0, 0.0, 1.0, 1.0, 0.0, 0.0, 0.0, 1.0, 1.0, 3.0, 2.0, 18.0, 3.0, 1.0, 1.0, 1.0, 2.0, 0.0, 1.0, 0.0, 0.0, 0.0, 0.0, 0.0, 0.0, 0.0, 0.0, 0.0, 1.0], "bins": [-2.3500380516052246, -2.2993712425231934, -2.248704433441162, -2.1980373859405518, -2.1473705768585205, -2.0967037677764893, -2.046036958694458, -1.9953700304031372, -1.944703221321106, -1.8940364122390747, -1.843369483947754, -1.7927026748657227, -1.7420358657836914, -1.6913689374923706, -1.6407021284103394, -1.5900352001190186, -1.5393683910369873, -1.488701581954956, -1.4380346536636353, -1.387367844581604, -1.3367009162902832, -1.286034107208252, -1.2353672981262207, -1.1847003698349, -1.1340335607528687, -1.0833667516708374, -1.0326998233795166, -0.9820330142974854, -0.9313661456108093, -0.8806992769241333, -0.830032467842102, -0.779365599155426, -0.7286988496780396, -0.6780319809913635, -0.6273651123046875, -0.5766983032226562, -0.5260314345359802, -0.4753645658493042, -0.42469772696495056, -0.3740308880805969, -0.3233640193939209, -0.2726971507072449, -0.22203031182289124, -0.1713634580373764, -0.12069660425186157, -0.07002975046634674, -0.01936289668083191, 0.03130395710468292, 0.08197081089019775, 0.13263766467571259, 0.18330451846122742, 0.23397137224674225, 0.2846382260322571, 0.3353050947189331, 0.38597193360328674, 0.4366387724876404, 0.4873056411743164, 0.5379725098609924, 0.5886393785476685, 0.6393061876296997, 0.6899730563163757, 0.7406399250030518, 0.791306734085083, 0.841973602771759, 0.8926404714584351]}, "gradients/conv_layers.0.lin.weight": {"_type": "histogram", "values": [1.0, 0.0, 0.0, 0.0, 0.0, 0.0, 0.0, 1.0, 0.0, 0.0, 0.0, 0.0, 0.0, 0.0, 0.0, 0.0, 0.0, 1.0, 0.0, 1.0, 0.0, 0.0, 0.0, 0.0, 0.0, 0.0, 0.0, 0.0, 0.0, 0.0, 1.0, 1.0, 0.0, 0.0, 0.0, 0.0, 4.0, 1.0, 1.0, 5.0, 7.0, 24.0, 97.0, 6.0, 1.0, 2.0, 2.0, 1.0, 1.0, 1.0, 0.0, 0.0, 0.0, 0.0, 0.0, 0.0, 0.0, 0.0, 0.0, 0.0, 0.0, 0.0, 0.0, 1.0], "bins": [-18.083005905151367, -17.652984619140625, -17.222963333129883, -16.792943954467773, -16.36292266845703, -15.932901382446289, -15.502880096435547, -15.072859764099121, -14.642838478088379, -14.212817192077637, -13.782796859741211, -13.352775573730469, -12.922754287719727, -12.4927339553833, -12.062712669372559, -11.632692337036133, -11.20267105102539, -10.772649765014648, -10.342629432678223, -9.91260814666748, -9.482587814331055, -9.052566528320312, -8.62254524230957, -8.192524909973145, -7.762503623962402, -7.332482814788818, -6.902462005615234, -6.472440719604492, -6.042419910430908, -5.612399101257324, -5.182377815246582, -4.752357006072998, -4.3223371505737305, -3.8923163414001465, -3.4622952938079834, -3.0322742462158203, -2.6022534370422363, -2.1722326278686523, -1.7422115802764893, -1.3121906518936157, -0.8821697235107422, -0.45214879512786865, -0.022127866744995117, 0.4078930616378784, 0.837913990020752, 1.2679349184036255, 1.697955846786499, 2.127976894378662, 2.557997703552246, 2.98801851272583, 3.418039560317993, 3.8480606079101562, 4.27808141708374, 4.708102226257324, 5.138123512268066, 5.56814432144165, 5.998165130615234, 6.428185939788818, 6.858206748962402, 7.2882280349731445, 7.7182488441467285, 8.148269653320312, 8.578290939331055, 9.00831127166748, 9.438332557678223]}, "_wandb": {"runtime": 3833}}