{"epoch": 490, "train_acc": 96.30545867466948, "test_acc": 93.25321725965178, "loss": 0.1036984845995903, "_timestamp": 1681416983.914722, "_runtime": 4477.934365987778, "_step": 50, "parameters/conv_layers.0.nn.0.weight": {"_type": "histogram", "values": [1.0, 0.0, 0.0, 0.0, 0.0, 2.0, 0.0, 0.0, 0.0, 0.0, 0.0, 3.0, 2.0, 1.0, 1.0, 2.0, 1.0, 0.0, 2.0, 1.0, 4.0, 2.0, 1.0, 2.0, 0.0, 1.0, 3.0, 2.0, 6.0, 3.0, 0.0, 7.0, 4.0, 5.0, 4.0, 1.0, 3.0, 1.0, 0.0, 1.0, 2.0, 0.0, 2.0, 1.0, 0.0, 4.0, 1.0, 1.0, 0.0, 0.0, 0.0, 0.0, 1.0, 0.0, 0.0, 0.0, 0.0, 1.0, 0.0, 0.0, 0.0, 0.0, 0.0, 1.0], "bins": [-2.623567581176758, -2.541727066040039, -2.4598865509033203, -2.3780460357666016, -2.296205520629883, -2.214365005493164, -2.1325244903564453, -2.0506839752197266, -1.9688434600830078, -1.887002944946289, -1.8051624298095703, -1.7233219146728516, -1.6414813995361328, -1.559640884399414, -1.4778003692626953, -1.3959598541259766, -1.3141192197799683, -1.2322787046432495, -1.1504381895065308, -1.068597674369812, -0.9867571592330933, -0.9049165844917297, -0.823076069355011, -0.7412355542182922, -0.6593950390815735, -0.5775545239448547, -0.495714008808136, -0.41387346386909485, -0.3320329487323761, -0.25019243359565735, -0.1683519035577774, -0.08651138097047806, -0.004670858383178711, 0.07716966420412064, 0.15901018679141998, 0.24085071682929993, 0.3226912319660187, 0.4045317471027374, 0.48637229204177856, 0.5682128071784973, 0.6500533223152161, 0.7318938374519348, 0.8137343525886536, 0.8955748677253723, 0.9774154424667358, 1.0592559576034546, 1.1410964727401733, 1.222936987876892, 1.3047775030136108, 1.3866180181503296, 1.4684585332870483, 1.550299048423767, 1.6321395635604858, 1.7139800786972046, 1.7958205938339233, 1.877661108970642, 1.9595017433166504, 2.041342258453369, 2.123182773590088, 2.2050232887268066, 2.2868638038635254, 2.368704319000244, 2.450544834136963, 2.5323853492736816, 2.6142258644104004]}, "parameters/conv_layers.0.nn.0.bias": {"_type": "histogram", "values": [1.0, 0.0, 0.0, 0.0, 0.0, 0.0, 0.0, 0.0, 0.0, 2.0, 0.0, 0.0, 2.0, 0.0, 0.0, 0.0, 0.0, 1.0, 1.0, 0.0, 0.0, 0.0, 0.0, 0.0, 0.0, 2.0, 0.0, 0.0, 2.0, 0.0, 0.0, 1.0, 0.0, 0.0, 1.0, 1.0, 0.0, 1.0, 0.0, 1.0, 0.0, 1.0, 1.0, 0.0, 0.0, 0.0, 0.0, 0.0, 0.0, 0.0, 0.0, 0.0, 0.0, 0.0, 0.0, 0.0, 0.0, 0.0, 0.0, 0.0, 1.0, 0.0, 0.0, 1.0], "bins": [-0.7411569952964783, -0.7130728363990784, -0.6849886775016785, -0.6569045186042786, -0.6288203597068787, -0.6007362008094788, -0.5726520419120789, -0.544567883014679, -0.5164836645126343, -0.4883995056152344, -0.4603153467178345, -0.43223118782043457, -0.40414702892303467, -0.3760628402233124, -0.3479786813259125, -0.3198945224285126, -0.29181039333343506, -0.26372623443603516, -0.23564207553863525, -0.20755790174007416, -0.17947374284267426, -0.15138958394527435, -0.12330541759729385, -0.09522125124931335, -0.06713709235191345, -0.03905292972922325, -0.01096876710653305, 0.01711539551615715, 0.04519955813884735, 0.07328371703624725, 0.10136788338422775, 0.12945204973220825, 0.15753614902496338, 0.18562030792236328, 0.21370446681976318, 0.24178864061832428, 0.269872784614563, 0.2979569733142853, 0.3260411322116852, 0.3541252911090851, 0.382209450006485, 0.4102936089038849, 0.4383777678012848, 0.4664619266986847, 0.494546115398407, 0.5226302742958069, 0.5507144331932068, 0.5787985920906067, 0.6068827509880066, 0.6349669098854065, 0.6630510687828064, 0.6911352276802063, 0.7192193865776062, 0.7473035454750061, 0.775387704372406, 0.8034718632698059, 0.8315560817718506, 0.8596402406692505, 0.8877243995666504, 0.9158085584640503, 0.9438927173614502, 0.9719768762588501, 1.00006103515625, 1.02814519405365, 1.0562293529510498]}, "parameters/conv_layers.0.nn.1.weight": {"_type": "histogram", "values": [1.0, 0.0, 0.0, 0.0, 0.0, 2.0, 1.0, 0.0, 0.0, 0.0, 0.0, 0.0, 0.0, 0.0, 0.0, 0.0, 0.0, 1.0, 1.0, 0.0, 2.0, 0.0, 1.0, 0.0, 1.0, 0.0, 0.0, 1.0, 1.0, 1.0, 1.0, 0.0, 0.0, 0.0, 0.0, 0.0, 0.0, 0.0, 0.0, 0.0, 0.0, 0.0, 0.0, 0.0, 1.0, 0.0, 1.0, 0.0, 0.0, 0.0, 0.0, 0.0, 1.0, 0.0, 1.0, 1.0, 0.0, 0.0, 0.0, 0.0, 0.0, 0.0, 0.0, 1.0], "bins": [0.1234729215502739, 0.14171729981899261, 0.15996167063713074, 0.17820604145526886, 0.19645041227340698, 0.2146947979927063, 0.23293916881084442, 0.25118353962898254, 0.26942792534828186, 0.2876723110675812, 0.3059166669845581, 0.3241610527038574, 0.34240543842315674, 0.36064979434013367, 0.378894180059433, 0.3971385359764099, 0.41538292169570923, 0.43362730741500854, 0.4518716633319855, 0.4701160490512848, 0.4883604049682617, 0.506604790687561, 0.5248491764068604, 0.5430935621261597, 0.5613378882408142, 0.5795822739601135, 0.5978266596794128, 0.6160709857940674, 0.6343153715133667, 0.652559757232666, 0.6708041429519653, 0.6890485286712646, 0.707292914390564, 0.7255373001098633, 0.7437816858291626, 0.7620260119438171, 0.7802703976631165, 0.7985147833824158, 0.8167591691017151, 0.8350035548210144, 0.853247880935669, 0.8714922666549683, 0.8897366523742676, 0.9079809784889221, 0.9262253642082214, 0.9444697499275208, 0.9627141356468201, 0.9809585213661194, 0.9992029070854187, 1.0174472332000732, 1.0356916189193726, 1.0539360046386719, 1.0721803903579712, 1.0904247760772705, 1.1086691617965698, 1.1269135475158691, 1.1451579332351685, 1.1634023189544678, 1.181646704673767, 1.1998910903930664, 1.2181354761123657, 1.236379861831665, 1.2546241283416748, 1.2728685140609741, 1.2911128997802734]}, "parameters/conv_layers.0.nn.1.bias": {"_type": "histogram", "values": [1.0, 0.0, 0.0, 0.0, 0.0, 0.0, 1.0, 0.0, 0.0, 0.0, 0.0, 0.0, 1.0, 0.0, 0.0, 0.0, 1.0, 0.0, 0.0, 0.0, 0.0, 0.0, 1.0, 1.0, 0.0, 0.0, 0.0, 0.0, 0.0, 0.0, 0.0, 0.0, 0.0, 0.0, 0.0, 0.0, 0.0, 1.0, 0.0, 1.0, 1.0, 0.0, 0.0, 2.0, 2.0, 0.0, 0.0, 1.0, 0.0, 0.0, 1.0, 1.0, 1.0, 0.0, 0.0, 1.0, 0.0, 0.0, 0.0, 0.0, 0.0, 1.0, 0.0, 1.0], "bins": [-0.6404340863227844, -0.6277861595153809, -0.6151381731033325, -0.602490246295929, -0.5898422598838806, -0.577194333076477, -0.5645463466644287, -0.5518984198570251, -0.5392504334449768, -0.5266025066375732, -0.5139545202255249, -0.5013065934181213, -0.488658607006073, -0.47601065039634705, -0.4633627235889435, -0.45071476697921753, -0.43806684017181396, -0.425418883562088, -0.41277092695236206, -0.4001229703426361, -0.38747501373291016, -0.3748270571231842, -0.36217913031578064, -0.3495311737060547, -0.33688318729400635, -0.3242352306842804, -0.31158727407455444, -0.2989393174648285, -0.28629136085510254, -0.2736434042453766, -0.260995477437973, -0.24834750592708588, -0.2356995791196823, -0.22305162250995636, -0.2104036659002304, -0.19775572419166565, -0.1851077675819397, -0.17245981097221375, -0.1598118543624878, -0.14716389775276184, -0.1345159411430359, -0.12186798453330994, -0.10922003537416458, -0.09657207876443863, -0.08392412960529327, -0.07127617299556732, -0.05862821638584137, -0.045980263501405716, -0.03333231806755066, -0.020684365183115005, -0.008036410436034203, 0.004611543379724026, 0.017259497195482254, 0.029907450079917908, 0.04255540668964386, 0.055203359574079514, 0.06785131245851517, 0.08049926906824112, 0.09314721822738647, 0.10579517483711243, 0.11844313144683838, 0.13109108805656433, 0.1437390297651291, 0.15638698637485504, 0.169034942984581]}, "parameters/conv_layers.0.nn.3.weight": {"_type": "histogram", "values": [1.0, 1.0, 1.0, 0.0, 0.0, 0.0, 0.0, 0.0, 0.0, 0.0, 0.0, 0.0, 0.0, 0.0, 0.0, 0.0, 2.0, 0.0, 0.0, 0.0, 0.0, 1.0, 1.0, 4.0, 0.0, 1.0, 1.0, 0.0, 2.0, 0.0, 1.0, 1.0, 2.0, 1.0, 4.0, 9.0, 3.0, 5.0, 7.0, 7.0, 3.0, 11.0, 4.0, 9.0, 15.0, 31.0, 24.0, 22.0, 31.0, 33.0, 40.0, 22.0, 26.0, 26.0, 15.0, 10.0, 11.0, 4.0, 3.0, 3.0, 1.0, 0.0, 0.0, 1.0], "bins": [-3.981916904449463, -3.9008238315582275, -3.819730520248413, -3.7386374473571777, -3.6575441360473633, -3.576451063156128, -3.4953579902648926, -3.414264678955078, -3.3331716060638428, -3.2520785331726074, -3.170985221862793, -3.0898921489715576, -3.008798837661743, -2.927705764770508, -2.8466126918792725, -2.765519380569458, -2.6844263076782227, -2.6033332347869873, -2.522239923477173, -2.4411468505859375, -2.360053539276123, -2.2789604663848877, -2.1978673934936523, -2.116774082183838, -2.0356807708740234, -1.9545875787734985, -1.8734943866729736, -1.7924013137817383, -1.7113081216812134, -1.6302149295806885, -1.5491217374801636, -1.4680285453796387, -1.3869353532791138, -1.3058421611785889, -1.224748969078064, -1.1436558961868286, -1.0625627040863037, -0.9814695119857788, -0.9003763198852539, -0.8192831873893738, -0.7381899952888489, -0.657096803188324, -0.5760036706924438, -0.49491047859191895, -0.41381731629371643, -0.3327241539955139, -0.251630961894989, -0.1705377995967865, -0.08944463729858398, -0.008351467549800873, 0.07274170219898224, 0.15383487939834595, 0.23492804169654846, 0.316021203994751, 0.3971143960952759, 0.4782075583934784, 0.5593007206916809, 0.6403939127922058, 0.7214870452880859, 0.8025802373886108, 0.8836734294891357, 0.9647665619850159, 1.045859694480896, 1.126952886581421, 1.2080460786819458]}, "parameters/conv_layers.0.nn.3.bias": {"_type": "histogram", "values": [2.0, 0.0, 0.0, 1.0, 0.0, 0.0, 0.0, 0.0, 0.0, 0.0, 0.0, 1.0, 0.0, 0.0, 0.0, 0.0, 0.0, 0.0, 0.0, 0.0, 2.0, 0.0, 1.0, 0.0, 0.0, 0.0, 0.0, 0.0, 0.0, 1.0, 0.0, 0.0, 1.0, 1.0, 1.0, 2.0, 0.0, 0.0, 1.0, 0.0, 0.0, 0.0, 0.0, 0.0, 0.0, 1.0, 0.0, 2.0, 0.0, 0.0, 0.0, 0.0, 0.0, 0.0, 0.0, 0.0, 0.0, 0.0, 1.0, 0.0, 0.0, 0.0, 0.0, 2.0], "bins": [-0.7856609225273132, -0.7594342231750488, -0.7332075238227844, -0.7069808840751648, -0.6807541847229004, -0.654527485370636, -0.6283007860183716, -0.6020740866661072, -0.5758473873138428, -0.5496206879615784, -0.523393988609314, -0.49716731905937195, -0.47094064950942993, -0.4447139501571655, -0.4184872508049011, -0.3922605812549591, -0.3660339117050171, -0.3398072123527527, -0.31358054280281067, -0.28735384345054626, -0.26112717390060425, -0.23490047454833984, -0.20867377519607544, -0.18244709074497223, -0.15622040629386902, -0.1299937218427658, -0.103767029941082, -0.0775403380393982, -0.05131365358829498, -0.025086965411901474, 0.001139722764492035, 0.027366410940885544, 0.05359315872192383, 0.07981984317302704, 0.10604653507471085, 0.13227322697639465, 0.15849991142749786, 0.18472659587860107, 0.21095329523086548, 0.2371799796819687, 0.2634066641330719, 0.2896333634853363, 0.3158600330352783, 0.3420867323875427, 0.36831343173980713, 0.39454010128974915, 0.42076680064201355, 0.44699347019195557, 0.47322016954421997, 0.4994468688964844, 0.5256735682487488, 0.5519002079963684, 0.5781269073486328, 0.6043536067008972, 0.6305803060531616, 0.656807005405426, 0.6830337047576904, 0.7092604041099548, 0.7354871034622192, 0.7617137432098389, 0.7879404425621033, 0.8141671419143677, 0.8403938412666321, 0.8666205406188965, 0.8928471803665161]}, "parameters/conv_layers.1.nn.0.weight": {"_type": "histogram", "values": [1.0, 0.0, 0.0, 0.0, 0.0, 0.0, 0.0, 0.0, 1.0, 0.0, 1.0, 2.0, 1.0, 0.0, 1.0, 1.0, 2.0, 2.0, 2.0, 7.0, 3.0, 3.0, 6.0, 5.0, 2.0, 6.0, 5.0, 10.0, 4.0, 15.0, 14.0, 23.0, 16.0, 17.0, 18.0, 7.0, 14.0, 16.0, 26.0, 20.0, 15.0, 10.0, 12.0, 9.0, 9.0, 12.0, 12.0, 11.0, 7.0, 13.0, 6.0, 4.0, 5.0, 3.0, 4.0, 3.0, 3.0, 5.0, 1.0, 0.0, 1.0, 1.0, 1.0, 2.0], "bins": [-1.830160140991211, -1.7825534343719482, -1.734946608543396, -1.6873399019241333, -1.639733076095581, -1.5921263694763184, -1.5445195436477661, -1.4969128370285034, -1.4493060111999512, -1.4016993045806885, -1.3540924787521362, -1.3064857721328735, -1.2588789463043213, -1.2112722396850586, -1.1636654138565063, -1.1160587072372437, -1.0684518814086914, -1.0208451747894287, -0.9732383489608765, -0.925631582736969, -0.8780248165130615, -0.830418050289154, -0.7828112840652466, -0.7352045178413391, -0.6875978708267212, -0.6399911046028137, -0.5923843383789062, -0.5447775721549988, -0.4971708059310913, -0.4495640695095062, -0.40195730328559875, -0.3543505370616913, -0.3067437410354614, -0.25913697481155396, -0.21153020858764648, -0.1639234572649002, -0.11631669104099274, -0.06870992481708527, -0.021103166043758392, 0.02650359645485878, 0.07411035895347595, 0.12171712517738342, 0.1693238914012909, 0.21693064272403717, 0.26453739404678345, 0.3121441602706909, 0.3597509264945984, 0.40735769271850586, 0.45496445894241333, 0.5025712251663208, 0.5501779913902283, 0.5977847576141357, 0.6453915238380432, 0.6929982900619507, 0.7406050562858582, 0.7882118225097656, 0.8358185291290283, 0.8834252953529358, 0.9310320615768433, 0.9786388278007507, 1.0262455940246582, 1.073852300643921, 1.1214591264724731, 1.1690658330917358, 1.216672658920288]}, "parameters/conv_layers.1.nn.0.bias": {"_type": "histogram", "values": [2.0, 0.0, 0.0, 0.0, 0.0, 0.0, 0.0, 1.0, 0.0, 0.0, 0.0, 0.0, 1.0, 0.0, 0.0, 0.0, 0.0, 2.0, 0.0, 1.0, 0.0, 2.0, 0.0, 0.0, 0.0, 0.0, 0.0, 0.0, 0.0, 1.0, 0.0, 1.0, 1.0, 2.0, 1.0, 0.0, 0.0, 0.0, 1.0, 0.0, 1.0, 0.0, 0.0, 1.0, 0.0, 0.0, 0.0, 0.0, 0.0, 0.0, 0.0, 1.0, 0.0, 0.0, 0.0, 0.0, 0.0, 0.0, 0.0, 0.0, 0.0, 0.0, 0.0, 1.0], "bins": [-4.301786422729492, -4.154937267303467, -4.008088111877441, -3.861239433288574, -3.714390277862549, -3.5675411224365234, -3.420692205429077, -3.273843288421631, -3.1269941329956055, -2.98014497756958, -2.833296060562134, -2.6864471435546875, -2.539597988128662, -2.3927488327026367, -2.2458999156951904, -2.099050998687744, -1.9522018432617188, -1.805352807044983, -1.658503770828247, -1.5116547346115112, -1.3648056983947754, -1.2179566621780396, -1.0711076259613037, -0.9242585897445679, -0.777409553527832, -0.6305605173110962, -0.48371148109436035, -0.3368624448776245, -0.19001340866088867, -0.04316437244415283, 0.10368466377258301, 0.25053369998931885, 0.3973832130432129, 0.5442322492599487, 0.6910812854766846, 0.8379303216934204, 0.9847793579101562, 1.131628394126892, 1.278477430343628, 1.4253264665603638, 1.5721755027770996, 1.7190245389938354, 1.8658735752105713, 2.0127224922180176, 2.159571647644043, 2.3064208030700684, 2.4532697200775146, 2.600118637084961, 2.7469677925109863, 2.8938169479370117, 3.040665864944458, 3.1875147819519043, 3.3343639373779297, 3.481213092803955, 3.6280620098114014, 3.7749109268188477, 3.921760082244873, 4.068609237670898, 4.215457916259766, 4.362307071685791, 4.509156227111816, 4.656005382537842, 4.802854537963867, 4.949703216552734, 5.09655237197876]}, "parameters/conv_layers.1.nn.1.weight": {"_type": "histogram", "values": [1.0, 0.0, 1.0, 0.0, 0.0, 0.0, 1.0, 0.0, 0.0, 0.0, 1.0, 0.0, 1.0, 0.0, 2.0, 1.0, 0.0, 2.0, 2.0, 0.0, 2.0, 1.0, 0.0, 0.0, 1.0, 0.0, 0.0, 0.0, 1.0, 0.0, 0.0, 1.0, 0.0, 0.0, 0.0, 0.0, 0.0, 0.0, 0.0, 0.0, 0.0, 0.0, 0.0, 0.0, 0.0, 0.0, 0.0, 0.0, 1.0, 0.0, 0.0, 0.0, 0.0, 0.0, 0.0, 0.0, 0.0, 0.0, 0.0, 0.0, 0.0, 0.0, 0.0, 1.0], "bins": [1.1602799892425537, 1.173781156539917, 1.1872823238372803, 1.2007834911346436, 1.2142846584320068, 1.2277858257293701, 1.2412869930267334, 1.2547881603240967, 1.26828932762146, 1.2817904949188232, 1.2952916622161865, 1.3087928295135498, 1.322293996810913, 1.3357951641082764, 1.3492963314056396, 1.362797498703003, 1.3762985467910767, 1.38979971408844, 1.4033008813858032, 1.4168020486831665, 1.4303032159805298, 1.443804383277893, 1.4573055505752563, 1.4708067178726196, 1.4843077659606934, 1.4978089332580566, 1.51131010055542, 1.5248112678527832, 1.5383124351501465, 1.5518136024475098, 1.565314769744873, 1.5788159370422363, 1.5923171043395996, 1.605818271636963, 1.6193194389343262, 1.6328206062316895, 1.6463217735290527, 1.659822940826416, 1.6733241081237793, 1.6868252754211426, 1.7003264427185059, 1.7138276100158691, 1.7273287773132324, 1.7408299446105957, 1.754331111907959, 1.7678322792053223, 1.7813334465026855, 1.7948346138000488, 1.8083356618881226, 1.8218368291854858, 1.8353379964828491, 1.8488391637802124, 1.8623403310775757, 1.875841498374939, 1.8893426656723022, 1.9028438329696655, 1.9163448810577393, 1.9298460483551025, 1.9433472156524658, 1.956848382949829, 1.9703495502471924, 1.9838507175445557, 1.997351884841919, 2.0108530521392822, 2.0243542194366455]}, "parameters/conv_layers.1.nn.1.bias": {"_type": "histogram", "values": [1.0, 0.0, 1.0, 0.0, 0.0, 1.0, 1.0, 0.0, 0.0, 0.0, 0.0, 0.0, 0.0, 0.0, 1.0, 1.0, 1.0, 0.0, 0.0, 0.0, 1.0, 0.0, 0.0, 1.0, 1.0, 0.0, 0.0, 0.0, 0.0, 0.0, 2.0, 1.0, 0.0, 0.0, 2.0, 0.0, 0.0, 0.0, 0.0, 0.0, 0.0, 0.0, 2.0, 0.0, 0.0, 1.0, 0.0, 0.0, 1.0, 0.0, 0.0, 0.0, 0.0, 0.0, 0.0, 0.0, 0.0, 0.0, 0.0, 0.0, 0.0, 0.0, 0.0, 1.0], "bins": [-0.6693573594093323, -0.6490689516067505, -0.6287806034088135, -0.6084921956062317, -0.5882038474082947, -0.5679154396057129, -0.5476270914077759, -0.5273386836051941, -0.5070503354072571, -0.4867619574069977, -0.4664735794067383, -0.4461852014064789, -0.4258968234062195, -0.4056084454059601, -0.3853200674057007, -0.3650316894054413, -0.3447432816028595, -0.3244549036026001, -0.3041665256023407, -0.2838781476020813, -0.2635897696018219, -0.2433013767004013, -0.2230129987001419, -0.2027246206998825, -0.1824362426996231, -0.1621478646993637, -0.1418594866991043, -0.12157110124826431, -0.10128272324800491, -0.08099434524774551, -0.060705963522195816, -0.04041758179664612, -0.02012920379638672, 0.0001591760665178299, 0.02044755592942238, 0.040735937654972076, 0.061024315655231476, 0.08131269365549088, 0.10160107910633087, 0.12188945710659027, 0.14217783510684967, 0.16246621310710907, 0.18275459110736847, 0.20304296910762787, 0.22333136200904846, 0.24361974000930786, 0.26390811800956726, 0.28419649600982666, 0.30448487401008606, 0.32477325201034546, 0.34506163001060486, 0.36535000801086426, 0.38563838601112366, 0.40592676401138306, 0.42621514201164246, 0.44650352001190186, 0.46679192781448364, 0.48708030581474304, 0.5073686838150024, 0.5276570916175842, 0.5479454398155212, 0.568233847618103, 0.58852219581604, 0.6088106036186218, 0.6290989518165588]}, "parameters/conv_layers.1.nn.3.weight": {"_type": "histogram", "values": [1.0, 0.0, 0.0, 0.0, 0.0, 0.0, 0.0, 0.0, 1.0, 1.0, 0.0, 0.0, 0.0, 0.0, 0.0, 1.0, 0.0, 0.0, 0.0, 0.0, 1.0, 1.0, 1.0, 1.0, 1.0, 3.0, 2.0, 2.0, 1.0, 3.0, 6.0, 6.0, 1.0, 5.0, 7.0, 6.0, 7.0, 10.0, 16.0, 15.0, 13.0, 16.0, 11.0, 18.0, 17.0, 26.0, 24.0, 29.0, 25.0, 18.0, 33.0, 29.0, 11.0, 7.0, 12.0, 3.0, 5.0, 2.0, 0.0, 1.0, 0.0, 0.0, 0.0, 1.0], "bins": [-4.817124843597412, -4.715088844299316, -4.613052845001221, -4.511016845703125, -4.408980846405029, -4.306944847106934, -4.204908847808838, -4.102872848510742, -4.0008368492126465, -3.898800849914551, -3.796764850616455, -3.6947288513183594, -3.5926928520202637, -3.490656852722168, -3.3886210918426514, -3.2865850925445557, -3.184549331665039, -3.0825133323669434, -2.9804773330688477, -2.878441333770752, -2.7764053344726562, -2.6743693351745605, -2.572333574295044, -2.4702975749969482, -2.3682613372802734, -2.2662253379821777, -2.164189338684082, -2.0621533393859863, -1.9601174592971802, -1.8580814599990845, -1.7560454607009888, -1.654009461402893, -1.5519737005233765, -1.4499377012252808, -1.347901701927185, -1.245865821838379, -1.1438298225402832, -1.0417938232421875, -0.9397578239440918, -0.8377218842506409, -0.7356858849525452, -0.6336498856544495, -0.5316139459609985, -0.42957794666290283, -0.3275419771671295, -0.2255060076713562, -0.12347002327442169, -0.02143404632806778, 0.08060193061828613, 0.18263790011405945, 0.28467386960983276, 0.38670986890792847, 0.4887458384037018, 0.5907818078994751, 0.6928178071975708, 0.7948537468910217, 0.8968897461891174, 0.9989257454872131, 1.100961685180664, 1.2029976844787598, 1.3050336837768555, 1.4070696830749512, 1.5091055631637573, 1.611141562461853, 1.7131775617599487]}, "parameters/conv_layers.1.nn.3.bias": {"_type": "histogram", "values": [1.0, 0.0, 1.0, 0.0, 1.0, 0.0, 0.0, 0.0, 0.0, 0.0, 0.0, 1.0, 0.0, 0.0, 1.0, 1.0, 0.0, 0.0, 0.0, 1.0, 0.0, 0.0, 0.0, 0.0, 0.0, 0.0, 1.0, 1.0, 1.0, 0.0, 0.0, 0.0, 1.0, 0.0, 0.0, 0.0, 2.0, 0.0, 0.0, 1.0, 0.0, 0.0, 0.0, 1.0, 0.0, 0.0, 0.0, 0.0, 0.0, 0.0, 1.0, 0.0, 0.0, 0.0, 0.0, 0.0, 0.0, 2.0, 0.0, 0.0, 0.0, 0.0, 0.0, 2.0], "bins": [-0.7187923192977905, -0.692466139793396, -0.6661399602890015, -0.6398137211799622, -0.6134875416755676, -0.5871613621711731, -0.5608351826667786, -0.534509003162384, -0.5081827640533447, -0.4818565845489502, -0.4555303752422333, -0.42920419573783875, -0.4028779864311218, -0.3765518069267273, -0.35022562742233276, -0.32389941811561584, -0.2975732684135437, -0.27124708890914917, -0.24492087960243225, -0.21859470009803772, -0.192268505692482, -0.16594231128692627, -0.13961613178253174, -0.11328993737697601, -0.08696374297142029, -0.06063755229115486, -0.034311361610889435, -0.007985170930624008, 0.01834101974964142, 0.044667210429906845, 0.07099340111017227, 0.0973195880651474, 0.12364572286605835, 0.14997191727161407, 0.1762981116771698, 0.20262429118156433, 0.22895048558712006, 0.2552766799926758, 0.2816028594970703, 0.30792906880378723, 0.33425524830818176, 0.3605814278125763, 0.3869076371192932, 0.41323381662368774, 0.4395599961280823, 0.4658862054347992, 0.4922123849391937, 0.5185385942459106, 0.5448647737503052, 0.5711909532546997, 0.5975171327590942, 0.6238433718681335, 0.6501695513725281, 0.6764957308769226, 0.7028219103813171, 0.7291480898857117, 0.755474328994751, 0.7818005084991455, 0.80812668800354, 0.8344529271125793, 0.8607791066169739, 0.8871052861213684, 0.9134314656257629, 0.9397576451301575, 0.966083824634552]}, "parameters/lin1.weight": {"_type": "histogram", "values": [1.0, 0.0, 0.0, 1.0, 0.0, 2.0, 1.0, 4.0, 9.0, 3.0, 2.0, 8.0, 15.0, 9.0, 17.0, 26.0, 48.0, 36.0, 85.0, 105.0, 124.0, 171.0, 233.0, 300.0, 452.0, 643.0, 1772.0, 5323.0, 2737.0, 613.0, 441.0, 338.0, 227.0, 167.0, 127.0, 77.0, 68.0, 61.0, 33.0, 19.0, 19.0, 18.0, 12.0, 13.0, 4.0, 6.0, 3.0, 2.0, 5.0, 1.0, 3.0, 7.0, 3.0, 0.0, 0.0, 0.0, 1.0, 1.0, 1.0, 0.0, 1.0, 0.0, 1.0, 1.0], "bins": [-3.0605010986328125, -2.9505176544189453, -2.840533971786499, -2.730550527572632, -2.6205668449401855, -2.5105834007263184, -2.400599956512451, -2.290616273880005, -2.1806328296661377, -2.0706493854522705, -1.9606657028198242, -1.850682258605957, -1.7406986951828003, -1.6307151317596436, -1.5207316875457764, -1.4107481241226196, -1.300764560699463, -1.1907809972763062, -1.0807974338531494, -0.9708139896392822, -0.8608304262161255, -0.7508468627929688, -0.6408633589744568, -0.5308798551559448, -0.4208962917327881, -0.31091275811195374, -0.20092922449111938, -0.09094569087028503, 0.019037842750549316, 0.12902137637138367, 0.23900490999221802, 0.34898844361305237, 0.4589719772338867, 0.5689555406570435, 0.6789390444755554, 0.7889225482940674, 0.8989061117172241, 1.0088896751403809, 1.118873119354248, 1.2288566827774048, 1.3388402462005615, 1.4488238096237183, 1.558807373046875, 1.6687908172607422, 1.778774380683899, 1.8887579441070557, 1.9987413883209229, 2.108725070953369, 2.2187085151672363, 2.3286919593811035, 2.43867564201355, 2.548659086227417, 2.6586427688598633, 2.7686262130737305, 2.8786096572875977, 2.988593339920044, 3.098576784133911, 3.2085602283477783, 3.3185439109802246, 3.428527355194092, 3.538510799407959, 3.6484944820404053, 3.7584779262542725, 3.8684616088867188, 3.978445053100586]}, "parameters/lin1.bias": {"_type": "histogram", "values": [1.0, 0.0, 1.0, 0.0, 0.0, 0.0, 0.0, 0.0, 1.0, 0.0, 1.0, 0.0, 0.0, 0.0, 0.0, 0.0, 1.0, 0.0, 0.0, 1.0, 1.0, 0.0, 2.0, 0.0, 0.0, 2.0, 2.0, 1.0, 2.0, 4.0, 2.0, 0.0, 3.0, 3.0, 1.0, 4.0, 6.0, 4.0, 4.0, 5.0, 5.0, 7.0, 7.0, 2.0, 7.0, 9.0, 7.0, 4.0, 5.0, 2.0, 3.0, 1.0, 0.0, 2.0, 1.0, 1.0, 2.0, 1.0, 0.0, 0.0, 1.0, 0.0, 0.0, 1.0], "bins": [-0.45982956886291504, -0.44933316111564636, -0.4388367831707001, -0.4283403754234314, -0.4178439974784851, -0.40734758973121643, -0.39685118198394775, -0.38635480403900146, -0.3758583962917328, -0.3653619885444641, -0.3548656105995178, -0.34436920285224915, -0.33387282490730286, -0.3233764171600342, -0.3128800094127655, -0.3023836314678192, -0.29188722372055054, -0.28139081597328186, -0.27089443802833557, -0.2603980302810669, -0.2499016374349594, -0.23940524458885193, -0.22890885174274445, -0.21841245889663696, -0.20791608095169067, -0.1974196881055832, -0.1869232952594757, -0.17642688751220703, -0.16593049466609955, -0.15543410181999207, -0.14493770897388458, -0.1344413161277771, -0.12394490838050842, -0.11344851553440094, -0.10295211523771286, -0.09245572239160538, -0.0819593220949173, -0.07146292924880981, -0.06096653640270233, -0.05047013983130455, -0.03997374325990677, -0.029477346688508987, -0.018980951979756355, -0.008484556339681149, 0.0020118393003940582, 0.012508234940469265, 0.023004630580544472, 0.033501025289297104, 0.043997421860694885, 0.05449381843209267, 0.06499021500349045, 0.07548660784959793, 0.08598300814628601, 0.0964794009923935, 0.10697579383850098, 0.11747219413518906, 0.12796857953071594, 0.13846497237682343, 0.1489613652229309, 0.15945777297019958, 0.16995416581630707, 0.18045055866241455, 0.19094695150852203, 0.20144334435462952, 0.2119397521018982]}, "parameters/lin2.weight": {"_type": "histogram", "values": [1.0, 0.0, 0.0, 0.0, 0.0, 1.0, 1.0, 2.0, 0.0, 0.0, 3.0, 0.0, 0.0, 0.0, 2.0, 1.0, 2.0, 1.0, 0.0, 1.0, 0.0, 2.0, 2.0, 1.0, 0.0, 1.0, 10.0, 23.0, 25.0, 12.0, 0.0, 1.0, 0.0, 1.0, 0.0, 0.0, 1.0, 1.0, 1.0, 0.0, 1.0, 2.0, 1.0, 1.0, 2.0, 2.0, 2.0, 2.0, 3.0, 1.0, 1.0, 1.0, 1.0, 0.0, 1.0, 1.0, 0.0, 0.0, 0.0, 0.0, 0.0, 0.0, 0.0, 2.0], "bins": [-1.3517283201217651, -1.3035078048706055, -1.2552874088287354, -1.2070670127868652, -1.1588464975357056, -1.110625982284546, -1.0624055862426758, -1.0141851902008057, -0.965964674949646, -0.9177442193031311, -0.8695237636566162, -0.8213033080101013, -0.7730828523635864, -0.7248623967170715, -0.6766419410705566, -0.6284214854240417, -0.5802010297775269, -0.531980574131012, -0.48376011848449707, -0.4355396628379822, -0.3873192071914673, -0.3390987515449524, -0.2908782958984375, -0.2426578402519226, -0.19443738460540771, -0.14621692895889282, -0.09799647331237793, -0.04977601766586304, -0.0015555620193481445, 0.04666489362716675, 0.09488534927368164, 0.14310580492019653, 0.19132637977600098, 0.23954683542251587, 0.28776729106903076, 0.33598774671554565, 0.38420820236206055, 0.43242865800857544, 0.48064911365509033, 0.5288695693016052, 0.5770900249481201, 0.625310480594635, 0.6735309362411499, 0.7217513918876648, 0.7699718475341797, 0.8181923031806946, 0.8664127588272095, 0.9146332144737244, 0.9628536701202393, 1.0110740661621094, 1.059294581413269, 1.1075150966644287, 1.1557354927062988, 1.203955888748169, 1.2521764039993286, 1.3003969192504883, 1.3486173152923584, 1.3968377113342285, 1.4450582265853882, 1.4932787418365479, 1.541499137878418, 1.589719533920288, 1.6379400491714478, 1.6861605644226074, 1.7343809604644775]}, "parameters/lin2.bias": {"_type": "histogram", "values": [0.0, 0.0, 0.0, 0.0, 0.0, 0.0, 0.0, 0.0, 0.0, 0.0, 0.0, 0.0, 0.0, 0.0, 0.0, 0.0, 0.0, 0.0, 0.0, 0.0, 0.0, 0.0, 0.0, 0.0, 0.0, 0.0, 0.0, 0.0, 0.0, 0.0, 0.0, 0.0, 1.0, 0.0, 0.0, 0.0, 0.0, 0.0, 0.0, 0.0, 0.0, 0.0, 0.0, 0.0, 0.0, 0.0, 0.0, 0.0, 0.0, 0.0, 0.0, 0.0, 0.0, 0.0, 0.0, 0.0, 0.0, 0.0, 0.0, 0.0, 0.0, 0.0, 0.0, 0.0], "bins": [0.2512960135936737, 0.2512960135936737, 0.2512960135936737, 0.2512960135936737, 0.2512960135936737, 0.2512960135936737, 0.2512960135936737, 0.2512960135936737, 0.2512960135936737, 0.2512960135936737, 0.2512960135936737, 0.2512960135936737, 0.2512960135936737, 0.2512960135936737, 0.2512960135936737, 0.2512960135936737, 0.2512960135936737, 0.2512960135936737, 0.2512960135936737, 0.2512960135936737, 0.2512960135936737, 0.2512960135936737, 0.2512960135936737, 0.2512960135936737, 0.2512960135936737, 0.2512960135936737, 0.2512960135936737, 0.2512960135936737, 0.2512960135936737, 0.2512960135936737, 0.2512960135936737, 0.2512960135936737, 0.2512960135936737, 0.2512960135936737, 0.2512960135936737, 0.2512960135936737, 0.2512960135936737, 0.2512960135936737, 0.2512960135936737, 0.2512960135936737, 0.2512960135936737, 0.2512960135936737, 0.2512960135936737, 0.2512960135936737, 0.2512960135936737, 0.2512960135936737, 0.2512960135936737, 0.2512960135936737, 0.2512960135936737, 0.2512960135936737, 0.2512960135936737, 0.2512960135936737, 0.2512960135936737, 0.2512960135936737, 0.2512960135936737, 0.2512960135936737, 0.2512960135936737, 0.2512960135936737, 0.2512960135936737, 0.2512960135936737, 0.2512960135936737, 0.2512960135936737, 0.2512960135936737, 0.2512960135936737, 0.2512960135936737]}, "gradients/lin2.bias": {"_type": "histogram", "values": [0.0, 0.0, 0.0, 0.0, 0.0, 0.0, 0.0, 0.0, 0.0, 0.0, 0.0, 0.0, 0.0, 0.0, 0.0, 0.0, 0.0, 0.0, 0.0, 0.0, 0.0, 0.0, 0.0, 0.0, 0.0, 0.0, 0.0, 0.0, 0.0, 0.0, 0.0, 0.0, 1.0, 0.0, 0.0, 0.0, 0.0, 0.0, 0.0, 0.0, 0.0, 0.0, 0.0, 0.0, 0.0, 0.0, 0.0, 0.0, 0.0, 0.0, 0.0, 0.0, 0.0, 0.0, 0.0, 0.0, 0.0, 0.0, 0.0, 0.0, 0.0, 0.0, 0.0, 0.0], "bins": [-0.04693034291267395, -0.04693034291267395, -0.04693034291267395, -0.04693034291267395, -0.04693034291267395, -0.04693034291267395, -0.04693034291267395, -0.04693034291267395, -0.04693034291267395, -0.04693034291267395, -0.04693034291267395, -0.04693034291267395, -0.04693034291267395, -0.04693034291267395, -0.04693034291267395, -0.04693034291267395, -0.04693034291267395, -0.04693034291267395, -0.04693034291267395, -0.04693034291267395, -0.04693034291267395, -0.04693034291267395, -0.04693034291267395, -0.04693034291267395, -0.04693034291267395, -0.04693034291267395, -0.04693034291267395, -0.04693034291267395, -0.04693034291267395, -0.04693034291267395, -0.04693034291267395, -0.04693034291267395, -0.04693034291267395, -0.04693034291267395, -0.04693034291267395, -0.04693034291267395, -0.04693034291267395, -0.04693034291267395, -0.04693034291267395, -0.04693034291267395, -0.04693034291267395, -0.04693034291267395, -0.04693034291267395, -0.04693034291267395, -0.04693034291267395, -0.04693034291267395, -0.04693034291267395, -0.04693034291267395, -0.04693034291267395, -0.04693034291267395, -0.04693034291267395, -0.04693034291267395, -0.04693034291267395, -0.04693034291267395, -0.04693034291267395, -0.04693034291267395, -0.04693034291267395, -0.04693034291267395, -0.04693034291267395, -0.04693034291267395, -0.04693034291267395, -0.04693034291267395, -0.04693034291267395, -0.04693034291267395, -0.04693034291267395]}, "gradients/lin2.weight": {"_type": "histogram", "values": [1.0, 0.0, 0.0, 0.0, 0.0, 0.0, 0.0, 0.0, 0.0, 0.0, 0.0, 0.0, 1.0, 0.0, 0.0, 0.0, 0.0, 0.0, 0.0, 0.0, 0.0, 0.0, 0.0, 0.0, 0.0, 0.0, 0.0, 0.0, 1.0, 0.0, 0.0, 0.0, 0.0, 0.0, 0.0, 1.0, 0.0, 0.0, 0.0, 0.0, 0.0, 1.0, 0.0, 0.0, 0.0, 1.0, 0.0, 0.0, 0.0, 0.0, 1.0, 1.0, 0.0, 0.0, 0.0, 1.0, 0.0, 0.0, 0.0, 0.0, 0.0, 0.0, 0.0, 111.0], "bins": [-0.25849398970603943, -0.2544540762901306, -0.2504141628742218, -0.2463742345571518, -0.24233432114124298, -0.23829439282417297, -0.23425447940826416, -0.23021456599235535, -0.22617465257644653, -0.22213473916053772, -0.2180948108434677, -0.2140548974275589, -0.21001498401165009, -0.20597505569458008, -0.20193514227867126, -0.19789522886276245, -0.19385530054569244, -0.18981538712978363, -0.18577545881271362, -0.1817355453968048, -0.177695631980896, -0.173655703663826, -0.16961579024791718, -0.16557587683200836, -0.16153594851493835, -0.15749603509902954, -0.15345610678195953, -0.14941619336605072, -0.1453762799501419, -0.1413363516330719, -0.13729643821716309, -0.13325652480125427, -0.12921661138534546, -0.12517669796943665, -0.12113677710294724, -0.11709685623645782, -0.11305694282054901, -0.1090170219540596, -0.10497710108757019, -0.10093718767166138, -0.09689727425575256, -0.09285735338926315, -0.08881743997335434, -0.08477751910686493, -0.08073760569095612, -0.0766976848244667, -0.0726577639579773, -0.06861785054206848, -0.06457792967557907, -0.06053801253437996, -0.05649809539318085, -0.05245817452669144, -0.048418257385492325, -0.04437834024429321, -0.0403384193778038, -0.03629850223660469, -0.03225858137011528, -0.028218664228916168, -0.024178745225071907, -0.020138826221227646, -0.016098909080028534, -0.012058991007506847, -0.00801907293498516, -0.003979154862463474, 6.076143472455442e-05]}, "gradients/lin1.bias": {"_type": "histogram", "values": [1.0, 0.0, 0.0, 0.0, 0.0, 0.0, 0.0, 0.0, 0.0, 0.0, 0.0, 0.0, 0.0, 1.0, 0.0, 0.0, 0.0, 0.0, 0.0, 0.0, 0.0, 0.0, 0.0, 0.0, 0.0, 0.0, 0.0, 0.0, 1.0, 0.0, 0.0, 0.0, 0.0, 0.0, 1.0, 0.0, 0.0, 0.0, 0.0, 0.0, 111.0, 0.0, 0.0, 1.0, 0.0, 0.0, 0.0, 0.0, 0.0, 1.0, 0.0, 1.0, 1.0, 0.0, 0.0, 0.0, 0.0, 0.0, 0.0, 0.0, 0.0, 0.0, 0.0, 1.0], "bins": [-0.046655524522066116, -0.045496512204408646, -0.044337499886751175, -0.043178487569093704, -0.042019475251436234, -0.04086046293377876, -0.03970145061612129, -0.03854243829846382, -0.03738342970609665, -0.03622441738843918, -0.03506540507078171, -0.03390639275312424, -0.032747380435466766, -0.031588368117809296, -0.030429357662796974, -0.029270345345139503, -0.028111331164836884, -0.026952318847179413, -0.025793306529521942, -0.02463429421186447, -0.023475281894207, -0.02231627143919468, -0.02115725912153721, -0.019998246803879738, -0.018839234486222267, -0.017680222168564796, -0.016521209850907326, -0.01536219846457243, -0.014203186146914959, -0.013044173829257488, -0.011885162442922592, -0.010726150125265121, -0.00956713780760765, -0.00840812548995018, -0.007249113637953997, -0.006090101785957813, -0.0049310894683003426, -0.0037720773834735155, -0.0026130652986466885, -0.0014540532138198614, -0.00029504112899303436, 0.0008639709558337927, 0.0020229830406606197, 0.003181995125487447, 0.004341007210314274, 0.0055000195279717445, 0.006659031379967928, 0.007818043231964111, 0.008977055549621582, 0.010136067867279053, 0.011295080184936523, 0.01245409157127142, 0.01361310388892889, 0.014772116206586361, 0.015931127592921257, 0.017090139910578728, 0.0182491522282362, 0.01940816454589367, 0.02056717686355114, 0.02172618918120861, 0.022885199636220932, 0.024044211953878403, 0.025203224271535873, 0.026362236589193344, 0.027521248906850815]}, "gradients/lin1.weight": {"_type": "histogram", "values": [1.0, 0.0, 0.0, 0.0, 0.0, 0.0, 0.0, 0.0, 0.0, 1.0, 0.0, 0.0, 0.0, 1.0, 0.0, 2.0, 0.0, 1.0, 2.0, 1.0, 0.0, 2.0, 0.0, 1.0, 5.0, 4.0, 2.0, 3.0, 4.0, 4.0, 3.0, 3.0, 5.0, 9.0, 8.0, 22.0, 19.0, 34.0, 62.0, 139.0, 13817.0, 112.0, 36.0, 27.0, 20.0, 14.0, 7.0, 8.0, 4.0, 6.0, 0.0, 3.0, 2.0, 2.0, 2.0, 0.0, 0.0, 0.0, 1.0, 0.0, 0.0, 0.0, 0.0, 1.0], "bins": [-0.762168288230896, -0.7432326078414917, -0.7242969274520874, -0.7053612470626831, -0.6864255666732788, -0.6674899458885193, -0.648554265499115, -0.6296185851097107, -0.6106829047203064, -0.5917472243309021, -0.5728115439414978, -0.5538758635520935, -0.534940242767334, -0.5160045623779297, -0.4970688819885254, -0.4781332015991211, -0.4591975212097168, -0.4402618408203125, -0.4213261604309082, -0.4023905098438263, -0.383454829454422, -0.3645191490650177, -0.3455834984779358, -0.3266478180885315, -0.3077121376991272, -0.2887764573097229, -0.2698407769203186, -0.2509051263332367, -0.2319694459438324, -0.2130337655544281, -0.194098100066185, -0.1751624345779419, -0.1562267541885376, -0.1372910737991333, -0.1183554083108902, -0.0994197353720665, -0.0804840624332428, -0.0615483894944191, -0.0426127165555954, -0.023677043616771698, -0.004741370677947998, 0.014194302260875702, 0.0331299751996994, 0.0520656481385231, 0.0710013210773468, 0.0899369940161705, 0.1088726669549942, 0.1278083324432373, 0.1467440128326416, 0.1656796932220459, 0.184615358710289, 0.2035510241985321, 0.2224867045879364, 0.2414223849773407, 0.2603580355644226, 0.2792937159538269, 0.2982293963432312, 0.3171650767326355, 0.3361007571220398, 0.3550364077091217, 0.373972088098526, 0.3929077684879303, 0.4118434190750122, 0.4307790994644165, 0.4497147798538208]}, "gradients/conv_layers.1.nn.3.bias": {"_type": "histogram", "values": [1.0, 0.0, 0.0, 0.0, 0.0, 1.0, 0.0, 0.0, 0.0, 1.0, 0.0, 2.0, 0.0, 0.0, 0.0, 1.0, 2.0, 1.0, 0.0, 0.0, 0.0, 0.0, 3.0, 0.0, 0.0, 0.0, 3.0, 1.0, 0.0, 0.0, 0.0, 0.0, 2.0, 0.0, 0.0, 0.0, 0.0, 0.0, 0.0, 0.0, 0.0, 0.0, 0.0, 0.0, 0.0, 0.0, 0.0, 0.0, 0.0, 0.0, 0.0, 0.0, 0.0, 0.0, 0.0, 0.0, 0.0, 0.0, 0.0, 1.0, 0.0, 0.0, 0.0, 1.0], "bins": [-0.3836306035518646, -0.36658841371536255, -0.3495462238788605, -0.332504004240036, -0.31546181440353394, -0.29841962456703186, -0.2813774347305298, -0.2643352448940277, -0.24729304015636444, -0.23025085031986237, -0.2132086455821991, -0.19616645574569702, -0.17912426590919495, -0.16208206117153168, -0.1450398713350296, -0.12799766659736633, -0.11095547676086426, -0.09391327947378159, -0.07687108218669891, -0.05982889235019684, -0.042786695063114166, -0.025744499638676643, -0.00870230421423912, 0.008339891210198402, 0.025382086634635925, 0.0424242839217186, 0.05946647748351097, 0.07650867104530334, 0.09355086833238602, 0.11059306561946869, 0.12763525545597076, 0.14467746019363403, 0.1617196798324585, 0.17876186966896057, 0.19580407440662384, 0.21284626424312592, 0.22988846898078918, 0.24693065881729126, 0.26397284865379333, 0.2810150384902954, 0.2980572581291199, 0.31509944796562195, 0.332141637802124, 0.3491838574409485, 0.36622604727745056, 0.38326823711395264, 0.4003104269504547, 0.4173526167869568, 0.43439480662345886, 0.45143699645996094, 0.468479186296463, 0.4855214059352875, 0.5025635957717896, 0.5196057558059692, 0.5366479754447937, 0.5536901950836182, 0.5707323551177979, 0.5877745747566223, 0.604816734790802, 0.6218589544296265, 0.6389011144638062, 0.6559433341026306, 0.6729855537414551, 0.6900277137756348, 0.7070699334144592]}, "gradients/conv_layers.1.nn.3.weight": {"_type": "histogram", "values": [1.0, 0.0, 0.0, 0.0, 0.0, 1.0, 1.0, 2.0, 0.0, 0.0, 0.0, 2.0, 1.0, 1.0, 0.0, 1.0, 6.0, 5.0, 6.0, 2.0, 6.0, 9.0, 6.0, 6.0, 8.0, 7.0, 12.0, 17.0, 24.0, 174.0, 23.0, 16.0, 13.0, 3.0, 5.0, 6.0, 4.0, 4.0, 4.0, 3.0, 7.0, 3.0, 3.0, 0.0, 0.0, 0.0, 1.0, 0.0, 0.0, 0.0, 1.0, 2.0, 0.0, 2.0, 0.0, 0.0, 1.0, 0.0, 0.0, 0.0, 0.0, 0.0, 0.0, 1.0], "bins": [-0.6109744310379028, -0.5900840759277344, -0.5691937208175659, -0.5483033657073975, -0.5274130702018738, -0.5065227150917053, -0.48563235998153687, -0.4647420048713684, -0.44385164976119995, -0.4229612946510315, -0.4020709693431854, -0.38118061423301697, -0.3602902591228485, -0.33939993381500244, -0.318509578704834, -0.2976192235946655, -0.27672889828681946, -0.255838543176651, -0.23494820296764374, -0.21405786275863647, -0.19316750764846802, -0.17227716743946075, -0.1513868272304535, -0.13049647212028503, -0.10960613191127777, -0.08871578425168991, -0.06782543659210205, -0.04693509638309479, -0.026044748723506927, -0.005154402926564217, 0.015735942870378494, 0.036626286804676056, 0.057516634464263916, 0.07840698212385178, 0.09929732978343964, 0.1201876699924469, 0.14107802510261536, 0.16196836531162262, 0.18285870552062988, 0.20374906063079834, 0.2246394008398056, 0.24552974104881287, 0.2664200961589813, 0.2873104512691498, 0.30820077657699585, 0.3290911316871643, 0.34998148679733276, 0.37087181210517883, 0.3917621672153473, 0.41265252232551575, 0.4335428476333618, 0.4544332027435303, 0.47532355785369873, 0.4962138831615448, 0.5171042680740356, 0.5379945635795593, 0.5588849186897278, 0.5797752737998962, 0.6006656289100647, 0.6215559840202332, 0.6424462795257568, 0.6633366346359253, 0.6842269897460938, 0.7051173448562622, 0.7260076999664307]}, "gradients/conv_layers.1.nn.1.weight": {"_type": "histogram", "values": [1.0, 0.0, 0.0, 0.0, 0.0, 0.0, 0.0, 1.0, 0.0, 0.0, 0.0, 0.0, 0.0, 0.0, 0.0, 0.0, 0.0, 0.0, 0.0, 0.0, 0.0, 0.0, 0.0, 0.0, 0.0, 1.0, 0.0, 0.0, 1.0, 0.0, 0.0, 1.0, 0.0, 0.0, 0.0, 2.0, 0.0, 1.0, 1.0, 0.0, 0.0, 0.0, 0.0, 0.0, 1.0, 3.0, 1.0, 0.0, 2.0, 1.0, 0.0, 0.0, 0.0, 0.0, 0.0, 0.0, 1.0, 0.0, 0.0, 0.0, 0.0, 0.0, 1.0, 1.0], "bins": [-0.7548714280128479, -0.7379951477050781, -0.7211188673973083, -0.7042425870895386, -0.6873663067817688, -0.670490026473999, -0.6536137461662292, -0.6367374658584595, -0.6198612451553345, -0.6029849648475647, -0.5861086845397949, -0.5692324042320251, -0.5523561239242554, -0.5354798436164856, -0.5186035633087158, -0.501727283000946, -0.48485100269317627, -0.4679747223854065, -0.4510984420776367, -0.43422216176986694, -0.41734588146209717, -0.4004696309566498, -0.38359335064888, -0.36671707034111023, -0.34984079003334045, -0.3329645097255707, -0.3160882294178009, -0.29921194911003113, -0.28233569860458374, -0.26545941829681396, -0.2485831379890442, -0.23170685768127441, -0.21483057737350464, -0.19795429706573486, -0.1810780167579651, -0.1642017513513565, -0.14732547104358673, -0.13044919073581696, -0.11357291787862778, -0.0966966450214386, -0.07982036471366882, -0.06294408440589905, -0.04606781154870987, -0.029191534966230392, -0.012315258383750916, 0.004561018198728561, 0.02143729478120804, 0.038313571363687515, 0.05518984794616699, 0.07206612825393677, 0.08894240111112595, 0.10581867396831512, 0.1226949542760849, 0.13957123458385468, 0.15644749999046326, 0.17332378029823303, 0.1902000606060028, 0.20707634091377258, 0.22395262122154236, 0.24082888662815094, 0.2577051520347595, 0.2745814323425293, 0.2914577126502991, 0.30833399295806885, 0.3252102732658386]}, "gradients/conv_layers.1.nn.1.bias": {"_type": "histogram", "values": [1.0, 0.0, 0.0, 0.0, 0.0, 0.0, 0.0, 0.0, 0.0, 0.0, 0.0, 0.0, 0.0, 0.0, 0.0, 0.0, 0.0, 0.0, 1.0, 1.0, 0.0, 0.0, 0.0, 0.0, 0.0, 0.0, 0.0, 0.0, 0.0, 1.0, 0.0, 0.0, 0.0, 0.0, 1.0, 1.0, 0.0, 1.0, 2.0, 0.0, 1.0, 1.0, 0.0, 0.0, 0.0, 1.0, 0.0, 0.0, 1.0, 0.0, 3.0, 0.0, 0.0, 1.0, 0.0, 0.0, 0.0, 2.0, 0.0, 0.0, 0.0, 0.0, 0.0, 1.0], "bins": [-1.2361655235290527, -1.2092925310134888, -1.1824195384979248, -1.1555465459823608, -1.1286736726760864, -1.1018006801605225, -1.0749276876449585, -1.0480546951293945, -1.0211817026138306, -0.9943087100982666, -0.9674357771873474, -0.9405627846717834, -0.9136897921562195, -0.8868167996406555, -0.8599438667297363, -0.8330708742141724, -0.8061978816986084, -0.7793248891830444, -0.7524519562721252, -0.7255789637565613, -0.6987059712409973, -0.6718329787254333, -0.6449600458145142, -0.6180870532989502, -0.591214120388031, -0.564341127872467, -0.5374681949615479, -0.5105952024459839, -0.4837222099304199, -0.45684924721717834, -0.4299762547016144, -0.4031032919883728, -0.3762303292751312, -0.34935736656188965, -0.3224843740463257, -0.2956114113330841, -0.26873841881752014, -0.24186545610427856, -0.2149924784898758, -0.18811950087547302, -0.16124652326107025, -0.13437354564666748, -0.10750056803226471, -0.08062759786844254, -0.053754620254039764, -0.026881644502282143, -8.668750524520874e-06, 0.0268643070012331, 0.05373728275299072, 0.0806102603673935, 0.10748323798179626, 0.13435621559619904, 0.1612291932106018, 0.18810215592384338, 0.21497513353824615, 0.24184811115264893, 0.2687211036682129, 0.29559406638145447, 0.32246705889701843, 0.34934002161026, 0.376213014125824, 0.40308597683906555, 0.4299589693546295, 0.4568319320678711, 0.48370489478111267]}, "gradients/conv_layers.1.nn.0.bias": {"_type": "histogram", "values": [1.0, 0.0, 0.0, 0.0, 0.0, 0.0, 0.0, 1.0, 0.0, 0.0, 0.0, 0.0, 0.0, 0.0, 0.0, 0.0, 0.0, 0.0, 0.0, 0.0, 0.0, 0.0, 0.0, 0.0, 0.0, 1.0, 0.0, 0.0, 0.0, 0.0, 1.0, 0.0, 0.0, 1.0, 3.0, 1.0, 0.0, 2.0, 2.0, 2.0, 0.0, 1.0, 0.0, 1.0, 0.0, 0.0, 0.0, 0.0, 0.0, 0.0, 1.0, 0.0, 0.0, 0.0, 0.0, 0.0, 1.0, 0.0, 0.0, 0.0, 0.0, 0.0, 0.0, 1.0], "bins": [-9.452924132347107e-08, -9.200448403134942e-08, -8.947972673922777e-08, -8.695496944710612e-08, -8.443021215498447e-08, -8.190545486286283e-08, -7.938069757074118e-08, -7.685594027861953e-08, -7.433118298649788e-08, -7.180642569437623e-08, -6.928166840225458e-08, -6.675691111013293e-08, -6.423215381801128e-08, -6.170739652588964e-08, -5.9182639233767986e-08, -5.665788194164634e-08, -5.413312464952469e-08, -5.160836735740304e-08, -4.908361006528139e-08, -4.655885277315974e-08, -4.4034095481038094e-08, -4.1509338188916445e-08, -3.8984580896794796e-08, -3.645982360467315e-08, -3.39350663125515e-08, -3.141030902042985e-08, -2.88855517283082e-08, -2.6360794436186552e-08, -2.3836037144064903e-08, -2.1311279851943254e-08, -1.8786522559821606e-08, -1.6261765267699957e-08, -1.3737007975578308e-08, -1.121225068345666e-08, -8.68749339133501e-09, -6.162736099213362e-09, -3.637978807091713e-09, -1.1132215149700642e-09, 1.4115357771515846e-09, 3.9362930692732334e-09, 6.461050361394882e-09, 8.985807653516531e-09, 1.151056494563818e-08, 1.4035322237759829e-08, 1.6560079529881477e-08, 1.9084836822003126e-08, 2.1609594114124775e-08, 2.4134351406246424e-08, 2.6659108698368073e-08, 2.918386599048972e-08, 3.170862328261137e-08, 3.423338057473302e-08, 3.675813786685467e-08, 3.9282895158976316e-08, 4.1807652451097965e-08, 4.4332409743219614e-08, 4.685716703534126e-08, 4.938192432746291e-08, 5.190668161958456e-08, 5.443143891170621e-08, 5.695619620382786e-08, 5.948095349594951e-08, 6.200571078807116e-08, 6.45304680801928e-08, 6.705522537231445e-08]}, "gradients/conv_layers.1.nn.0.weight": {"_type": "histogram", "values": [1.0, 0.0, 0.0, 0.0, 0.0, 1.0, 1.0, 0.0, 0.0, 0.0, 0.0, 2.0, 2.0, 1.0, 1.0, 0.0, 1.0, 3.0, 3.0, 6.0, 10.0, 6.0, 19.0, 13.0, 20.0, 34.0, 42.0, 76.0, 54.0, 27.0, 21.0, 14.0, 7.0, 7.0, 6.0, 6.0, 0.0, 1.0, 1.0, 5.0, 1.0, 1.0, 2.0, 1.0, 0.0, 1.0, 0.0, 0.0, 0.0, 0.0, 0.0, 1.0, 0.0, 0.0, 0.0, 1.0, 0.0, 0.0, 0.0, 0.0, 0.0, 0.0, 0.0, 1.0], "bins": [-0.527975857257843, -0.5086781978607178, -0.48938053846359253, -0.4700828492641449, -0.45078518986701965, -0.4314875304698944, -0.4121898412704468, -0.39289218187332153, -0.3735945224761963, -0.35429686307907104, -0.3349992036819458, -0.31570151448249817, -0.2964038550853729, -0.2771061956882477, -0.25780850648880005, -0.2385108470916748, -0.21921318769454956, -0.19991552829742432, -0.18061785399913788, -0.16132017970085144, -0.1420225203037262, -0.12272485345602036, -0.10342718660831451, -0.08412951976060867, -0.06483185291290283, -0.04553418606519699, -0.02623651921749115, -0.006938852369785309, 0.012358814477920532, 0.03165648132562637, 0.050954148173332214, 0.07025181502103806, 0.0895494818687439, 0.10884714871644974, 0.12814481556415558, 0.14744248986244202, 0.16674014925956726, 0.1860378086566925, 0.20533548295497894, 0.22463315725326538, 0.24393081665039062, 0.26322847604751587, 0.2825261354446411, 0.30182382464408875, 0.321121484041214, 0.34041914343833923, 0.35971683263778687, 0.3790144920349121, 0.39831215143203735, 0.4176098108291626, 0.43690747022628784, 0.4562051594257355, 0.4755028188228607, 0.49480047821998596, 0.5140981674194336, 0.5333958268165588, 0.5526934862136841, 0.5719911456108093, 0.5912888050079346, 0.6105864644050598, 0.6298841238021851, 0.6491818428039551, 0.6684795022010803, 0.6877771615982056, 0.7070748209953308]}, "gradients/conv_layers.0.nn.3.bias": {"_type": "histogram", "values": [1.0, 0.0, 0.0, 0.0, 0.0, 0.0, 0.0, 0.0, 0.0, 0.0, 0.0, 0.0, 0.0, 0.0, 0.0, 0.0, 1.0, 1.0, 1.0, 0.0, 0.0, 0.0, 0.0, 0.0, 0.0, 3.0, 1.0, 0.0, 0.0, 2.0, 2.0, 1.0, 0.0, 0.0, 1.0, 1.0, 0.0, 1.0, 0.0, 0.0, 1.0, 0.0, 0.0, 0.0, 0.0, 0.0, 0.0, 0.0, 1.0, 0.0, 0.0, 0.0, 0.0, 0.0, 1.0, 0.0, 0.0, 0.0, 0.0, 0.0, 0.0, 0.0, 0.0, 1.0], "bins": [-0.5909127593040466, -0.5728248953819275, -0.5547370314598083, -0.5366491675376892, -0.5185613036155701, -0.5004734396934509, -0.4823855459690094, -0.46429768204689026, -0.4462098181247711, -0.428121954202652, -0.41003409028053284, -0.3919462263584137, -0.37385833263397217, -0.355770468711853, -0.3376826047897339, -0.31959474086761475, -0.3015068769454956, -0.28341901302337646, -0.2653311491012573, -0.247243270277977, -0.22915540635585785, -0.2110675424337387, -0.19297966361045837, -0.17489179968833923, -0.1568039357662201, -0.13871607184410095, -0.12062820047140121, -0.10254032909870148, -0.08445246517658234, -0.0663646012544632, -0.04827672988176346, -0.03018886223435402, -0.012101054191589355, 0.005986813455820084, 0.024074681103229523, 0.04216254875063896, 0.0602504163980484, 0.07833828032016754, 0.09642615169286728, 0.11451402306556702, 0.13260188698768616, 0.1506897509098053, 0.16877761483192444, 0.18686549365520477, 0.2049533575773239, 0.22304122149944305, 0.2411291003227234, 0.25921696424484253, 0.27730482816696167, 0.2953926920890808, 0.31348055601119995, 0.3315684199333191, 0.34965628385543823, 0.36774417757987976, 0.3858320415019989, 0.40391990542411804, 0.4220077693462372, 0.4400956332683563, 0.45818349719047546, 0.4762713611125946, 0.49435925483703613, 0.5124471187591553, 0.5305349826812744, 0.5486228466033936, 0.5667107105255127]}, "gradients/conv_layers.0.nn.3.weight": {"_type": "histogram", "values": [1.0, 0.0, 0.0, 0.0, 0.0, 0.0, 0.0, 0.0, 0.0, 0.0, 1.0, 0.0, 0.0, 0.0, 1.0, 0.0, 0.0, 0.0, 2.0, 1.0, 0.0, 0.0, 0.0, 0.0, 0.0, 1.0, 3.0, 2.0, 2.0, 1.0, 0.0, 3.0, 3.0, 3.0, 9.0, 14.0, 14.0, 15.0, 21.0, 37.0, 115.0, 32.0, 23.0, 18.0, 16.0, 7.0, 10.0, 6.0, 13.0, 8.0, 5.0, 1.0, 3.0, 2.0, 0.0, 0.0, 0.0, 2.0, 3.0, 0.0, 0.0, 1.0, 0.0, 1.0], "bins": [-0.8997211456298828, -0.8775678277015686, -0.8554144501686096, -0.8332611322402954, -0.8111077547073364, -0.7889544367790222, -0.766801118850708, -0.744647741317749, -0.7224944233894348, -0.7003411054611206, -0.6781877279281616, -0.6560344099998474, -0.6338810324668884, -0.6117277145385742, -0.58957439661026, -0.567421019077301, -0.5452677011489868, -0.5231143832206726, -0.5009610056877136, -0.4788076877593994, -0.4566543400287628, -0.4345009922981262, -0.4123476445674896, -0.390194296836853, -0.36804091930389404, -0.34588757157325745, -0.32373422384262085, -0.30158090591430664, -0.27942755818367004, -0.25727421045303345, -0.23512086272239685, -0.21296752989292145, -0.19081419706344604, -0.16866084933280945, -0.14650751650333405, -0.12435416877269745, -0.10220082849264145, -0.08004748821258545, -0.05789414420723915, -0.03574080020189285, -0.013587459921836853, 0.008565882220864296, 0.030719224363565445, 0.05287256836891174, 0.07502590864896774, 0.09717924892902374, 0.11933259665966034, 0.14148592948913574, 0.16363927721977234, 0.18579262495040894, 0.20794595777988434, 0.23009930551052094, 0.25225263833999634, 0.27440598607063293, 0.29655933380126953, 0.31871268153190613, 0.3408660292625427, 0.3630193769931793, 0.3851727247238159, 0.4073260426521301, 0.4294793903827667, 0.4516327381134033, 0.4737860858440399, 0.4959394335746765, 0.5180927515029907]}, "gradients/conv_layers.0.nn.1.weight": {"_type": "histogram", "values": [1.0, 0.0, 0.0, 0.0, 0.0, 0.0, 0.0, 0.0, 0.0, 0.0, 0.0, 0.0, 0.0, 0.0, 0.0, 0.0, 0.0, 1.0, 0.0, 2.0, 0.0, 0.0, 1.0, 0.0, 0.0, 0.0, 1.0, 1.0, 0.0, 1.0, 0.0, 0.0, 0.0, 0.0, 1.0, 1.0, 2.0, 2.0, 0.0, 0.0, 1.0, 0.0, 0.0, 1.0, 0.0, 1.0, 0.0, 2.0, 0.0, 0.0, 0.0, 0.0, 0.0, 0.0, 0.0, 0.0, 0.0, 0.0, 0.0, 0.0, 0.0, 0.0, 0.0, 1.0], "bins": [-1.205383062362671, -1.1682610511779785, -1.1311390399932861, -1.0940170288085938, -1.0568950176239014, -1.019773006439209, -0.9826510548591614, -0.945529043674469, -0.9084070920944214, -0.871285080909729, -0.8341630697250366, -0.797041118144989, -0.7599191069602966, -0.7227970957756042, -0.6856750845909119, -0.6485530734062195, -0.6114310622215271, -0.5743090510368347, -0.5371870398521423, -0.5000650882720947, -0.46294307708740234, -0.42582106590270996, -0.3886990547180176, -0.3515770733356476, -0.3144550621509552, -0.2773330509662628, -0.24021106958389282, -0.20308905839920044, -0.16596706211566925, -0.12884506583213806, -0.09172306209802628, -0.05460106208920479, -0.0174790620803833, 0.019642937928438187, 0.056764937937259674, 0.09388694167137146, 0.13100893795490265, 0.16813093423843384, 0.20525294542312622, 0.2423749417066574, 0.2794969379901886, 0.316618949174881, 0.353740930557251, 0.39086294174194336, 0.42798495292663574, 0.46510693430900574, 0.5022289156913757, 0.5393509268760681, 0.5764729380607605, 0.6135949492454529, 0.6507169604301453, 0.6878389120101929, 0.7249609231948853, 0.7620829343795776, 0.79920494556427, 0.8363269567489624, 0.8734489679336548, 0.9105709791183472, 0.9476929903030396, 0.9848149418830872, 1.0219370126724243, 1.0590590238571167, 1.0961809158325195, 1.133302927017212, 1.1704249382019043]}, "gradients/conv_layers.0.nn.1.bias": {"_type": "histogram", "values": [1.0, 0.0, 0.0, 0.0, 0.0, 0.0, 0.0, 0.0, 0.0, 0.0, 0.0, 0.0, 0.0, 0.0, 0.0, 1.0, 0.0, 0.0, 0.0, 0.0, 1.0, 1.0, 1.0, 0.0, 0.0, 0.0, 0.0, 0.0, 2.0, 0.0, 1.0, 1.0, 2.0, 0.0, 2.0, 0.0, 1.0, 1.0, 0.0, 1.0, 0.0, 0.0, 0.0, 0.0, 0.0, 1.0, 1.0, 0.0, 0.0, 0.0, 0.0, 0.0, 1.0, 0.0, 0.0, 0.0, 0.0, 0.0, 0.0, 0.0, 0.0, 0.0, 0.0, 1.0], "bins": [-1.0458887815475464, -1.0097078084945679, -0.9735267758369446, -0.9373458027839661, -0.9011647701263428, -0.8649837970733643, -0.8288028240203857, -0.7926217913627625, -0.7564408183097839, -0.7202598452568054, -0.6840788125991821, -0.6478978395462036, -0.6117168664932251, -0.5755358338356018, -0.5393548607826233, -0.503173828125, -0.4669928550720215, -0.4308118522167206, -0.3946308493614197, -0.35844987630844116, -0.32226887345314026, -0.28608787059783936, -0.24990688264369965, -0.21372589468955994, -0.17754489183425903, -0.14136388897895813, -0.10518290102481842, -0.06900190562009811, -0.03282091021537781, 0.0033600851893424988, 0.039541080594062805, 0.07572207599878311, 0.11190319061279297, 0.14808419346809387, 0.18426518142223358, 0.2204461693763733, 0.2566271722316742, 0.2928081750869751, 0.3289891481399536, 0.3651701509952545, 0.4013511538505554, 0.4375321567058563, 0.4737131595611572, 0.5098941326141357, 0.5460751056671143, 0.5822561383247375, 0.6184371113777161, 0.6546181440353394, 0.6907991170883179, 0.7269800901412964, 0.7631611227989197, 0.7993420958518982, 0.8355231285095215, 0.8717041015625, 0.9078850746154785, 0.9440661072731018, 0.9802470803260803, 1.0164281129837036, 1.0526090860366821, 1.0887900590896606, 1.1249710321426392, 1.1611520051956177, 1.1973330974578857, 1.2335140705108643, 1.2696950435638428]}, "gradients/conv_layers.0.nn.0.bias": {"_type": "histogram", "values": [1.0, 0.0, 0.0, 1.0, 0.0, 0.0, 0.0, 0.0, 0.0, 0.0, 0.0, 0.0, 0.0, 0.0, 1.0, 0.0, 2.0, 3.0, 7.0, 1.0, 1.0, 0.0, 1.0, 0.0, 0.0, 0.0, 0.0, 0.0, 0.0, 0.0, 0.0, 0.0, 0.0, 0.0, 0.0, 0.0, 0.0, 0.0, 1.0, 0.0, 0.0, 0.0, 0.0, 0.0, 0.0, 0.0, 0.0, 0.0, 0.0, 0.0, 0.0, 0.0, 0.0, 0.0, 0.0, 0.0, 0.0, 0.0, 0.0, 0.0, 0.0, 0.0, 0.0, 1.0], "bins": [-7.450580596923828e-08, -7.05476850271225e-08, -6.658956408500671e-08, -6.263144314289093e-08, -5.8673322200775146e-08, -5.471520125865936e-08, -5.075708031654358e-08, -4.6798959374427795e-08, -4.284083843231201e-08, -3.888271749019623e-08, -3.4924596548080444e-08, -3.096647560596466e-08, -2.7008354663848877e-08, -2.3050233721733093e-08, -1.909211277961731e-08, -1.5133991837501526e-08, -1.1175870895385742e-08, -7.2177499532699585e-09, -3.259629011154175e-09, 6.984919309616089e-10, 4.6566128730773926e-09, 8.614733815193176e-09, 1.257285475730896e-08, 1.6530975699424744e-08, 2.0489096641540527e-08, 2.444721758365631e-08, 2.8405338525772095e-08, 3.236345946788788e-08, 3.632158041000366e-08, 4.0279701352119446e-08, 4.423782229423523e-08, 4.819594323635101e-08, 5.21540641784668e-08, 5.611218512058258e-08, 6.007030606269836e-08, 6.402842700481415e-08, 6.798654794692993e-08, 7.194466888904572e-08, 7.59027898311615e-08, 7.986091077327728e-08, 8.381903171539307e-08, 8.777715265750885e-08, 9.173527359962463e-08, 9.569339454174042e-08, 9.96515154838562e-08, 1.0360963642597198e-07, 1.0756775736808777e-07, 1.1152587831020355e-07, 1.1548399925231934e-07, 1.1944212019443512e-07, 1.234002411365509e-07, 1.273583620786667e-07, 1.3131648302078247e-07, 1.3527460396289825e-07, 1.3923272490501404e-07, 1.4319084584712982e-07, 1.471489667892456e-07, 1.511070877313614e-07, 1.5506520867347717e-07, 1.5902332961559296e-07, 1.6298145055770874e-07, 1.6693957149982452e-07, 1.708976924419403e-07, 1.748558133840561e-07, 1.7881393432617188e-07]}, "gradients/conv_layers.0.nn.0.weight": {"_type": "histogram", "values": [1.0, 0.0, 0.0, 0.0, 1.0, 0.0, 0.0, 0.0, 1.0, 0.0, 1.0, 1.0, 4.0, 5.0, 45.0, 12.0, 1.0, 1.0, 1.0, 0.0, 0.0, 0.0, 0.0, 1.0, 0.0, 0.0, 0.0, 0.0, 0.0, 2.0, 0.0, 0.0, 0.0, 0.0, 0.0, 0.0, 1.0, 0.0, 0.0, 0.0, 0.0, 0.0, 0.0, 0.0, 0.0, 0.0, 0.0, 0.0, 0.0, 0.0, 0.0, 0.0, 0.0, 0.0, 0.0, 0.0, 0.0, 0.0, 1.0, 0.0, 0.0, 0.0, 0.0, 1.0], "bins": [-1.6093122959136963, -1.5001068115234375, -1.3909012079238892, -1.2816957235336304, -1.172490119934082, -1.0632846355438232, -0.9540791511535645, -0.8448736071586609, -0.7356680631637573, -0.6264625191688538, -0.5172569751739502, -0.4080514907836914, -0.29884594678878784, -0.18964041769504547, -0.0804348886013031, 0.02877064049243927, 0.13797616958618164, 0.247181698679924, 0.3563872277736664, 0.46559274196624756, 0.5747982859611511, 0.6840038299560547, 0.7932093143463135, 0.902414858341217, 1.0116204023361206, 1.1208258867263794, 1.2300314903259277, 1.3392369747161865, 1.4484424591064453, 1.5576480627059937, 1.6668535470962524, 1.7760591506958008, 1.8852648735046387, 1.9944703578948975, 2.1036758422851562, 2.212881565093994, 2.322087049484253, 2.4312925338745117, 2.5404980182647705, 2.6497035026550293, 2.758909225463867, 2.868114709854126, 2.9773201942443848, 3.0865259170532227, 3.1957314014434814, 3.3049368858337402, 3.414142370223999, 3.523347854614258, 3.6325533390045166, 3.7417588233947754, 3.850964307785034, 3.960170030593872, 4.069375514984131, 4.1785807609558105, 4.287786483764648, 4.396992206573486, 4.506197452545166, 4.615403175354004, 4.724608421325684, 4.8338141441345215, 4.943019390106201, 5.052225112915039, 5.161430835723877, 5.270636081695557, 5.3798418045043945]}, "_wandb": {"runtime": 4475}}