{"epoch": 490, "train_acc": 92.31486738583827, "test_acc": 80.18546555639668, "loss": 0.18054735660552979, "_timestamp": 1681414940.1140218, "_runtime": 3370.5958058834076, "_step": 50, "parameters/conv_layers.0.nn.0.weight": {"_type": "histogram", "values": [1.0, 2.0, 0.0, 0.0, 1.0, 0.0, 0.0, 2.0, 4.0, 2.0, 5.0, 1.0, 0.0, 2.0, 1.0, 5.0, 1.0, 1.0, 4.0, 7.0, 5.0, 3.0, 5.0, 8.0, 8.0, 7.0, 6.0, 9.0, 9.0, 5.0, 9.0, 9.0, 3.0, 4.0, 3.0, 2.0, 3.0, 4.0, 1.0, 1.0, 3.0, 2.0, 2.0, 1.0, 4.0, 1.0, 1.0, 0.0, 0.0, 0.0, 0.0, 2.0, 0.0, 0.0, 0.0, 0.0, 0.0, 0.0, 0.0, 0.0, 0.0, 0.0, 0.0, 1.0], "bins": [-2.3380250930786133, -2.246678113937378, -2.1553311347961426, -2.063983917236328, -1.9726369380950928, -1.8812899589538574, -1.7899428606033325, -1.6985958814620972, -1.6072487831115723, -1.515901803970337, -1.424554705619812, -1.3332077264785767, -1.2418606281280518, -1.1505136489868164, -1.0591665506362915, -0.9678195714950562, -0.8764725923538208, -0.7851255536079407, -0.6937785148620605, -0.6024314761161804, -0.5110844373703003, -0.41973742842674255, -0.3283904194831848, -0.2370433807373047, -0.14569634199142456, -0.05434931069612503, 0.0369977205991745, 0.12834474444389343, 0.21969178318977356, 0.3110388219356537, 0.4023858308792114, 0.49373286962509155, 0.5850799083709717, 0.6764269471168518, 0.7677739858627319, 0.8591210246086121, 0.9504680633544922, 1.0418150424957275, 1.1331621408462524, 1.2245091199874878, 1.3158562183380127, 1.407203197479248, 1.498550295829773, 1.5898972749710083, 1.6812443733215332, 1.7725913524627686, 1.8639384508132935, 1.9552854299545288, 2.0466322898864746, 2.13797926902771, 2.2293262481689453, 2.3206734657287598, 2.412020444869995, 2.5033674240112305, 2.594714403152466, 2.6860616207122803, 2.7774085998535156, 2.868755578994751, 2.9601025581359863, 3.051449775695801, 3.142796754837036, 3.2341437339782715, 3.325490713119507, 3.4168379306793213, 3.5081849098205566]}, "parameters/conv_layers.0.nn.0.bias": {"_type": "histogram", "values": [1.0, 0.0, 0.0, 0.0, 0.0, 3.0, 0.0, 0.0, 0.0, 0.0, 0.0, 2.0, 1.0, 1.0, 0.0, 1.0, 1.0, 0.0, 1.0, 2.0, 3.0, 0.0, 0.0, 0.0, 0.0, 1.0, 1.0, 2.0, 3.0, 0.0, 1.0, 1.0, 1.0, 1.0, 1.0, 1.0, 1.0, 1.0, 0.0, 1.0, 1.0, 0.0, 3.0, 0.0, 1.0, 0.0, 1.0, 1.0, 0.0, 0.0, 0.0, 0.0, 0.0, 0.0, 0.0, 0.0, 0.0, 0.0, 0.0, 0.0, 0.0, 0.0, 0.0, 1.0], "bins": [-0.8799036145210266, -0.8473578691482544, -0.814812183380127, -0.7822664380073547, -0.7497206926345825, -0.7171750068664551, -0.6846292614936829, -0.6520835161209106, -0.6195378303527832, -0.586992084980011, -0.5544463992118835, -0.5219006538391113, -0.4893549084663391, -0.4568091928958893, -0.42426347732543945, -0.39171773195266724, -0.359171986579895, -0.3266262710094452, -0.294080525636673, -0.26153481006622314, -0.22898907959461212, -0.1964433491230011, -0.16389763355255127, -0.13135190308094025, -0.09880617260932922, -0.0662604421377182, -0.033714719116687775, -0.0011689923703670502, 0.031376734375953674, 0.0639224648475647, 0.09646818786859512, 0.12901391088962555, 0.1615595817565918, 0.19410531222820282, 0.22665104269981384, 0.25919675827026367, 0.2917425036430359, 0.3242882192134857, 0.35683393478393555, 0.38937968015670776, 0.4219253957271576, 0.4544711112976074, 0.48701685667037964, 0.5195626020431519, 0.5521082878112793, 0.5846540331840515, 0.6171997785568237, 0.6497454643249512, 0.6822912096977234, 0.7148369550704956, 0.747382640838623, 0.7799283862113953, 0.8124741315841675, 0.8450198173522949, 0.8775655627250671, 0.9101113080978394, 0.9426569938659668, 0.975202739238739, 1.0077484846115112, 1.0402941703796387, 1.0728398561477661, 1.105385661125183, 1.1379313468933105, 1.170477032661438, 1.203022837638855]}, "parameters/conv_layers.0.nn.1.weight": {"_type": "histogram", "values": [1.0, 0.0, 0.0, 0.0, 0.0, 1.0, 0.0, 0.0, 0.0, 0.0, 0.0, 0.0, 0.0, 0.0, 0.0, 1.0, 0.0, 0.0, 0.0, 0.0, 2.0, 0.0, 1.0, 0.0, 0.0, 0.0, 1.0, 0.0, 1.0, 1.0, 3.0, 0.0, 0.0, 3.0, 1.0, 1.0, 1.0, 0.0, 0.0, 1.0, 0.0, 2.0, 2.0, 2.0, 1.0, 1.0, 1.0, 3.0, 1.0, 0.0, 0.0, 1.0, 1.0, 2.0, 1.0, 0.0, 0.0, 0.0, 1.0, 0.0, 0.0, 0.0, 1.0, 1.0], "bins": [0.0007708673365414143, 0.02349514327943325, 0.046219419687986374, 0.06894369423389435, 0.09166797250509262, 0.1143922507762909, 0.13711652159690857, 0.15984080731868744, 0.18256507813930511, 0.2052893489599228, 0.22801363468170166, 0.25073790550231934, 0.273462176322937, 0.2961864471435547, 0.31891074776649475, 0.3416350185871124, 0.3643592894077301, 0.3870835602283478, 0.40980783104896545, 0.4325321316719055, 0.4552564024925232, 0.47798067331314087, 0.5007049441337585, 0.5234292149543762, 0.5461534857749939, 0.5688777565956116, 0.5916020274162292, 0.6143262982368469, 0.6370505690574646, 0.6597748398780823, 0.6824991703033447, 0.7052234411239624, 0.7279477715492249, 0.7506720423698425, 0.7733963131904602, 0.7961205840110779, 0.8188448548316956, 0.8415691256523132, 0.8642934560775757, 0.8870177268981934, 0.909741997718811, 0.9324662685394287, 0.9551905393600464, 0.9779148101806641, 1.0006390810012817, 1.0233633518218994, 1.046087622642517, 1.0688118934631348, 1.0915361642837524, 1.1142604351043701, 1.1369847059249878, 1.1597089767456055, 1.1824332475662231, 1.2051575183868408, 1.2278817892074585, 1.2506060600280762, 1.2733304500579834, 1.296054720878601, 1.3187789916992188, 1.3415032625198364, 1.364227533340454, 1.3869518041610718, 1.4096760749816895, 1.4324003458023071, 1.4551246166229248]}, "parameters/conv_layers.0.nn.1.bias": {"_type": "histogram", "values": [1.0, 0.0, 0.0, 0.0, 0.0, 1.0, 1.0, 0.0, 0.0, 0.0, 0.0, 1.0, 0.0, 0.0, 1.0, 0.0, 0.0, 0.0, 2.0, 0.0, 1.0, 0.0, 0.0, 3.0, 0.0, 0.0, 0.0, 0.0, 1.0, 1.0, 4.0, 0.0, 1.0, 0.0, 0.0, 1.0, 1.0, 0.0, 1.0, 0.0, 0.0, 1.0, 2.0, 0.0, 4.0, 2.0, 1.0, 2.0, 1.0, 2.0, 0.0, 0.0, 0.0, 0.0, 0.0, 0.0, 1.0, 0.0, 1.0, 0.0, 1.0, 0.0, 0.0, 1.0], "bins": [-0.9780817627906799, -0.9570549726486206, -0.9360281825065613, -0.915001392364502, -0.8939746022224426, -0.8729478120803833, -0.851921021938324, -0.8308942317962646, -0.8098674416542053, -0.788840651512146, -0.7678138613700867, -0.7467870712280273, -0.725760281085968, -0.7047334909439087, -0.6837067008018494, -0.66267991065979, -0.6416530609130859, -0.6206262707710266, -0.5995994806289673, -0.578572690486908, -0.5575459003448486, -0.5365191102027893, -0.51549232006073, -0.49446552991867065, -0.47343873977661133, -0.452411949634552, -0.4313851594924927, -0.41035836935043335, -0.389331579208374, -0.3683047890663147, -0.34727799892425537, -0.32625120878219604, -0.3052244484424591, -0.2841976583003998, -0.26317086815834045, -0.24214407801628113, -0.2211172878742218, -0.20009048283100128, -0.17906369268894196, -0.15803690254688263, -0.1370101124048233, -0.11598332226276398, -0.09495653212070465, -0.07392973452806473, -0.0529029443860054, -0.031876154243946075, -0.01084936037659645, 0.010177431628108025, 0.0312042236328125, 0.052231013774871826, 0.07325780391693115, 0.09428460150957108, 0.1153113916516304, 0.13633818924427032, 0.15736497938632965, 0.17839176952838898, 0.1994185596704483, 0.22044534981250763, 0.24147213995456696, 0.2624989449977875, 0.2835257351398468, 0.30455252528190613, 0.32557931542396545, 0.3466061055660248, 0.3676328957080841]}, "parameters/conv_layers.0.nn.3.weight": {"_type": "histogram", "values": [1.0, 0.0, 0.0, 0.0, 0.0, 0.0, 0.0, 1.0, 0.0, 0.0, 1.0, 0.0, 0.0, 1.0, 0.0, 1.0, 4.0, 0.0, 1.0, 2.0, 3.0, 1.0, 1.0, 6.0, 3.0, 4.0, 6.0, 7.0, 8.0, 10.0, 13.0, 16.0, 8.0, 11.0, 23.0, 33.0, 26.0, 53.0, 78.0, 88.0, 138.0, 304.0, 313.0, 197.0, 104.0, 64.0, 35.0, 13.0, 4.0, 8.0, 4.0, 3.0, 1.0, 1.0, 0.0, 0.0, 0.0, 0.0, 0.0, 0.0, 0.0, 0.0, 0.0, 1.0], "bins": [-8.046236038208008, -7.855647563934326, -7.665058612823486, -7.474470138549805, -7.283881187438965, -7.093292713165283, -6.902704238891602, -6.712115287780762, -6.52152681350708, -6.330938339233398, -6.140349388122559, -5.949760913848877, -5.759172439575195, -5.5685834884643555, -5.377995014190674, -5.187406063079834, -4.996817588806152, -4.806229114532471, -4.615640163421631, -4.425051689147949, -4.234462738037109, -4.043874263763428, -3.853285789489746, -3.6626970767974854, -3.4721083641052246, -3.281519651412964, -3.090930938720703, -2.9003424644470215, -2.7097537517547607, -2.5191650390625, -2.3285765647888184, -2.1379878520965576, -1.9473991394042969, -1.7568104267120361, -1.566221833229065, -1.3756332397460938, -1.185044527053833, -0.994455873966217, -0.8038672208786011, -0.6132785677909851, -0.42268991470336914, -0.23210126161575317, -0.04151260852813721, 0.14907604455947876, 0.3396646976470947, 0.5302533507347107, 0.7208420038223267, 0.9114306569099426, 1.1020193099975586, 1.2926080226898193, 1.4831966161727905, 1.6737852096557617, 1.8643739223480225, 2.054962635040283, 2.245551109313965, 2.4361398220062256, 2.6267285346984863, 2.817317247390747, 3.007905960083008, 3.1984944343566895, 3.38908314704895, 3.579671859741211, 3.7702603340148926, 3.9608490467071533, 4.151437759399414]}, "parameters/conv_layers.0.nn.3.bias": {"_type": "histogram", "values": [1.0, 0.0, 1.0, 0.0, 0.0, 0.0, 0.0, 1.0, 1.0, 0.0, 2.0, 0.0, 1.0, 1.0, 0.0, 0.0, 2.0, 1.0, 2.0, 0.0, 0.0, 0.0, 0.0, 0.0, 1.0, 0.0, 1.0, 1.0, 2.0, 1.0, 1.0, 2.0, 0.0, 1.0, 1.0, 0.0, 3.0, 0.0, 1.0, 0.0, 0.0, 1.0, 0.0, 0.0, 0.0, 1.0, 1.0, 0.0, 2.0, 0.0, 0.0, 1.0, 0.0, 1.0, 0.0, 1.0, 1.0, 0.0, 0.0, 1.0, 0.0, 0.0, 1.0, 1.0], "bins": [-1.037190318107605, -1.0093202590942383, -0.9814502000808716, -0.9535800814628601, -0.9257100224494934, -0.8978399634361267, -0.8699698448181152, -0.8420997858047485, -0.8142297267913818, -0.7863596677780151, -0.7584896087646484, -0.730619490146637, -0.7027494311332703, -0.6748793721199036, -0.6470092535018921, -0.6191391944885254, -0.5912691354751587, -0.563399076461792, -0.5355290174484253, -0.5076588988304138, -0.4797888398170471, -0.4519187808036804, -0.42404869198799133, -0.39617860317230225, -0.36830854415893555, -0.34043848514556885, -0.31256839632987976, -0.2846983075141907, -0.256828248500824, -0.22895817458629608, -0.2010881006717682, -0.1732180267572403, -0.14534801244735718, -0.11747793853282928, -0.08960786461830139, -0.0617377907037735, -0.033867716789245605, -0.005997642874717712, 0.02187243103981018, 0.049742504954338074, 0.07761257886886597, 0.10548265278339386, 0.13335272669792175, 0.16122280061244965, 0.18909287452697754, 0.21696294844150543, 0.24483302235603333, 0.2727031111717224, 0.3005731701850891, 0.3284432291984558, 0.3563133180141449, 0.384183406829834, 0.4120534658432007, 0.4399235248565674, 0.46779361367225647, 0.49566370248794556, 0.5235337615013123, 0.551403820514679, 0.5792739391326904, 0.6071439981460571, 0.6350140571594238, 0.6628841161727905, 0.6907541751861572, 0.7186242938041687, 0.7464943528175354]}, "parameters/lin1.weight": {"_type": "histogram", "values": [3.0, 4.0, 2.0, 1.0, 1.0, 1.0, 5.0, 4.0, 3.0, 3.0, 5.0, 7.0, 4.0, 8.0, 10.0, 16.0, 19.0, 24.0, 19.0, 32.0, 45.0, 46.0, 88.0, 83.0, 96.0, 139.0, 156.0, 181.0, 211.0, 281.0, 373.0, 378.0, 432.0, 1190.0, 3285.0, 3204.0, 1323.0, 497.0, 418.0, 361.0, 303.0, 262.0, 207.0, 149.0, 117.0, 84.0, 58.0, 61.0, 53.0, 34.0, 26.0, 16.0, 22.0, 15.0, 11.0, 7.0, 3.0, 3.0, 4.0, 1.0, 2.0, 1.0, 2.0, 1.0], "bins": [-2.560100793838501, -2.487576723098755, -2.4150524139404297, -2.3425283432006836, -2.2700042724609375, -2.1974799633026123, -2.124955892562866, -2.05243182182312, -1.9799076318740845, -1.9073834419250488, -1.8348593711853027, -1.762335181236267, -1.6898109912872314, -1.6172869205474854, -1.5447627305984497, -1.4722386598587036, -1.399714469909668, -1.3271902799606323, -1.2546662092208862, -1.1821420192718506, -1.1096179485321045, -1.0370937585830688, -0.9645695686340332, -0.8920454382896423, -0.8195213079452515, -0.7469971776008606, -0.6744730472564697, -0.6019488573074341, -0.5294247269630432, -0.45690059661865234, -0.3843764364719391, -0.31185227632522583, -0.23932814598083496, -0.1668040007352829, -0.09427985548973083, -0.021755710244178772, 0.05076843500137329, 0.12329258024692535, 0.19581672549247742, 0.2683408856391907, 0.34086501598358154, 0.4133891463279724, 0.48591330647468567, 0.5584374666213989, 0.6309615969657898, 0.7034857273101807, 0.7760099172592163, 0.8485340476036072, 0.921058177947998, 0.9935823082923889, 1.0661064386367798, 1.1386306285858154, 1.2111546993255615, 1.2836788892745972, 1.3562030792236328, 1.428727149963379, 1.5012513399124146, 1.5737755298614502, 1.6462996006011963, 1.718823790550232, 1.7913479804992676, 1.8638720512390137, 1.9363962411880493, 2.008920431137085, 2.081444501876831]}, "parameters/lin1.bias": {"_type": "histogram", "values": [1.0, 0.0, 0.0, 0.0, 0.0, 0.0, 1.0, 0.0, 1.0, 1.0, 0.0, 0.0, 1.0, 1.0, 0.0, 1.0, 1.0, 1.0, 0.0, 1.0, 0.0, 0.0, 3.0, 0.0, 1.0, 1.0, 0.0, 2.0, 3.0, 2.0, 4.0, 12.0, 7.0, 5.0, 14.0, 10.0, 13.0, 2.0, 3.0, 3.0, 1.0, 0.0, 1.0, 5.0, 1.0, 1.0, 2.0, 3.0, 0.0, 2.0, 0.0, 0.0, 1.0, 0.0, 2.0, 0.0, 0.0, 2.0, 1.0, 1.0, 0.0, 1.0, 0.0, 1.0], "bins": [-1.1233967542648315, -1.0914204120635986, -1.0594441890716553, -1.027467966079712, -0.995491623878479, -0.9635153412818909, -0.9315390586853027, -0.8995627760887146, -0.8675864934921265, -0.8356102108955383, -0.8036339282989502, -0.7716576457023621, -0.7396813631057739, -0.7077050805091858, -0.6757287979125977, -0.6437525153160095, -0.6117762327194214, -0.5797999501228333, -0.5478236675262451, -0.515847384929657, -0.48387110233306885, -0.4518948197364807, -0.4199185371398926, -0.38794225454330444, -0.3559659719467163, -0.3239896893501282, -0.29201340675354004, -0.2600371241569519, -0.22806084156036377, -0.19608455896377563, -0.1641082763671875, -0.13213199377059937, -0.10015559196472168, -0.06817930936813354, -0.03620302677154541, -0.004226744174957275, 0.02774953842163086, 0.059725821018218994, 0.09170210361480713, 0.12367838621139526, 0.1556546688079834, 0.18763095140457153, 0.21960723400115967, 0.2515835165977478, 0.28355979919433594, 0.3155360817909241, 0.3475123643875122, 0.37948864698410034, 0.4114649295806885, 0.4434412121772766, 0.47541749477386475, 0.5073937773704529, 0.539370059967041, 0.5713463425636292, 0.6033226251602173, 0.6352989077568054, 0.6672751903533936, 0.6992514729499817, 0.7312277555465698, 0.763204038143158, 0.7951803207397461, 0.8271566033363342, 0.8591328859329224, 0.8911091685295105, 0.9230854511260986]}, "parameters/lin2.weight": {"_type": "histogram", "values": [2.0, 0.0, 0.0, 0.0, 0.0, 1.0, 2.0, 0.0, 0.0, 0.0, 0.0, 0.0, 0.0, 1.0, 0.0, 4.0, 1.0, 2.0, 1.0, 1.0, 1.0, 0.0, 2.0, 0.0, 2.0, 2.0, 2.0, 3.0, 0.0, 4.0, 0.0, 1.0, 8.0, 34.0, 9.0, 1.0, 0.0, 2.0, 4.0, 0.0, 3.0, 2.0, 2.0, 2.0, 1.0, 1.0, 2.0, 4.0, 1.0, 0.0, 0.0, 1.0, 0.0, 0.0, 2.0, 2.0, 0.0, 0.0, 1.0, 2.0, 1.0, 1.0, 0.0, 2.0], "bins": [-2.40470552444458, -2.332613945007324, -2.2605223655700684, -2.1884307861328125, -2.1163389682769775, -2.0442473888397217, -1.9721558094024658, -1.90006422996521, -1.827972650527954, -1.7558810710906982, -1.6837893724441528, -1.611697793006897, -1.5396062135696411, -1.4675145149230957, -1.3954229354858398, -1.323331356048584, -1.2512396574020386, -1.1791480779647827, -1.1070563793182373, -1.0349647998809814, -0.9628732204437256, -0.890781581401825, -0.8186899423599243, -0.7465983629226685, -0.6745067238807678, -0.6024150848388672, -0.5303235054016113, -0.4582318663597107, -0.38614025712013245, -0.3140486478805542, -0.24195702373981476, -0.16986539959907532, -0.09777379035949707, -0.025682173669338226, 0.04640944302082062, 0.11850105971097946, 0.1905926764011383, 0.26268428564071655, 0.3347759246826172, 0.40686753392219543, 0.4789591431617737, 0.5510507822036743, 0.6231423616409302, 0.6952340006828308, 0.7673256397247314, 0.8394172191619873, 0.9115088582038879, 0.9836004376411438, 1.0556920766830444, 1.1277836561203003, 1.1998753547668457, 1.2719669342041016, 1.3440585136413574, 1.4161502122879028, 1.4882417917251587, 1.5603333711624146, 1.63242506980896, 1.7045166492462158, 1.7766083478927612, 1.848699927330017, 1.920791506767273, 1.9928832054138184, 2.064974784851074, 2.13706636428833, 2.209157943725586]}, "parameters/lin2.bias": {"_type": "histogram", "values": [0.0, 0.0, 0.0, 0.0, 0.0, 0.0, 0.0, 0.0, 0.0, 0.0, 0.0, 0.0, 0.0, 0.0, 0.0, 0.0, 0.0, 0.0, 0.0, 0.0, 0.0, 0.0, 0.0, 0.0, 0.0, 0.0, 0.0, 0.0, 0.0, 0.0, 0.0, 1.0, 0.0, 0.0, 0.0, 0.0, 0.0, 0.0, 0.0, 0.0, 0.0, 0.0, 0.0, 0.0, 0.0, 0.0, 0.0, 0.0, 0.0, 0.0, 0.0, 0.0, 0.0, 0.0, 0.0, 0.0, 0.0, 0.0, 0.0, 0.0, 0.0, 0.0, 0.0, 0.0], "bins": [-0.6671591401100159, -0.6671591401100159, -0.6671591401100159, -0.6671591401100159, -0.6671591401100159, -0.6671591401100159, -0.6671591401100159, -0.6671591401100159, -0.6671591401100159, -0.6671591401100159, -0.6671591401100159, -0.6671591401100159, -0.6671591401100159, -0.6671591401100159, -0.6671591401100159, -0.6671591401100159, -0.6671591401100159, -0.6671591401100159, -0.6671591401100159, -0.6671591401100159, -0.6671591401100159, -0.6671591401100159, -0.6671591401100159, -0.6671591401100159, -0.6671591401100159, -0.6671591401100159, -0.6671591401100159, -0.6671591401100159, -0.6671591401100159, -0.6671591401100159, -0.6671591401100159, -0.6671591401100159, -0.6671591401100159, -0.6671591401100159, -0.6671591401100159, -0.6671591401100159, -0.6671591401100159, -0.6671591401100159, -0.6671591401100159, -0.6671591401100159, -0.6671591401100159, -0.6671591401100159, -0.6671591401100159, -0.6671591401100159, -0.6671591401100159, -0.6671591401100159, -0.6671591401100159, -0.6671591401100159, -0.6671591401100159, -0.6671591401100159, -0.6671591401100159, -0.6671591401100159, -0.6671591401100159, -0.6671591401100159, -0.6671591401100159, -0.6671591401100159, -0.6671591401100159, -0.6671591401100159, -0.6671591401100159, -0.6671591401100159, -0.6671591401100159, -0.6671591401100159, -0.6671591401100159, -0.6671591401100159, -0.6671591401100159]}, "gradients/lin2.bias": {"_type": "histogram", "values": [0.0, 0.0, 0.0, 0.0, 0.0, 0.0, 0.0, 0.0, 0.0, 0.0, 0.0, 0.0, 0.0, 0.0, 0.0, 0.0, 0.0, 0.0, 0.0, 0.0, 0.0, 0.0, 0.0, 0.0, 0.0, 0.0, 0.0, 0.0, 0.0, 0.0, 0.0, 0.0, 1.0, 0.0, 0.0, 0.0, 0.0, 0.0, 0.0, 0.0, 0.0, 0.0, 0.0, 0.0, 0.0, 0.0, 0.0, 0.0, 0.0, 0.0, 0.0, 0.0, 0.0, 0.0, 0.0, 0.0, 0.0, 0.0, 0.0, 0.0, 0.0, 0.0, 0.0, 0.0], "bins": [0.03385986387729645, 0.03385986387729645, 0.03385986387729645, 0.03385986387729645, 0.03385986387729645, 0.03385986387729645, 0.03385986387729645, 0.03385986387729645, 0.03385986387729645, 0.03385986387729645, 0.03385986387729645, 0.03385986387729645, 0.03385986387729645, 0.03385986387729645, 0.03385986387729645, 0.03385986387729645, 0.03385986387729645, 0.03385986387729645, 0.03385986387729645, 0.03385986387729645, 0.03385986387729645, 0.03385986387729645, 0.03385986387729645, 0.03385986387729645, 0.03385986387729645, 0.03385986387729645, 0.03385986387729645, 0.03385986387729645, 0.03385986387729645, 0.03385986387729645, 0.03385986387729645, 0.03385986387729645, 0.03385986387729645, 0.03385986387729645, 0.03385986387729645, 0.03385986387729645, 0.03385986387729645, 0.03385986387729645, 0.03385986387729645, 0.03385986387729645, 0.03385986387729645, 0.03385986387729645, 0.03385986387729645, 0.03385986387729645, 0.03385986387729645, 0.03385986387729645, 0.03385986387729645, 0.03385986387729645, 0.03385986387729645, 0.03385986387729645, 0.03385986387729645, 0.03385986387729645, 0.03385986387729645, 0.03385986387729645, 0.03385986387729645, 0.03385986387729645, 0.03385986387729645, 0.03385986387729645, 0.03385986387729645, 0.03385986387729645, 0.03385986387729645, 0.03385986387729645, 0.03385986387729645, 0.03385986387729645, 0.03385986387729645]}, "gradients/lin2.weight": {"_type": "histogram", "values": [1.0, 1.0, 1.0, 1.0, 4.0, 4.0, 2.0, 3.0, 82.0, 4.0, 1.0, 2.0, 0.0, 0.0, 1.0, 0.0, 1.0, 0.0, 1.0, 0.0, 1.0, 0.0, 0.0, 0.0, 0.0, 0.0, 0.0, 0.0, 0.0, 2.0, 1.0, 1.0, 1.0, 0.0, 0.0, 0.0, 0.0, 0.0, 0.0, 0.0, 1.0, 2.0, 0.0, 0.0, 0.0, 0.0, 0.0, 0.0, 0.0, 0.0, 0.0, 0.0, 0.0, 0.0, 0.0, 0.0, 0.0, 0.0, 0.0, 0.0, 0.0, 0.0, 0.0, 2.0], "bins": [-0.06832412630319595, -0.060309939086437225, -0.0522957518696785, -0.04428156465291977, -0.03626737743616104, -0.028253190219402313, -0.020239003002643585, -0.012224815785884857, -0.004210628569126129, 0.003803558647632599, 0.011817745864391327, 0.019831933081150055, 0.027846120297908783, 0.03586030751466751, 0.04387449473142624, 0.05188868194818497, 0.059902869164943695, 0.06791705638170242, 0.07593124359846115, 0.08394543081521988, 0.09195961803197861, 0.09997380524873734, 0.10798799246549606, 0.11600217968225479, 0.12401636689901352, 0.13203054666519165, 0.14004474878311157, 0.1480589210987091, 0.15607312321662903, 0.16408729553222656, 0.17210149765014648, 0.18011566996574402, 0.18812984228134155, 0.19614402949810028, 0.204158216714859, 0.21217240393161774, 0.22018659114837646, 0.2282007783651352, 0.23621496558189392, 0.24422915279865265, 0.2522433400154114, 0.2602575421333313, 0.26827171444892883, 0.27628588676452637, 0.2843000888824463, 0.2923142910003662, 0.30032846331596375, 0.3083426356315613, 0.3163568377494812, 0.3243710398674011, 0.33238521218299866, 0.3403993844985962, 0.3484135866165161, 0.35642778873443604, 0.36444196105003357, 0.3724561333656311, 0.380470335483551, 0.38848453760147095, 0.3964987099170685, 0.404512882232666, 0.41252708435058594, 0.42054128646850586, 0.4285554587841034, 0.4365696310997009, 0.44458383321762085]}, "gradients/lin1.bias": {"_type": "histogram", "values": [2.0, 0.0, 0.0, 0.0, 1.0, 2.0, 0.0, 0.0, 1.0, 1.0, 1.0, 1.0, 3.0, 2.0, 3.0, 76.0, 1.0, 2.0, 2.0, 2.0, 1.0, 2.0, 2.0, 0.0, 0.0, 3.0, 2.0, 3.0, 0.0, 1.0, 0.0, 0.0, 2.0, 1.0, 1.0, 0.0, 0.0, 1.0, 0.0, 0.0, 0.0, 0.0, 0.0, 0.0, 0.0, 0.0, 0.0, 0.0, 0.0, 0.0, 0.0, 0.0, 0.0, 0.0, 0.0, 0.0, 0.0, 0.0, 0.0, 0.0, 0.0, 0.0, 0.0, 1.0], "bins": [-0.02384939417243004, -0.022341860458254814, -0.02083432674407959, -0.019326793029904366, -0.01781925931572914, -0.016311725601553917, -0.014804191887378693, -0.013296658173203468, -0.011789124459028244, -0.01028159074485302, -0.008774057030677795, -0.007266523316502571, -0.005758989602327347, -0.0042514558881521225, -0.002743922173976898, -0.0012363884598016739, 0.0002711452543735504, 0.0017786789685487747, 0.003286212682723999, 0.004793746396899223, 0.006301280111074448, 0.007808813825249672, 0.009316347539424896, 0.01082388125360012, 0.012331414967775345, 0.01383894868195057, 0.015346482396125793, 0.016854016110301018, 0.018361549824476242, 0.019869083538651466, 0.02137661725282669, 0.022884150967001915, 0.024391688406467438, 0.025899222120642662, 0.027406755834817886, 0.02891428954899311, 0.030421823263168335, 0.03192935883998871, 0.033436890691518784, 0.03494442254304886, 0.03645195811986923, 0.037959493696689606, 0.03946702554821968, 0.040974557399749756, 0.04248209297657013, 0.0439896285533905, 0.04549716040492058, 0.04700469225645065, 0.04851222783327103, 0.0500197634100914, 0.051527295261621475, 0.05303482711315155, 0.054542362689971924, 0.0560498982667923, 0.05755743011832237, 0.05906496196985245, 0.06057249754667282, 0.062080033123493195, 0.06358756124973297, 0.06509509682655334, 0.06660263240337372, 0.06811016798019409, 0.06961770355701447, 0.07112523168325424, 0.07263276726007462]}, "gradients/lin1.weight": {"_type": "histogram", "values": [1.0, 0.0, 0.0, 0.0, 2.0, 1.0, 1.0, 2.0, 3.0, 6.0, 9.0, 6.0, 17.0, 32.0, 46.0, 84.0, 156.0, 429.0, 12427.0, 467.0, 228.0, 153.0, 92.0, 69.0, 34.0, 20.0, 24.0, 16.0, 12.0, 12.0, 10.0, 5.0, 7.0, 3.0, 1.0, 4.0, 3.0, 2.0, 1.0, 4.0, 1.0, 2.0, 0.0, 0.0, 3.0, 2.0, 0.0, 0.0, 1.0, 0.0, 0.0, 0.0, 0.0, 0.0, 0.0, 0.0, 0.0, 0.0, 0.0, 0.0, 0.0, 0.0, 0.0, 2.0], "bins": [-0.23834630846977234, -0.22543571889400482, -0.2125251293182373, -0.19961455464363098, -0.18670396506786346, -0.17379337549209595, -0.16088280081748962, -0.1479722112417221, -0.1350616216659546, -0.12215103209018707, -0.10924044996500015, -0.09632986783981323, -0.08341927826404572, -0.0705086886882782, -0.05759810656309128, -0.04468752071261406, -0.03177693486213684, -0.018866349011659622, -0.0059557631611824036, 0.006954822689294815, 0.019865408539772034, 0.03277599439024925, 0.04568658024072647, 0.05859716609120369, 0.07150775194168091, 0.08441834151744843, 0.09732892364263535, 0.11023950576782227, 0.12315009534358978, 0.1360606849193573, 0.14897125959396362, 0.16188184916973114, 0.17479246854782104, 0.18770305812358856, 0.20061364769935608, 0.2135242223739624, 0.22643481194972992, 0.23934540152549744, 0.25225597620010376, 0.26516658067703247, 0.2780771553516388, 0.2909877300262451, 0.30389833450317383, 0.31680890917778015, 0.3297194838523865, 0.3426300883293152, 0.3555406630039215, 0.3684512674808502, 0.38136184215545654, 0.39427241683006287, 0.4071830213069916, 0.4200935959815979, 0.4330042004585266, 0.44591477513313293, 0.45882534980773926, 0.47173595428466797, 0.4846465289592743, 0.4975571036338806, 0.5104677081108093, 0.523378312587738, 0.536288857460022, 0.5491994619369507, 0.5621100664138794, 0.5750206112861633, 0.587931215763092]}, "gradients/conv_layers.0.nn.3.bias": {"_type": "histogram", "values": [1.0, 0.0, 0.0, 0.0, 0.0, 0.0, 1.0, 0.0, 0.0, 0.0, 0.0, 0.0, 0.0, 0.0, 0.0, 0.0, 0.0, 0.0, 0.0, 0.0, 0.0, 0.0, 1.0, 1.0, 1.0, 1.0, 1.0, 1.0, 0.0, 4.0, 2.0, 1.0, 1.0, 8.0, 3.0, 1.0, 1.0, 0.0, 2.0, 0.0, 2.0, 2.0, 0.0, 1.0, 1.0, 0.0, 0.0, 0.0, 0.0, 1.0, 0.0, 0.0, 0.0, 0.0, 0.0, 1.0, 0.0, 0.0, 0.0, 0.0, 0.0, 0.0, 0.0, 1.0], "bins": [-0.4409756064414978, -0.42786622047424316, -0.4147568345069885, -0.4016474485397339, -0.38853806257247925, -0.3754286766052246, -0.36231929063796997, -0.34920990467071533, -0.3361005187034607, -0.32299113273620605, -0.3098817467689514, -0.2967723608016968, -0.28366297483444214, -0.2705535888671875, -0.25744420289993286, -0.24433480203151703, -0.2312254011631012, -0.21811601519584656, -0.20500662922859192, -0.19189724326133728, -0.17878785729408264, -0.1656784564256668, -0.15256907045841217, -0.13945968449115753, -0.1263502985239029, -0.11324091255664825, -0.10013152658939362, -0.08702213317155838, -0.07391274720430374, -0.0608033612370491, -0.047693971544504166, -0.03458458185195923, -0.021475225687026978, -0.00836583785712719, 0.004743549972772598, 0.017852937802672386, 0.030962325632572174, 0.04407171159982681, 0.05718110129237175, 0.07029049098491669, 0.08339987695217133, 0.09650926291942596, 0.1096186488866806, 0.12272804230451584, 0.13583743572235107, 0.1489468216896057, 0.16205620765686035, 0.175165593624115, 0.18827497959136963, 0.20138436555862427, 0.2144937515258789, 0.22760313749313354, 0.24071252346038818, 0.2538219094276428, 0.26693129539489746, 0.2800406813621521, 0.29315006732940674, 0.3062594532966614, 0.319368839263916, 0.33247822523117065, 0.3455876111984253, 0.35869699716567993, 0.37180638313293457, 0.3849157691001892, 0.39802518486976624]}, "gradients/conv_layers.0.nn.3.weight": {"_type": "histogram", "values": [2.0, 1.0, 0.0, 0.0, 0.0, 0.0, 4.0, 0.0, 1.0, 1.0, 3.0, 4.0, 3.0, 4.0, 2.0, 4.0, 6.0, 5.0, 3.0, 9.0, 9.0, 17.0, 24.0, 32.0, 68.0, 163.0, 931.0, 112.0, 48.0, 34.0, 29.0, 23.0, 11.0, 3.0, 6.0, 4.0, 3.0, 6.0, 7.0, 3.0, 0.0, 0.0, 3.0, 1.0, 0.0, 2.0, 2.0, 0.0, 1.0, 0.0, 2.0, 0.0, 0.0, 1.0, 0.0, 1.0, 0.0, 0.0, 0.0, 1.0, 0.0, 0.0, 0.0, 1.0], "bins": [-0.45115843415260315, -0.4340400695800781, -0.4169217050075531, -0.3998033404350281, -0.38268500566482544, -0.3655666410923004, -0.3484482765197754, -0.33132991194725037, -0.31421154737472534, -0.2970931828022003, -0.2799748182296753, -0.26285645365715027, -0.24573810398578644, -0.2286197394132614, -0.21150138974189758, -0.19438302516937256, -0.17726466059684753, -0.1601462960243225, -0.14302793145179749, -0.12590958178043365, -0.10879121720790863, -0.0916728526353836, -0.07455449551343918, -0.05743613466620445, -0.04031777381896973, -0.023199412971735, -0.006081052124500275, 0.011037308722734451, 0.028155669569969177, 0.0452740304172039, 0.06239239126443863, 0.07951074838638306, 0.09662914276123047, 0.1137475073337555, 0.13086587190628052, 0.14798422157764435, 0.16510258615016937, 0.1822209507226944, 0.19933930039405823, 0.21645766496658325, 0.23357602953910828, 0.2506943941116333, 0.2678127586841583, 0.28493112325668335, 0.302049458026886, 0.319167822599411, 0.33628618717193604, 0.35340455174446106, 0.3705229163169861, 0.3876412808895111, 0.40475964546203613, 0.42187801003456116, 0.4389963746070862, 0.4561147093772888, 0.47323307394981384, 0.49035143852233887, 0.5074697732925415, 0.5245881080627441, 0.5417065024375916, 0.5588248372077942, 0.5759432315826416, 0.5930615663528442, 0.6101799607276917, 0.6272982954978943, 0.6444166898727417]}, "gradients/conv_layers.0.nn.1.weight": {"_type": "histogram", "values": [2.0, 2.0, 0.0, 0.0, 1.0, 1.0, 1.0, 0.0, 2.0, 2.0, 2.0, 1.0, 2.0, 1.0, 1.0, 1.0, 2.0, 2.0, 3.0, 0.0, 2.0, 1.0, 0.0, 1.0, 1.0, 2.0, 0.0, 1.0, 0.0, 0.0, 1.0, 0.0, 0.0, 0.0, 1.0, 0.0, 0.0, 0.0, 1.0, 0.0, 0.0, 0.0, 0.0, 0.0, 0.0, 0.0, 0.0, 0.0, 0.0, 0.0, 0.0, 1.0, 0.0, 0.0, 0.0, 0.0, 0.0, 0.0, 1.0, 0.0, 0.0, 0.0, 0.0, 1.0], "bins": [-0.2554172873497009, -0.23996953666210175, -0.22452177107334137, -0.2090740203857422, -0.1936262547969818, -0.17817850410938263, -0.16273075342178345, -0.14728298783302307, -0.1318352371454239, -0.11638747900724411, -0.10093972086906433, -0.08549197018146515, -0.07004421204328537, -0.05459645390510559, -0.03914869949221611, -0.02370094321668148, -0.00825318694114685, 0.007194569334387779, 0.02264232560992241, 0.03809008002281189, 0.05353783816099167, 0.06898559629917145, 0.08443334698677063, 0.09988110512495041, 0.11532886326313019, 0.13077661395072937, 0.14622437953948975, 0.16167213022708893, 0.1771198809146881, 0.1925676465034485, 0.20801539719104767, 0.22346316277980804, 0.23891091346740723, 0.2543586790561676, 0.2698064148426056, 0.28525418043136597, 0.30070194602012634, 0.31614968180656433, 0.3315974473953247, 0.3470452129840851, 0.36249297857284546, 0.37794074416160583, 0.3933884799480438, 0.4088362455368042, 0.4242840111255646, 0.43973174691200256, 0.45517951250076294, 0.4706272780895233, 0.4860750138759613, 0.5015227794647217, 0.5169705152511597, 0.5324183106422424, 0.5478660464286804, 0.5633137822151184, 0.5787615776062012, 0.5942093133926392, 0.6096570491790771, 0.6251047849655151, 0.6405525803565979, 0.6560003161430359, 0.6714480519294739, 0.6868958473205566, 0.7023435831069946, 0.7177913188934326, 0.7332391142845154]}, "gradients/conv_layers.0.nn.1.bias": {"_type": "histogram", "values": [1.0, 0.0, 0.0, 0.0, 1.0, 0.0, 0.0, 1.0, 2.0, 1.0, 1.0, 0.0, 2.0, 0.0, 0.0, 2.0, 1.0, 1.0, 0.0, 2.0, 1.0, 2.0, 0.0, 3.0, 2.0, 0.0, 1.0, 2.0, 2.0, 0.0, 1.0, 1.0, 0.0, 1.0, 1.0, 0.0, 2.0, 0.0, 0.0, 0.0, 1.0, 2.0, 0.0, 0.0, 1.0, 0.0, 0.0, 0.0, 0.0, 0.0, 1.0, 0.0, 0.0, 0.0, 0.0, 0.0, 0.0, 0.0, 0.0, 0.0, 0.0, 0.0, 0.0, 1.0], "bins": [-0.4421720504760742, -0.42350777983665466, -0.4048435091972351, -0.38617926836013794, -0.3675149977207184, -0.34885072708129883, -0.3301864564418793, -0.3115221858024597, -0.29285794496536255, -0.274193674325943, -0.25552940368652344, -0.23686514794826508, -0.2182008922100067, -0.19953662157058716, -0.1808723509311676, -0.16220809519290924, -0.1435438096523285, -0.12487954646348953, -0.10621528327465057, -0.08755101263523102, -0.06888674944639206, -0.0502224862575531, -0.03155821934342384, -0.012893954291939735, 0.0057703107595443726, 0.02443457581102848, 0.04309884086251259, 0.061763107776641846, 0.0804273709654808, 0.09909163415431976, 0.11775590479373932, 0.13642016053199768, 0.15508443117141724, 0.1737487018108368, 0.19241295754909515, 0.2110772281885147, 0.22974148392677307, 0.24840575456619263, 0.2670700252056122, 0.28573429584503174, 0.3043985366821289, 0.32306280732154846, 0.341727077960968, 0.3603913187980652, 0.37905558943748474, 0.3977198600769043, 0.41638413071632385, 0.4350484013557434, 0.45371267199516296, 0.4723769426345825, 0.4910412132740021, 0.5097054839134216, 0.5283697247505188, 0.5470340251922607, 0.5656982660293579, 0.5843625068664551, 0.603026807308197, 0.6216910481452942, 0.6403553485870361, 0.6590195894241333, 0.6776838898658752, 0.6963481307029724, 0.7150123715400696, 0.7336766719818115, 0.7523409128189087]}, "gradients/conv_layers.0.nn.0.bias": {"_type": "histogram", "values": [1.0, 0.0, 0.0, 0.0, 0.0, 0.0, 0.0, 0.0, 1.0, 0.0, 0.0, 1.0, 3.0, 2.0, 4.0, 5.0, 11.0, 5.0, 0.0, 3.0, 1.0, 0.0, 2.0, 0.0, 0.0, 0.0, 0.0, 0.0, 0.0, 0.0, 0.0, 0.0, 0.0, 0.0, 0.0, 0.0, 0.0, 0.0, 0.0, 0.0, 0.0, 0.0, 0.0, 0.0, 0.0, 0.0, 0.0, 0.0, 0.0, 0.0, 0.0, 0.0, 0.0, 0.0, 0.0, 0.0, 0.0, 0.0, 0.0, 0.0, 0.0, 0.0, 0.0, 1.0], "bins": [-7.450580596923828e-08, -6.984919309616089e-08, -6.51925802230835e-08, -6.05359673500061e-08, -5.587935447692871e-08, -5.122274160385132e-08, -4.6566128730773926e-08, -4.190951585769653e-08, -3.725290298461914e-08, -3.259629011154175e-08, -2.7939677238464355e-08, -2.3283064365386963e-08, -1.862645149230957e-08, -1.3969838619232178e-08, -9.313225746154785e-09, -4.6566128730773926e-09, 0.0, 4.6566128730773926e-09, 9.313225746154785e-09, 1.3969838619232178e-08, 1.862645149230957e-08, 2.3283064365386963e-08, 2.7939677238464355e-08, 3.259629011154175e-08, 3.725290298461914e-08, 4.190951585769653e-08, 4.6566128730773926e-08, 5.122274160385132e-08, 5.587935447692871e-08, 6.05359673500061e-08, 6.51925802230835e-08, 6.984919309616089e-08, 7.450580596923828e-08, 7.916241884231567e-08, 8.381903171539307e-08, 8.847564458847046e-08, 9.313225746154785e-08, 9.778887033462524e-08, 1.0244548320770264e-07, 1.0710209608078003e-07, 1.1175870895385742e-07, 1.1641532182693481e-07, 1.210719347000122e-07, 1.257285475730896e-07, 1.30385160446167e-07, 1.3504177331924438e-07, 1.3969838619232178e-07, 1.4435499906539917e-07, 1.4901161193847656e-07, 1.5366822481155396e-07, 1.5832483768463135e-07, 1.6298145055770874e-07, 1.6763806343078613e-07, 1.7229467630386353e-07, 1.7695128917694092e-07, 1.816079020500183e-07, 1.862645149230957e-07, 1.909211277961731e-07, 1.955777406692505e-07, 2.0023435354232788e-07, 2.0489096641540527e-07, 2.0954757928848267e-07, 2.1420419216156006e-07, 2.1886080503463745e-07, 2.2351741790771484e-07]}, "gradients/conv_layers.0.nn.0.weight": {"_type": "histogram", "values": [1.0, 0.0, 0.0, 0.0, 0.0, 0.0, 0.0, 1.0, 0.0, 0.0, 0.0, 0.0, 0.0, 0.0, 0.0, 0.0, 0.0, 1.0, 1.0, 0.0, 1.0, 0.0, 1.0, 1.0, 2.0, 2.0, 3.0, 7.0, 29.0, 84.0, 10.0, 7.0, 0.0, 2.0, 0.0, 2.0, 1.0, 0.0, 0.0, 0.0, 1.0, 1.0, 0.0, 0.0, 0.0, 0.0, 1.0, 0.0, 0.0, 0.0, 0.0, 0.0, 0.0, 0.0, 0.0, 0.0, 0.0, 0.0, 0.0, 0.0, 0.0, 0.0, 0.0, 1.0], "bins": [-3.602017879486084, -3.4784891605377197, -3.3549604415893555, -3.231431722640991, -3.107903003692627, -2.9843742847442627, -2.8608458042144775, -2.7373170852661133, -2.613788366317749, -2.4902596473693848, -2.3667309284210205, -2.2432022094726562, -2.119673490524292, -1.9961448907852173, -1.872616171836853, -1.7490874528884888, -1.6255587339401245, -1.5020300149917603, -1.378501296043396, -1.2549726963043213, -1.131443977355957, -1.0079152584075928, -0.8843865394592285, -0.760857880115509, -0.6373291611671448, -0.5138004422187805, -0.39027178287506104, -0.2667430639266968, -0.1432143747806549, -0.01968567818403244, 0.10384301841259003, 0.2273717224597931, 0.35090041160583496, 0.47442910075187683, 0.5979577898979187, 0.721486508846283, 0.8450151681900024, 0.9685438871383667, 1.092072606086731, 1.2156013250350952, 1.33912992477417, 1.4626586437225342, 1.5861873626708984, 1.7097159624099731, 1.8332446813583374, 1.9567734003067017, 2.0803020000457764, 2.2038307189941406, 2.327359676361084, 2.4508883953094482, 2.5744171142578125, 2.6979458332061768, 2.821474552154541, 2.9450032711029053, 3.0685317516326904, 3.1920604705810547, 3.315589189529419, 3.439117908477783, 3.5626466274261475, 3.6861753463745117, 3.809704065322876, 3.9332327842712402, 4.056761264801025, 4.180290222167969, 4.303818702697754]}, "_wandb": {"runtime": 3369}}